{"learner":{"attributes":{"best_iteration":"70","best_ntree_limit":"71","best_score":"107.67143410465422","scikit_learn":"{\"n_estimators\": 500, \"objective\": \"reg:squarederror\", \"max_depth\": 5, \"max_leaves\": null, \"max_bin\": null, \"grow_policy\": null, \"learning_rate\": null, \"verbosity\": null, \"booster\": null, \"tree_method\": null, \"gamma\": null, \"min_child_weight\": null, \"max_delta_step\": null, \"subsample\": 0.7, \"sampling_method\": null, \"colsample_bytree\": 0.8, \"colsample_bylevel\": null, \"colsample_bynode\": null, \"reg_alpha\": null, \"reg_lambda\": null, \"scale_pos_weight\": null, \"base_score\": null, \"missing\": NaN, \"num_parallel_tree\": null, \"random_state\": null, \"n_jobs\": null, \"monotone_constraints\": null, \"interaction_constraints\": null, \"importance_type\": null, \"gpu_id\": null, \"validate_parameters\": null, \"predictor\": null, \"enable_categorical\": false, \"feature_types\": null, \"max_cat_to_onehot\": null, \"max_cat_threshold\": null, \"eval_metric\": null, \"early_stopping_rounds\": null, \"callbacks\": null, \"kwargs\": {\"eta\": 0.1}, \"evals_result_\": {\"validation_0\": {\"rmse\": [276.34915213260683, 252.91904475446532, 231.950421809965, 213.69597365080384, 198.11537058907317, 184.62339054923163, 172.90125924805227, 162.6536028292595, 153.55557559278984, 146.3897867910219, 140.28779591476152, 134.97229149931525, 130.33560117550078, 127.33204238474151, 124.07880670751665, 121.58226947431038, 119.54087034975862, 117.87077828188893, 116.32437706992465, 115.3140642235289, 114.18141915532534, 113.59402381960804, 112.78021937127826, 112.01030338928994, 111.75964980705007, 111.44987216200222, 111.15292660751994, 110.79630430611734, 110.50535922012186, 110.37619348022294, 109.98935847848294, 109.81465428648207, 109.71862848150766, 109.6433363676047, 109.46560646732263, 109.22511452161602, 109.21660100923728, 109.2321173970272, 108.89816293052321, 108.93168544602763, 108.82083626020443, 108.8211812645715, 108.80517210751083, 108.79209667863262, 108.74541487934965, 108.63991657498441, 108.53587068877124, 108.48292457832865, 108.3116171128872, 108.29483040937156, 108.2070652947114, 108.21135834909795, 108.15464726797445, 108.0968652910278, 108.05557225657076, 108.13244614085028, 108.09445033204781, 108.09133304342686, 108.09842585552288, 107.95274393256926, 107.86799076941884, 107.82536612114009, 107.84035229303167, 107.81835537194497, 107.81707724441556, 107.8361522074812, 107.81743672253425, 107.79165797637769, 107.695250114399, 107.68685365061233, 107.67143410465422, 108.03575734012038, 107.98573109833781, 107.92266853700573, 107.89277085350395, 107.81017934621435, 107.74659328658929, 107.84582962522816, 108.05988497898511, 108.03100238703091, 108.0675572432602, 108.09930645354682, 108.07764001650129, 108.06270448894138, 107.97386232596054, 108.00556920148799, 107.97557882862704, 107.97037383388934, 107.99375274438029, 108.03269143726214, 108.070828685369, 108.05714911407152, 108.07666579040321, 108.09664226014037, 108.10746819606415, 108.13205570040853, 108.15656883338686, 108.19440579720926, 108.1748286400238, 108.20347555519014, 108.2089088518165, 108.15866274047468, 108.13948076003798, 108.16848400576012, 108.27648052262602, 108.23935119981226, 108.24774886049136, 108.26026280116132, 108.2289940460205, 108.3332807633393, 108.32773757327728, 108.30936917351491, 108.29268182968448, 108.29696957200217, 108.29511868569534, 108.25902957954227, 108.26521636719222, 108.31863054081252, 108.59975646827108, 108.657473005893, 108.60274124748477]}}, \"_estimator_type\": \"regressor\"}"},"feature_names":["season","month_sin","wind_speed_max","air_pressure","act_position","power_24h_max","day_cos","quarter_cos","sonic_temperature","rotor_rpm_min","power_1h_max","power_1h_mean","year","hour_sin","quarter","ws_v","power_1h_std","tilt_x_std","wind_speed_nacelle_min","season_cos","wind_speed_std","quarter_sin","ust","rotor_rpm_max","month_cos","tilt_y","hour","ws_w","rotor_rpm","wind_speed_nacelle","power_12h_max","day_sin","hour_cos","battery_v","sonic_wind_speed","wind_speed","power_1h_min","wind_direction","tke","power_12h_std","hs","power_24h_mean","relative_humidity","wind_speed_min","wind_direction_std","hs_flag","air_temperature","day","wind_speed_nacelle_max","tilt_y_std","ust_flag","lmo","ws_w_corrected","power_24h_std","power_12h_min","season_sin","power_24h_min","month","tilt_x","ws_u","logger_temperature","power_12h_mean","air_density","sonic_wind_direction","wind_speed_cube"],"feature_types":["int","float","float","float","float","float","float","float","float","float","float","float","int","float","int","float","float","float","float","float","float","float","float","float","float","float","int","float","float","float","float","float","float","float","float","float","float","float","float","float","float","float","float","float","float","float","float","int","float","float","float","float","float","float","float","float","float","int","float","float","float","float","float","float","float"],"gradient_booster":{"model":{"gbtree_model_param":{"num_parallel_tree":"1","num_trees":"121","size_leaf_vector":"0"},"tree_info":[0,0,0,0,0,0,0,0,0,0,0,0,0,0,0,0,0,0,0,0,0,0,0,0,0,0,0,0,0,0,0,0,0,0,0,0,0,0,0,0,0,0,0,0,0,0,0,0,0,0,0,0,0,0,0,0,0,0,0,0,0,0,0,0,0,0,0,0,0,0,0,0,0,0,0,0,0,0,0,0,0,0,0,0,0,0,0,0,0,0,0,0,0,0,0,0,0,0,0,0,0,0,0,0,0,0,0,0,0,0,0,0,0,0,0,0,0,0,0,0,0],"trees":[{"base_weights":[3.5145996E2,2.0772633E2,5.7395026E2,1.1640145E2,2.9119696E2,4.6482E2,6.8436884E2,5.5195118E1,1.4765543E2,2.4592184E2,3.429206E2,4.1767432E2,5.131195E2,7.446921E2,6.3173883E2,3.9083015E1,9.815883E1,1.04351166E2,1.7167406E2,2.3924771E2,3.5157654E2,3.1897684E2,3.8001202E2,2.5681512E2,4.2429544E2,4.827639E2,5.503021E2,7.519644E2,5.4838385E2,6.021395E2,6.7664233E2,2.536543E1,5.982596E1,5.4277977E1,1.21753426E2,9.085379E1,1.2750742E2,1.6008217E2,2.458998E2,2.2438792E2,2.7010034E2,1.9253572E2,3.9949335E2,3.0874863E2,3.6501047E2,3.5526675E2,4.0600787E2,4.1362964E2,2.0852689E2,4.0259085E2,4.7695425E2,4.6155E2,5.0657532E2,3.486371E2,5.600996E2,7.7911456E2,7.281355E2,3.7848935E2,6.886981E2,4.5184705E2,6.089935E2,6.221452E2,7.209796E2],"categories":[],"categories_nodes":[],"categories_segments":[],"categories_sizes":[],"default_left":[0,0,1,0,0,0,0,0,0,1,1,0,0,1,1,0,0,0,1,0,0,0,0,0,1,1,0,0,0,0,0,0,0,0,0,0,0,0,0,0,0,0,0,0,0,0,0,0,0,0,0,0,0,0,0,0,0,0,0,0,0,0,0],"id":0,"left_children":[1,3,5,7,9,11,13,15,17,19,21,23,25,27,29,31,33,35,37,39,41,43,45,47,49,51,53,55,57,59,61,-1,-1,-1,-1,-1,-1,-1,-1,-1,-1,-1,-1,-1,-1,-1,-1,-1,-1,-1,-1,-1,-1,-1,-1,-1,-1,-1,-1,-1,-1,-1,-1],"loss_changes":[9.4087296E8,1.3624909E8,1.388352E8,1.6326456E7,2.1787968E7,1.3017984E7,1.7746688E7,1.99534E6,5.860776E6,3.4304E6,3.74832E6,3.028672E6,2.969216E6,3.396608E6,3.674112E6,5.96592E5,8.082125E5,6.19452E5,3.087392E6,2.090048E6,2.163576E6,1.136928E6,9.51904E5,8.1485E5,3.040256E6,5.67328E5,2.335744E6,1.095296E6,2.099358E6,1.640896E6,2.479936E6,0E0,0E0,0E0,0E0,0E0,0E0,0E0,0E0,0E0,0E0,0E0,0E0,0E0,0E0,0E0,0E0,0E0,0E0,0E0,0E0,0E0,0E0,0E0,0E0,0E0,0E0,0E0,0E0,0E0,0E0,0E0,0E0],"parents":[2147483647,0,0,1,1,2,2,3,3,4,4,5,5,6,6,7,7,8,8,9,9,10,10,11,11,12,12,13,13,14,14,15,15,16,16,17,17,18,18,19,19,20,20,21,21,22,22,23,23,24,24,25,25,26,26,27,27,28,28,29,29,30,30],"right_children":[2,4,6,8,10,12,14,16,18,20,22,24,26,28,30,32,34,36,38,40,42,44,46,48,50,52,54,56,58,60,62,-1,-1,-1,-1,-1,-1,-1,-1,-1,-1,-1,-1,-1,-1,-1,-1,-1,-1,-1,-1,-1,-1,-1,-1,-1,-1,-1,-1,-1,-1,-1,-1],"split_conditions":[2.6865002E1,2.1445E1,1.007285E1,1.5105E1,7.9275E0,9.3353E0,-1.202E1,5.32E2,7.3500004E0,8.6911E-1,9.355E0,2.6735E1,1.135E1,1.6419001E0,1.75E1,1.2745E1,5E-1,5.7169E0,8.375E-1,7.5921E0,1.251E1,1.025E1,7.785E2,4.2869997E0,1.105E1,1.55E1,2.6654999E1,-1.3113501E1,1.2440001E1,2.15755E0,6.895E2,2.5365431E0,5.982596E0,5.427798E0,1.2175343E1,9.08538E0,1.2750743E1,1.6008217E1,2.458998E1,2.2438793E1,2.7010035E1,1.9253572E1,3.9949337E1,3.0874863E1,3.650105E1,3.5526676E1,4.060079E1,4.1362965E1,2.085269E1,4.0259087E1,4.7695427E1,4.6155E1,5.065753E1,3.486371E1,5.600996E1,7.791146E1,7.281355E1,3.7848934E1,6.886981E1,4.5184704E1,6.0899353E1,6.221452E1,7.209796E1],"split_indices":[28,28,35,28,35,35,59,30,48,22,34,60,48,38,26,28,10,35,22,35,33,48,5,44,48,26,60,59,33,40,10,0,0,0,0,0,0,0,0,0,0,0,0,0,0,0,0,0,0,0,0,0,0,0,0,0,0,0,0,0,0,0,0],"split_type":[0,0,0,0,0,0,0,0,0,0,0,0,0,0,0,0,0,0,0,0,0,0,0,0,0,0,0,0,0,0,0,0,0,0,0,0,0,0,0,0,0,0,0,0,0,0,0,0,0,0,0,0,0,0,0,0,0,0,0,0,0,0,0],"sum_hessian":[2.9424E4,1.7877E4,1.1547E4,8.538E3,9.339E3,5.81E3,5.737E3,2.887E3,5.651E3,4.983E3,4.356E3,2.945E3,2.865E3,2.667E3,3.07E3,2.101E3,7.86E2,2.018E3,3.633E3,4.69E3,2.93E2,2.653E3,1.703E3,1.18E2,2.827E3,1.585E3,1.28E3,2.569E3,9.8E1,1.859E3,1.211E3,1.266E3,8.35E2,2.76E2,5.1E2,1.278E3,7.4E2,3.145E3,4.88E2,3.171E3,1.519E3,6.9E1,2.24E2,2.177E3,4.76E2,8.8E2,8.23E2,2.6E1,9.2E1,2.008E3,8.19E2,8.49E2,7.36E2,6.1E1,1.219E3,1.186E3,1.383E3,4.6E1,5.2E1,8.4E1,1.775E3,5.5E2,6.61E2],"tree_param":{"num_deleted":"0","num_feature":"65","num_nodes":"63","size_leaf_vector":"0"}},{"base_weights":[3.1536948E2,1.8267064E2,5.1089792E2,9.6809555E1,2.5200249E2,4.2661417E2,6.261166E2,5.3637432E1,1.3555606E2,2.0491203E2,2.9565634E2,3.7580734E2,4.7575226E2,6.773789E2,5.844296E2,3.4986202E1,7.5861084E1,1.1617529E2,1.6342674E2,1.8291489E2,2.2943684E2,2.68003E2,3.2423343E2,3.4141342E2,3.9914368E2,4.3596194E2,5.0630496E2,3.002272E2,6.799549E2,5.969296E2,4.8678323E2,2.96456E1,8.245834E1,6.7043144E1,1.1937112E2,1.12037766E2,2.0507106E2,1.3992612E2,1.7360527E2,1.5410896E2,1.9879456E2,2.1771227E2,2.5680194E2,2.5409175E2,2.9801834E2,1.8820204E2,3.321613E2,3.337658E2,5.119894E2,3.6916223E2,4.2220007E2,4.6398752E2,4.07843E2,4.8640262E2,5.558303E2,3.5354694E1,5.937895E2,6.8773193E2,5.544037E2,5.693627E2,6.4871454E2,4.1037408E2,6.011721E2],"categories":[],"categories_nodes":[],"categories_segments":[],"categories_sizes":[],"default_left":[0,0,1,0,1,0,0,0,0,1,0,0,0,0,0,0,1,1,0,1,1,1,0,1,0,1,1,0,0,0,1,0,0,0,0,0,0,0,0,0,0,0,0,0,0,0,0,0,0,0,0,0,0,0,0,0,0,0,0,0,0,0,0],"id":1,"left_children":[1,3,5,7,9,11,13,15,17,19,21,23,25,27,29,31,33,35,37,39,41,43,45,47,49,51,53,55,57,59,61,-1,-1,-1,-1,-1,-1,-1,-1,-1,-1,-1,-1,-1,-1,-1,-1,-1,-1,-1,-1,-1,-1,-1,-1,-1,-1,-1,-1,-1,-1,-1,-1],"loss_changes":[7.617966E8,1.0411571E8,1.1501286E8,1.3068768E7,1.9834304E7,1.6945024E7,1.0316672E7,1.530576E6,2.205904E6,2.47144E6,3.88016E6,2.574208E6,4.013504E6,1.97408E6,3.092864E6,5.07911E5,6.39245E5,8.71904E5,3.7924E5,1.095096E6,6.49632E5,9.91952E5,2.594784E6,1.61888E6,1.230816E6,1.00864E6,1.665504E6,1.3008685E6,1.792192E6,3.13248E6,2.5502E6,0E0,0E0,0E0,0E0,0E0,0E0,0E0,0E0,0E0,0E0,0E0,0E0,0E0,0E0,0E0,0E0,0E0,0E0,0E0,0E0,0E0,0E0,0E0,0E0,0E0,0E0,0E0,0E0,0E0,0E0,0E0,0E0],"parents":[2147483647,0,0,1,1,2,2,3,3,4,4,5,5,6,6,7,7,8,8,9,9,10,10,11,11,12,12,13,13,14,14,15,15,16,16,17,17,18,18,19,19,20,20,21,21,22,22,23,23,24,24,25,25,26,26,27,27,28,28,29,29,30,30],"right_children":[2,4,6,8,10,12,14,16,18,20,22,24,26,28,30,32,34,36,38,40,42,44,46,48,50,52,54,56,58,60,62,-1,-1,-1,-1,-1,-1,-1,-1,-1,-1,-1,-1,-1,-1,-1,-1,-1,-1,-1,-1,-1,-1,-1,-1,-1,-1,-1,-1,-1,-1,-1,-1],"split_conditions":[2.6765E1,2.3915E1,1.0248199E1,1.9165E1,9.4545E0,9.375E0,-1.22285E1,4.2916664E1,7.795125E0,8.025E0,1.011625E1,8.825875E0,2.9455E1,1.0744805E2,1.1524167E2,1.6375E1,2.5E-1,8.7935996E-1,4.155E2,2.2566666E2,1.65E1,1.55E1,2.980825E2,1.0436499E0,2.8814999E1,-6.035534E-1,1.65E1,1.255E1,1.138E2,2.9884998E1,5.5E0,2.96456E0,8.245834E0,6.7043147E0,1.1937112E1,1.1203776E1,2.0507107E1,1.3992612E1,1.7360527E1,1.5410896E1,1.9879456E1,2.1771227E1,2.5680195E1,2.5409176E1,2.9801834E1,1.8820204E1,3.321613E1,3.3376583E1,5.119894E1,3.6916225E1,4.222001E1,4.6398754E1,4.0784298E1,4.8640263E1,5.5583035E1,3.5354695E0,5.937895E1,6.877319E1,5.544037E1,5.6936268E1,6.487145E1,4.103741E1,6.0117214E1],"split_indices":[28,23,35,23,2,35,59,11,2,34,2,35,23,53,37,23,24,22,5,41,26,26,46,22,23,13,26,33,37,28,26,0,0,0,0,0,0,0,0,0,0,0,0,0,0,0,0,0,0,0,0,0,0,0,0,0,0,0,0,0,0,0,0],"split_type":[0,0,0,0,0,0,0,0,0,0,0,0,0,0,0,0,0,0,0,0,0,0,0,0,0,0,0,0,0,0,0,0,0,0,0,0,0,0,0,0,0,0,0,0,0,0,0,0,0,0,0,0,0,0,0,0,0,0,0,0,0,0,0],"sum_hessian":[2.9363E4,1.7493E4,1.187E4,7.816E3,9.677E3,6.858E3,5.012E3,3.698E3,4.118E3,4.658E3,5.019E3,3.376E3,3.482E3,2.241E3,2.771E3,2.012E3,1.686E3,2.432E3,1.686E3,2.46E3,2.198E3,2.556E3,2.463E3,1.371E3,2.005E3,1.519E3,1.963E3,1.6E1,2.225E3,2.452E3,3.19E2,1.81E3,2.02E2,1.404E3,2.82E2,2.326E3,1.06E2,5.14E2,1.172E3,8.78E2,1.582E3,1.545E3,6.53E2,1.753E3,8.03E2,1.37E2,2.326E3,1.315E3,5.6E1,8.79E2,1.126E3,7.53E2,7.66E2,1.408E3,5.55E2,9E0,7E0,2.091E3,1.34E2,1.608E3,8.44E2,1.94E2,1.25E2],"tree_param":{"num_deleted":"0","num_feature":"65","num_nodes":"63","size_leaf_vector":"0"}},{"base_weights":[2.8398285E2,1.7094753E2,4.7002496E2,9.1319595E1,2.3783186E2,3.801994E2,5.525126E2,4.2605595E1,1.2321943E2,1.9893791E2,2.8611877E2,3.405048E2,4.1162885E2,5.96703E2,4.991468E2,2.6537958E1,5.80235E1,1.0232276E2,1.502395E2,1.18945656E2,2.0642339E2,2.651762E2,3.149698E2,2.2212733E2,3.4714438E2,2.5461261E2,4.166081E2,6.1331036E2,5.504849E2,2.1232811E2,5.030788E2,1.2957135E1,3.9572998E1,5.710443E1,3.5320316E2,9.781548E1,1.820805E2,1.4327309E2,1.8702449E2,1.066982E2,2.0245427E2,1.9201645E2,2.4586868E2,2.509446E2,2.9675244E2,3.10805E2,5.0472836E2,3.2587973E2,1.4341441E2,3.099111E2,3.6648404E2,1.7783109E2,4.3571445E2,3.9374936E2,4.5326562E2,5.468452E2,6.212619E2,5.6714526E2,4.4984537E2,3.6324796E2,3.2843376E1,4.782939E2,5.399591E2],"categories":[],"categories_nodes":[],"categories_segments":[],"categories_sizes":[],"default_left":[0,0,1,0,0,0,0,0,0,0,0,0,0,1,0,0,0,1,1,1,0,1,1,0,0,1,0,0,1,0,1,0,0,0,0,0,0,0,0,0,0,0,0,0,0,0,0,0,0,0,0,0,0,0,0,0,0,0,0,0,0,0,0],"id":2,"left_children":[1,3,5,7,9,11,13,15,17,19,21,23,25,27,29,31,33,35,37,39,41,43,45,47,49,51,53,55,57,59,61,-1,-1,-1,-1,-1,-1,-1,-1,-1,-1,-1,-1,-1,-1,-1,-1,-1,-1,-1,-1,-1,-1,-1,-1,-1,-1,-1,-1,-1,-1,-1,-1],"loss_changes":[6.1328205E8,9.661597E7,8.146483E7,1.2869384E7,1.846272E7,6.44704E6,1.3248E7,8.110125E5,2.811168E6,3.247792E6,2.573216E6,1.761312E6,2.194048E6,2.070272E6,2.834496E6,2.8414588E5,4.336985E5,9.98108E5,5.32108E5,4.590995E5,2.791952E6,1.073264E6,1.300432E6,9.90429E5,1.479952E6,1.215707E6,2.209664E6,8.75328E5,1.151616E6,9.903185E5,2.092672E6,0E0,0E0,0E0,0E0,0E0,0E0,0E0,0E0,0E0,0E0,0E0,0E0,0E0,0E0,0E0,0E0,0E0,0E0,0E0,0E0,0E0,0E0,0E0,0E0,0E0,0E0,0E0,0E0,0E0,0E0,0E0,0E0],"parents":[2147483647,0,0,1,1,2,2,3,3,4,4,5,5,6,6,7,7,8,8,9,9,10,10,11,11,12,12,13,13,14,14,15,15,16,16,17,17,18,18,19,19,20,20,21,21,22,22,23,23,24,24,25,25,26,26,27,27,28,28,29,29,30,30],"right_children":[2,4,6,8,10,12,14,16,18,20,22,24,26,28,30,32,34,36,38,40,42,44,46,48,50,52,54,56,58,60,62,-1,-1,-1,-1,-1,-1,-1,-1,-1,-1,-1,-1,-1,-1,-1,-1,-1,-1,-1,-1,-1,-1,-1,-1,-1,-1,-1,-1,-1,-1,-1,-1],"split_conditions":[2.7005001E1,2.4465E1,1.0714451E3,1.8455E1,5.37197E2,8.49745E2,-1.17125E1,4.65E1,7.7913E0,2.6755001E1,7.755E2,2.6915E1,2.6705E1,3.7940952E-1,2.605E1,1.2665E1,3.934E-1,8.4354E-1,3.8555206E2,5E-1,7.885E2,9.485E0,1.0673E0,1.07350006E2,1.0771E1,5E-1,2.9634998E1,1.2975E1,1.4719E0,8.1404996E-1,1.75E1,1.2957135E0,3.9573E0,5.710443E0,3.5320316E1,9.7815485E0,1.8208052E1,1.4327309E1,1.870245E1,1.066982E1,2.0245428E1,1.9201645E1,2.4586868E1,2.509446E1,2.9675245E1,3.10805E1,5.0472836E1,3.2587975E1,1.4341441E1,3.099111E1,3.6648403E1,1.778311E1,4.3571445E1,3.9374935E1,4.5326565E1,5.468452E1,6.212619E1,5.6714527E1,4.498454E1,3.6324795E1,3.2843378E0,4.782939E1,5.399591E1],"split_indices":[28,23,64,23,64,64,59,10,2,60,5,60,60,13,60,33,17,22,41,7,5,34,22,37,2,7,23,2,38,17,26,0,0,0,0,0,0,0,0,0,0,0,0,0,0,0,0,0,0,0,0,0,0,0,0,0,0,0,0,0,0,0,0],"split_type":[0,0,0,0,0,0,0,0,0,0,0,0,0,0,0,0,0,0,0,0,0,0,0,0,0,0,0,0,0,0,0,0,0,0,0,0,0,0,0,0,0,0,0,0,0,0,0,0,0,0,0,0,0,0,0,0,0,0,0,0,0,0,0],"sum_hessian":[2.9166E4,1.8144E4,1.1022E4,8.284E3,9.86E3,5.279E3,5.743E3,3.279E3,5.005E3,5.464E3,4.396E3,2.338E3,2.941E3,3.136E3,2.607E3,1.607E3,1.672E3,2.825E3,2.18E3,4.69E2,4.995E3,2.553E3,1.843E3,1.26E2,2.212E3,9.2E1,2.849E3,2.298E3,8.38E2,3.6E1,2.571E3,7.88E2,8.19E2,1.668E3,4E0,2.676E3,1.49E2,1.837E3,3.43E2,4.11E2,5.8E1,3.663E3,1.332E3,1.766E3,7.87E2,1.806E3,3.7E1,5.3E1,7.3E1,7.62E2,1.45E3,6.6E1,2.6E1,1.762E3,1.087E3,2.53E2,2.045E3,7.15E2,1.23E2,1.9E1,1.7E1,1.546E3,1.025E3],"tree_param":{"num_deleted":"0","num_feature":"65","num_nodes":"63","size_leaf_vector":"0"}},{"base_weights":[2.5602017E2,1.4471037E2,4.0801065E2,7.6557655E1,1.9920549E2,3.2818973E2,4.957471E2,3.801488E1,1.0301532E2,1.614519E2,2.3466173E2,2.8088864E2,3.5953412E2,5.3765784E2,4.4917557E2,2.9502205E1,6.662398E1,7.7941795E1,1.2034354E2,1.4724382E2,1.8542918E2,2.1456447E2,2.5830637E2,1.3162408E2,2.8578568E2,3.3744095E2,3.8922406E2,5.52992E2,4.9395514E2,4.24174E2,4.875455E2,1.3544589E1,4.2781414E1,8.999514E1,3.1868614E1,7.4268394E1,1.5301833E2,1.1685912E2,1.8287128E2,9.116175E1,1.5276958E2,2.202704E2,1.7531058E2,2.0355356E2,2.389178E2,2.0181525E2,2.7515192E2,4.3630146E1,2.369949E2,2.8235983E2,4.3313293E2,3.674785E2,3.1501804E2,2.612075E2,3.9853098E2,5.546579E2,2.8239606E2,2.0893007E2,5.0198886E2,3.1056345E2,4.3222113E2,4.5218512E2,5.3618243E2],"categories":[],"categories_nodes":[],"categories_segments":[],"categories_sizes":[],"default_left":[0,0,1,0,0,0,0,0,0,0,1,0,0,1,1,0,0,1,1,0,1,1,0,0,1,1,0,0,0,1,0,0,0,0,0,0,0,0,0,0,0,0,0,0,0,0,0,0,0,0,0,0,0,0,0,0,0,0,0,0,0,0,0],"id":3,"left_children":[1,3,5,7,9,11,13,15,17,19,21,23,25,27,29,31,33,35,37,39,41,43,45,47,49,51,53,55,57,59,61,-1,-1,-1,-1,-1,-1,-1,-1,-1,-1,-1,-1,-1,-1,-1,-1,-1,-1,-1,-1,-1,-1,-1,-1,-1,-1,-1,-1,-1,-1,-1,-1],"loss_changes":[4.9475968E8,6.2695456E7,8.642483E7,7.6483E6,1.2520864E7,9.501952E6,1.1251072E7,7.422925E5,1.92362E6,1.521728E6,2.24264E6,1.852624E6,2.4216E6,1.80032E6,2.474432E6,4.9887962E5,5.65723E5,4.90842E5,5.51416E5,8.7238E5,5.5648E5,6.53912E5,2.054208E6,7.6850725E5,1.1412E6,1.392272E6,1.866544E6,8.72E5,1.756752E6,1.419968E6,1.64248E6,0E0,0E0,0E0,0E0,0E0,0E0,0E0,0E0,0E0,0E0,0E0,0E0,0E0,0E0,0E0,0E0,0E0,0E0,0E0,0E0,0E0,0E0,0E0,0E0,0E0,0E0,0E0,0E0,0E0,0E0,0E0,0E0],"parents":[2147483647,0,0,1,1,2,2,3,3,4,4,5,5,6,6,7,7,8,8,9,9,10,10,11,11,12,12,13,13,14,14,15,15,16,16,17,17,18,18,19,19,20,20,21,21,22,22,23,23,24,24,25,25,26,26,27,27,28,28,29,29,30,30],"right_children":[2,4,6,8,10,12,14,16,18,20,22,24,26,28,30,32,34,36,38,40,42,44,46,48,50,52,54,56,58,60,62,-1,-1,-1,-1,-1,-1,-1,-1,-1,-1,-1,-1,-1,-1,-1,-1,-1,-1,-1,-1,-1,-1,-1,-1,-1,-1,-1,-1,-1,-1,-1,-1],"split_conditions":[2.6555E1,2.3615002E1,1.062834E3,1.8015E1,9.38765E0,7.8866797E2,-1.1738501E1,5.32E2,7.2678003E0,2.3205E1,1.0061E1,7.6703E0,2.8075E1,3.7940952E-1,1.75E1,1.3610001E1,3.15035E0,8.398E-1,5.233264E2,2.9745E2,-7.865661E-1,1.55E1,1.2434999E1,1.2465E1,1.06855E0,-6.035534E-1,2.98375E2,1.00955E3,1.73105E0,3.0039148E2,1.215E1,1.3544589E0,4.2781415E0,8.999515E0,3.1868615E0,7.4268394E0,1.5301833E1,1.1685912E1,1.8287128E1,9.116176E0,1.52769575E1,2.202704E1,1.7531057E1,2.0355356E1,2.389178E1,2.0181524E1,2.7515192E1,4.3630147E0,2.3699492E1,2.8235983E1,4.3313293E1,3.674785E1,3.1501804E1,2.6120749E1,3.98531E1,5.546579E1,2.8239607E1,2.0893007E1,5.0198887E1,3.1056345E1,4.3222115E1,4.5218513E1,5.3618244E1],"split_indices":[28,23,64,23,2,64,59,30,2,28,2,35,28,13,26,23,15,22,61,46,13,26,33,33,22,13,46,3,40,8,48,0,0,0,0,0,0,0,0,0,0,0,0,0,0,0,0,0,0,0,0,0,0,0,0,0,0,0,0,0,0,0,0],"split_type":[0,0,0,0,0,0,0,0,0,0,0,0,0,0,0,0,0,0,0,0,0,0,0,0,0,0,0,0,0,0,0,0,0,0,0,0,0,0,0,0,0,0,0,0,0,0,0,0,0,0,0,0,0,0,0,0,0,0,0,0,0,0,0],"sum_hessian":[2.9247E4,1.6884E4,1.2363E4,7.503E3,9.381E3,6.476E3,5.887E3,3.055E3,4.448E3,4.546E3,4.835E3,2.585E3,3.891E3,3.093E3,2.794E3,2.356E3,6.99E2,1.82E3,2.628E3,2.859E3,1.687E3,2.619E3,2.216E3,8.3E1,2.502E3,2.238E3,1.653E3,2.281E3,8.12E2,1.699E3,1.095E3,1.071E3,1.285E3,4.17E2,2.82E2,1.737E3,8.3E1,2.492E3,1.36E2,2.58E2,2.601E3,3.75E2,1.312E3,1.81E3,8.09E2,5.12E2,1.704E3,4.6E1,3.7E1,2.448E3,5.4E1,9.5E2,1.288E3,1.14E2,1.539E3,2.266E3,1.5E1,2.3E1,7.89E2,1.15E2,1.584E3,6.4E2,4.55E2],"tree_param":{"num_deleted":"0","num_feature":"65","num_nodes":"63","size_leaf_vector":"0"}},{"base_weights":[2.3042677E2,1.4316795E2,3.913247E2,8.195374E1,2.0485439E2,3.303255E2,4.617011E2,4.2880135E1,1.135454E2,1.7145558E2,2.4151172E2,3.0246786E2,3.7371774E2,4.746647E2,3.5106952E2,2.8646772E1,6.605E1,9.5715805E1,1.3553345E2,1.5081364E2,1.8945113E2,1.3790614E2,2.4707568E2,2.726345E2,3.2993417E2,3.391431E2,4.1693387E2,4.316501E2,4.9930994E2,2.9733E2,4.6980518E2,1.9755836E1,4.8550404E1,6.121874E1,1.363767E2,8.256005E1,1.12022865E2,1.246922E2,1.9485999E2,1.4084476E2,1.7799059E2,1.7805652E2,2.1287096E2,1.8723055E2,2.4115492E1,2.3451653E2,2.837239E2,2.1139145E2,2.8175092E2,1.4924556E2,3.374141E2,2.978076E2,3.574207E2,3.5695236E2,4.3041403E2,4.405839E2,3.257081E2,4.1457455E1,5.00144E2,3.3262766E2,1.5931921E2,1.7706404E2,4.8245465E2],"categories":[],"categories_nodes":[],"categories_segments":[],"categories_sizes":[],"default_left":[1,0,1,0,0,1,1,0,1,1,0,0,0,0,1,0,0,1,0,1,1,1,1,0,0,0,0,1,0,1,0,0,0,0,0,0,0,0,0,0,0,0,0,0,0,0,0,0,0,0,0,0,0,0,0,0,0,0,0,0,0,0,0],"id":4,"left_children":[1,3,5,7,9,11,13,15,17,19,21,23,25,27,29,31,33,35,37,39,41,43,45,47,49,51,53,55,57,59,61,-1,-1,-1,-1,-1,-1,-1,-1,-1,-1,-1,-1,-1,-1,-1,-1,-1,-1,-1,-1,-1,-1,-1,-1,-1,-1,-1,-1,-1,-1,-1,-1],"loss_changes":[4.094277E8,7.139658E7,4.387123E7,1.1714524E7,1.1490368E7,6.531776E6,6.658624E6,1.398375E6,2.044832E6,1.803488E6,2.553088E6,2.657536E6,3.063616E6,4.297344E6,3.06986E6,4.6480475E5,5.403745E5,6.13322E5,1.485876E6,5.986E5,6.64208E5,1.292008E6,1.893312E6,8.41E5,2.302688E6,7.9792E5,6.13696E5,1.331072E6,1.010304E6,1.647142E6,4.8854E5,0E0,0E0,0E0,0E0,0E0,0E0,0E0,0E0,0E0,0E0,0E0,0E0,0E0,0E0,0E0,0E0,0E0,0E0,0E0,0E0,0E0,0E0,0E0,0E0,0E0,0E0,0E0,0E0,0E0,0E0,0E0,0E0],"parents":[2147483647,0,0,1,1,2,2,3,3,4,4,5,5,6,6,7,7,8,8,9,9,10,10,11,11,12,12,13,13,14,14,15,15,16,16,17,17,18,18,19,19,20,20,21,21,22,22,23,23,24,24,25,25,26,26,27,27,28,28,29,29,30,30],"right_children":[2,4,6,8,10,12,14,16,18,20,22,24,26,28,30,32,34,36,38,40,42,44,46,48,50,52,54,56,58,60,62,-1,-1,-1,-1,-1,-1,-1,-1,-1,-1,-1,-1,-1,-1,-1,-1,-1,-1,-1,-1,-1,-1,-1,-1,-1,-1,-1,-1,-1,-1,-1,-1],"split_conditions":[2.7265E1,2.2255001E1,1.1595E1,2.0095001E1,9.8932495E0,1.55E1,1.1175E2,1.7175E1,2.4871875E2,2.3974998E1,1.2305E1,2.8064999E1,2.9505001E1,1.3267E1,1.257E1,4.005E2,9.7819996E-1,6.9645004E0,1.1833E0,1.65E1,1.55E1,9.99645E-1,1.0907E1,2.883264E2,3.7396998E0,9.65E1,1.005E2,9.7177005E-1,2.971825E2,1.2008333E2,1.15995E0,1.9755837E0,4.8550406E0,6.121874E0,1.363767E1,8.256005E0,1.1202287E1,1.246922E1,1.9485998E1,1.40844755E1,1.7799059E1,1.7805653E1,2.1287096E1,1.8723055E1,2.4115493E0,2.3451653E1,2.837239E1,2.1139145E1,2.8175093E1,1.4924556E1,3.374141E1,2.978076E1,3.574207E1,3.5695236E1,4.3041405E1,4.405839E1,3.2570812E1,4.1457458E0,5.00144E1,3.3262768E1,1.5931922E1,1.7706404E1,4.8245464E1],"split_indices":[28,28,34,23,2,26,63,23,41,28,33,28,23,2,33,30,20,34,20,26,26,38,2,41,43,4,4,38,46,37,62,0,0,0,0,0,0,0,0,0,0,0,0,0,0,0,0,0,0,0,0,0,0,0,0,0,0,0,0,0,0,0,0],"split_type":[0,0,0,0,0,0,0,0,0,0,0,0,0,0,0,0,0,0,0,0,0,0,0,0,0,0,0,0,0,0,0,0,0,0,0,0,0,0,0,0,0,0,0,0,0,0,0,0,0,0,0,0,0,0,0,0,0,0,0,0,0,0,0],"sum_hessian":[2.9165E4,1.8911E4,1.0254E4,9.493E3,9.418E3,5.496E3,4.758E3,4.245E3,5.248E3,4.931E3,4.487E3,3.352E3,2.144E3,4.256E3,5.02E2,2.631E3,1.614E3,2.901E3,2.347E3,2.301E3,2.63E3,2.3E2,4.257E3,1.612E3,1.74E3,1.196E3,9.48E2,1.557E3,2.699E3,3.48E2,1.54E2,1.82E3,8.11E2,1.512E3,1.02E2,1.609E3,1.292E3,1.987E3,3.6E2,1.688E3,6.13E2,1.775E3,8.55E2,1.6E2,7E1,3.176E3,1.081E3,2.12E2,1.4E3,7E1,1.67E3,3.72E2,8.24E2,1.79E2,7.69E2,1.433E3,1.24E2,5E0,2.694E3,2.76E2,7.2E1,7E0,1.47E2],"tree_param":{"num_deleted":"0","num_feature":"65","num_nodes":"63","size_leaf_vector":"0"}},{"base_weights":[2.0721481E2,1.1704862E2,3.288345E2,5.7383476E1,1.5817072E2,2.7164502E2,4.1014496E2,2.9521532E1,7.842658E1,1.2900233E2,1.9159003E2,2.3375215E2,3.0778497E2,3.7477753E2,4.3958105E2,2.8014412E1,1.4827492E2,5.1966007E1,8.797729E1,1.1010285E2,1.4246323E2,1.727316E2,2.1217615E2,1.8234341E2,2.566443E2,1.8403424E2,3.1135446E2,3.9045975E2,3.329929E2,4.4678302E2,3.056818E2,1.4506829E1,4.10331E1,2.8386014E2,3.1454731E1,3.844657E1,6.656905E1,8.376057E1,1.3973244E2,1.0654504E2,1.8557364E2,1.1025134E2,1.488187E2,1.8307784E2,1.562094E2,1.9900598E2,2.3200441E2,9.162929E1,2.3141081E2,2.4793718E2,3.5287173E2,2.5001599E2,4.147802E0,2.9835095E2,3.5592526E2,3.6171744E2,4.113408E2,2.4355516E2,3.7134976E2,1.1999056E2,4.478424E2,2.5435587E2,4.8218567E2],"categories":[],"categories_nodes":[],"categories_segments":[],"categories_sizes":[],"default_left":[0,0,1,0,1,0,0,0,1,0,0,0,1,0,0,0,0,0,0,1,0,0,1,0,0,0,0,0,0,0,0,0,0,0,0,0,0,0,0,0,0,0,0,0,0,0,0,0,0,0,0,0,0,0,0,0,0,0,0,0,0,0,0],"id":5,"left_children":[1,3,5,7,9,11,13,15,17,19,21,23,25,27,29,31,33,35,37,39,41,43,45,47,49,51,53,55,57,59,61,-1,-1,-1,-1,-1,-1,-1,-1,-1,-1,-1,-1,-1,-1,-1,-1,-1,-1,-1,-1,-1,-1,-1,-1,-1,-1,-1,-1,-1,-1,-1,-1],"loss_changes":[3.228439E8,4.148053E7,5.817779E7,4.043754E6,9.732928E6,1.000992E7,5.22176E6,5.275825E5,9.88858E5,1.344864E6,1.773616E6,4.18752E6,1.605824E6,1.414464E6,2.580928E6,5.1552775E5,5.771176E5,2.0374975E5,6.18346E5,5.7874E5,6.22324E5,3.88336E5,5.34872E5,4.928424E6,1.996288E6,1.280839E6,2.01392E6,8.76288E5,2.139416E6,8.71264E5,1.209059E6,0E0,0E0,0E0,0E0,0E0,0E0,0E0,0E0,0E0,0E0,0E0,0E0,0E0,0E0,0E0,0E0,0E0,0E0,0E0,0E0,0E0,0E0,0E0,0E0,0E0,0E0,0E0,0E0,0E0,0E0,0E0,0E0],"parents":[2147483647,0,0,1,1,2,2,3,3,4,4,5,5,6,6,7,7,8,8,9,9,10,10,11,11,12,12,13,13,14,14,15,15,16,16,17,17,18,18,19,19,20,20,21,21,22,22,23,23,24,24,25,25,26,26,27,27,28,28,29,29,30,30],"right_children":[2,4,6,8,10,12,14,16,18,20,22,24,26,28,30,32,34,36,38,40,42,44,46,48,50,52,54,56,58,60,62,-1,-1,-1,-1,-1,-1,-1,-1,-1,-1,-1,-1,-1,-1,-1,-1,-1,-1,-1,-1,-1,-1,-1,-1,-1,-1,-1,-1,-1,-1,-1,-1],"split_conditions":[2.8395E1,2.2945E1,1.136832E3,1.7825E1,4.9007098E2,8.5060376E2,1.1051001E1,2.866667E2,1.09895836E2,8.6353E0,6.04518E2,1.2445E1,3.00562E2,1.0989E0,1.1711667E2,1.3535E1,4.536667E2,5.60855E0,1.611E1,5.291528E2,1.845521E2,2.9948248E2,1.5E0,4.8715E0,9.4305E-1,8.1525E1,1.195E1,1.263E1,1.2445E1,2.9787E2,1.2940001E1,1.450683E0,4.10331E0,2.8386015E1,3.1454732E0,3.8446572E0,6.6569057E0,8.376057E0,1.3973244E1,1.0654504E1,1.8557364E1,1.1025134E1,1.4881869E1,1.8307783E1,1.562094E1,1.9900599E1,2.3200441E1,9.162929E0,2.314108E1,2.4793718E1,3.5287174E1,2.50016E1,4.147802E-1,2.9835096E1,3.5592525E1,3.6171745E1,4.113408E1,2.4355516E1,3.7134975E1,1.1999057E1,4.478424E1,2.5435587E1,4.8218567E1],"split_indices":[23,23,64,23,64,64,35,11,61,2,64,33,8,38,37,23,61,35,44,41,41,46,0,43,49,42,48,2,33,46,33,0,0,0,0,0,0,0,0,0,0,0,0,0,0,0,0,0,0,0,0,0,0,0,0,0,0,0,0,0,0,0,0],"split_type":[0,0,0,0,0,0,0,0,0,0,0,0,0,0,0,0,0,0,0,0,0,0,0,0,0,0,0,0,0,0,0,0,0,0,0,0,0,0,0,0,0,0,0,0,0,0,0,0,0,0,0,0,0,0,0,0,0,0,0,0,0,0,0],"sum_hessian":[2.9443E4,1.6909E4,1.2534E4,6.9E3,1.0009E4,7.361E3,5.173E3,2.97E3,3.93E3,5.347E3,4.662E3,3.597E3,3.764E3,2.356E3,2.817E3,2.934E3,3.6E1,1.044E3,2.886E3,2.228E3,3.119E3,2.438E3,2.224E3,1.111E3,2.486E3,1.07E2,3.657E3,1.707E3,6.49E2,2.671E3,1.46E2,1.441E3,1.493E3,1.6E1,2E1,5.44E2,5E2,2.671E3,2.15E2,2.13E3,9.8E1,5.17E2,2.602E3,1.493E3,9.45E2,1.343E3,8.81E2,3.91E2,7.2E2,2.283E3,2.03E2,7.8E1,2.9E1,2.837E3,8.2E2,7.26E2,9.81E2,1.97E2,4.52E2,9E0,2.662E3,1.15E2,3.1E1],"tree_param":{"num_deleted":"0","num_feature":"65","num_nodes":"63","size_leaf_vector":"0"}},{"base_weights":[1.8687256E2,1.0347361E2,2.9645303E2,4.918881E1,1.3911159E2,2.3622926E2,3.5963794E2,2.252879E1,6.6692955E1,1.1573828E2,1.6917757E2,2.0231908E2,2.5885077E2,4.0324374E2,3.3378812E2,2.1492647E1,1.6411273E2,9.287677E1,5.594584E1,1.08521255E2,1.6424693E2,1.5652493E2,1.9270859E2,9.555888E1,2.0656172E2,2.4208955E2,2.8604895E2,4.0758667E2,2.3630072E2,3.1170184E2,3.7029636E2,1.2298781E2,2.0109589E1,-4.1942936E1,2.624417E2,1.6169875E2,8.445752E1,4.5491867E1,7.046411E1,7.8978645E1,1.1928145E2,7.264852E1,1.9464813E2,2.6503117E1,1.5871701E2,4.965333E0,1.9529573E2,1.725182E2,1.5216851E1,2.0338556E2,3.291501E2,2.2162767E2,2.6026996E2,1.5915883E2,2.951742E2,7.63262E1,4.0858557E2,1.7196721E2,4.2212567E2,1.02475174E2,3.1522757E2,2.4400328E2,3.8124002E2],"categories":[],"categories_nodes":[],"categories_segments":[],"categories_sizes":[],"default_left":[0,0,0,0,1,0,0,0,1,1,0,0,0,0,1,0,1,0,0,0,0,0,0,1,1,1,0,0,0,0,0,0,0,0,0,0,0,0,0,0,0,0,0,0,0,0,0,0,0,0,0,0,0,0,0,0,0,0,0,0,0,0,0],"id":6,"left_children":[1,3,5,7,9,11,13,15,17,19,21,23,25,27,29,31,33,35,37,39,41,43,45,47,49,51,53,55,57,59,61,-1,-1,-1,-1,-1,-1,-1,-1,-1,-1,-1,-1,-1,-1,-1,-1,-1,-1,-1,-1,-1,-1,-1,-1,-1,-1,-1,-1,-1,-1,-1,-1],"loss_changes":[2.698135E8,3.2432544E7,4.846989E7,3.100392E6,7.093552E6,4.961408E6,6.88224E6,3.8317738E5,1.123782E6,1.976984E6,1.287288E6,1.166984E6,1.7164E6,1.579936E6,3.040544E6,3.6502512E5,3.9597128E5,6.61959E5,4.28893E5,1.568236E6,2.035398E6,8.17496E5,7.48496E5,6.280479E5,9.13856E5,8.46288E5,1.675992E6,7.13984E5,6.566495E5,1.771312E6,1.938688E6,0E0,0E0,0E0,0E0,0E0,0E0,0E0,0E0,0E0,0E0,0E0,0E0,0E0,0E0,0E0,0E0,0E0,0E0,0E0,0E0,0E0,0E0,0E0,0E0,0E0,0E0,0E0,0E0,0E0,0E0,0E0,0E0],"parents":[2147483647,0,0,1,1,2,2,3,3,4,4,5,5,6,6,7,7,8,8,9,9,10,10,11,11,12,12,13,13,14,14,15,15,16,16,17,17,18,18,19,19,20,20,21,21,22,22,23,23,24,24,25,25,26,26,27,27,28,28,29,29,30,30],"right_children":[2,4,6,8,10,12,14,16,18,20,22,24,26,28,30,32,34,36,38,40,42,44,46,48,50,52,54,56,58,60,62,-1,-1,-1,-1,-1,-1,-1,-1,-1,-1,-1,-1,-1,-1,-1,-1,-1,-1,-1,-1,-1,-1,-1,-1,-1,-1,-1,-1,-1,-1,-1,-1],"split_conditions":[2.6435001E1,2.2735E1,1.045975E3,1.7175E1,4.7812152E2,7.77878E2,-1.22465E1,3.460833E2,6.123234E-17,7.3220503E-1,7.785E2,7.6703E0,2.9435001E1,1.17149994E2,1.75E1,1.00285E3,6.0896546E-1,1.9283E0,5.704125E0,3.2108502E2,2.974375E2,1.4384999E0,2.6145E1,1.2940952E-1,1.06865E0,1.45E1,2.6865002E1,4.565E2,2.98745E2,2.6035E1,9.65E1,1.2298781E1,2.010959E0,-4.1942935E0,2.6244171E1,1.6169874E1,8.445752E0,4.5491867E0,7.046411E0,7.897865E0,1.1928145E1,7.264852E0,1.9464813E1,2.6503117E0,1.5871701E1,4.965333E-1,1.9529573E1,1.7251822E1,1.5216851E0,2.0338556E1,3.291501E1,2.2162767E1,2.6026997E1,1.5915883E1,2.951742E1,7.6326203E0,4.085856E1,1.7196722E1,4.2212566E1,1.0247518E1,3.1522757E1,2.4400328E1,3.8124004E1],"split_indices":[28,23,64,23,64,64,59,11,55,22,5,35,23,37,26,3,6,43,35,64,46,40,60,32,22,26,60,11,46,60,4,0,0,0,0,0,0,0,0,0,0,0,0,0,0,0,0,0,0,0,0,0,0,0,0,0,0,0,0,0,0,0,0],"split_type":[0,0,0,0,0,0,0,0,0,0,0,0,0,0,0,0,0,0,0,0,0,0,0,0,0,0,0,0,0,0,0,0,0,0,0,0,0,0,0,0,0,0,0,0,0,0,0,0,0,0,0,0,0,0,0,0,0,0,0,0,0,0,0],"sum_hessian":[2.9526E4,1.6767E4,1.2759E4,6.646E3,1.0121E4,6.535E3,6.224E3,2.635E3,4.011E3,5.697E3,4.424E3,2.619E3,3.916E3,2.311E3,3.913E3,2.617E3,1.8E1,1.165E3,2.846E3,4.962E3,7.35E2,2.882E3,1.542E3,1.01E2,2.518E3,2.429E3,1.487E3,2.251E3,6E1,2.444E3,1.469E3,3.4E1,2.583E3,6E0,1.2E1,1.25E2,1.04E3,1.657E3,1.189E3,1.327E3,3.635E3,1.84E2,5.51E2,4.8E1,2.834E3,2.1E1,1.521E3,5.1E1,5E1,2.457E3,6.1E1,1.149E3,1.28E3,1.01E2,1.386E3,7E0,2.244E3,4.6E1,1.4E1,4.1E1,2.403E3,1.19E2,1.35E3],"tree_param":{"num_deleted":"0","num_feature":"65","num_nodes":"63","size_leaf_vector":"0"}},{"base_weights":[1.6777097E2,1.0398764E2,2.847258E2,6.015597E1,1.5033295E2,2.410333E2,3.4231763E2,3.5269234E1,8.835141E1,1.2585339E2,1.7883122E2,2.1482158E2,2.6910953E2,3.5234036E2,2.7014383E2,2.0341276E1,5.058638E1,1.02604515E2,6.975492E1,1.2246562E2,2.0674681E2,1.6116104E2,1.9799167E2,9.487635E1,2.1894226E2,2.7571176E2,1.9998991E2,3.080694E2,3.6719385E2,2.762093E2,-2.3808812E2,1.0130344E1,3.253299E1,1.9494167E1,5.64315E1,4.1855415E1,1.0897579E2,7.5062416E1,3.1376177E1,3.4402607E1,1.2442317E2,-5.7848263E0,2.1927962E2,1.0262217E2,1.6767911E2,1.9498589E2,3.597298E2,5.2222736E1,2.4954543E2,2.1713853E2,4.5983496E2,2.4568507E2,2.9250085E2,5.4193134E1,2.1035039E2,3.2320868E2,2.5866882E2,2.7992786E2,3.697713E2,2.1193604E2,3.3648337E2,-2.7947845E2,5.126953E0],"categories":[],"categories_nodes":[],"categories_segments":[],"categories_sizes":[],"default_left":[0,0,1,0,0,0,0,0,1,1,0,0,1,0,1,0,0,0,0,0,0,0,1,1,1,0,1,0,1,0,1,0,0,0,0,0,0,0,0,0,0,0,0,0,0,0,0,0,0,0,0,0,0,0,0,0,0,0,0,0,0,0,0],"id":7,"left_children":[1,3,5,7,9,11,13,15,17,19,21,23,25,27,29,31,33,35,37,39,41,43,45,47,49,51,53,55,57,59,61,-1,-1,-1,-1,-1,-1,-1,-1,-1,-1,-1,-1,-1,-1,-1,-1,-1,-1,-1,-1,-1,-1,-1,-1,-1,-1,-1,-1,-1,-1,-1,-1],"loss_changes":[2.185938E8,3.851832E7,2.5941376E7,6.83768E6,6.408208E6,4.272384E6,3.130336E6,1.183397E6,1.20416E6,1.334512E6,1.409376E6,1.485712E6,1.239504E6,2.459328E6,1.75506E6,3.2645338E5,4.634215E5,9.95962E5,4.02183E5,8.17152E5,5.28665E5,8.29856E5,9.20632E5,6.66479E5,1.180208E6,1.232304E6,3.67742E5,6.56056E5,5.54176E5,2.0284E6,7.190016E4,0E0,0E0,0E0,0E0,0E0,0E0,0E0,0E0,0E0,0E0,0E0,0E0,0E0,0E0,0E0,0E0,0E0,0E0,0E0,0E0,0E0,0E0,0E0,0E0,0E0,0E0,0E0,0E0,0E0,0E0,0E0,0E0],"parents":[2147483647,0,0,1,1,2,2,3,3,4,4,5,5,6,6,7,7,8,8,9,9,10,10,11,11,12,12,13,13,14,14,15,15,16,16,17,17,18,18,19,19,20,20,21,21,22,22,23,23,24,24,25,25,26,26,27,27,28,28,29,29,30,30],"right_children":[2,4,6,8,10,12,14,16,18,20,22,24,26,28,30,32,34,36,38,40,42,44,46,48,50,52,54,56,58,60,62,-1,-1,-1,-1,-1,-1,-1,-1,-1,-1,-1,-1,-1,-1,-1,-1,-1,-1,-1,-1,-1,-1,-1,-1,-1,-1,-1,-1,-1,-1,-1,-1],"split_conditions":[2.7265E1,2.2415E1,1.2089619E3,2.1195E1,5.76532E2,9.52277E2,1.395E2,1.1030556E2,5E-1,9.27865E-1,3.8346527E2,2.6705E1,3.3725E1,2.9585E1,2.965052E2,1.4030001E1,2.25E1,2.6015E1,1.16155E0,2.6585E1,1.0051E3,2.055E2,1.1128E0,3.5E0,5.2284E0,2.9625E1,5.5E0,1.2684999E1,-6.035534E-1,1.00715E3,2.5E0,1.0130345E0,3.253299E0,1.9494168E0,5.64315E0,4.1855416E0,1.0897579E1,7.506242E0,3.1376178E0,3.4402606E0,1.2442317E1,-5.784826E-1,2.1927961E1,1.02622175E1,1.6767912E1,1.9498589E1,3.597298E1,5.222274E0,2.4954542E1,2.1713854E1,4.5983498E1,2.4568508E1,2.9250086E1,5.4193134E0,2.103504E1,3.232087E1,2.5866882E1,2.7992786E1,3.697713E1,2.1193604E1,3.364834E1,-2.7947845E1,5.126953E-1],"split_indices":[28,28,64,23,64,64,4,61,55,22,41,60,60,28,39,28,10,60,62,60,3,36,22,14,38,23,47,33,32,3,0,0,0,0,0,0,0,0,0,0,0,0,0,0,0,0,0,0,0,0,0,0,0,0,0,0,0,0,0,0,0,0,0],"split_type":[0,0,0,0,0,0,0,0,0,0,0,0,0,0,0,0,0,0,0,0,0,0,0,0,0,0,0,0,0,0,0,0,0,0,0,0,0,0,0,0,0,0,0,0,0,0,0,0,0,0,0,0,0,0,0,0,0,0,0,0,0,0,0],"sum_hessian":[2.9306E4,1.8965E4,1.0341E4,9.748E3,9.217E3,5.883E3,4.458E3,5.179E3,4.569E3,4.961E3,4.256E3,3.047E3,2.836E3,3.911E3,5.47E2,2.624E3,2.555E3,2.584E3,1.985E3,4.764E3,1.97E2,2.219E3,2.037E3,1.02E2,2.945E3,2.586E3,2.5E2,9.88E2,2.923E3,5.41E2,6E0,1.429E3,1.195E3,4.05E2,2.15E3,2.46E2,2.338E3,1.743E3,2.42E2,1.04E2,4.66E3,1.1E1,1.86E2,2.24E2,1.995E3,2.002E3,3.5E1,8.1E1,2.1E1,2.925E3,2E1,9.33E2,1.653E3,1.7E1,2.33E2,7.52E2,2.36E2,8.7E1,2.836E3,2.64E2,2.77E2,5E0,1E0],"tree_param":{"num_deleted":"0","num_feature":"65","num_nodes":"63","size_leaf_vector":"0"}},{"base_weights":[1.5158652E2,9.544869E1,2.5997958E2,5.766174E1,1.4143686E2,2.1620442E2,3.050813E2,3.3690098E1,8.2371086E1,1.2159221E2,1.6761537E2,1.9420985E2,2.4857437E2,3.160145E2,2.2874315E2,1.5822469E1,4.571659E1,1.119389E2,7.75035E1,6.371184E1,1.27544106E2,1.5328693E2,1.887482E2,1.718906E2,2.1390582E2,2.709594E2,2.15726E2,3.0011978E2,3.4542938E2,1.6416359E2,3.2599213E2,3.7836197E-1,2.2542795E1,6.746417E1,3.8451553E1,1.895093E2,1.0628444E2,5.6462692E1,8.4376686E1,5.511525E1,1.8709831E2,1.22216835E2,2.0456186E2,1.4997595E2,2.963016E2,1.6133286E2,2.1318977E2,9.8649E1,1.8341582E2,2.2793137E2,1.4386835E2,2.5055952E2,2.9787466E2,1.7495126E2,2.3060641E2,3.056948E2,2.2601274E2,-8.716362E1,3.4634717E2,1.4718567E2,3.7052478E2,3.3345514E2,1.3488396E2],"categories":[],"categories_nodes":[],"categories_segments":[],"categories_sizes":[],"default_left":[0,0,1,0,0,1,1,0,1,0,1,0,0,0,0,1,1,1,1,1,1,1,0,0,1,1,0,1,0,1,1,0,0,0,0,0,0,0,0,0,0,0,0,0,0,0,0,0,0,0,0,0,0,0,0,0,0,0,0,0,0,0,0],"id":8,"left_children":[1,3,5,7,9,11,13,15,17,19,21,23,25,27,29,31,33,35,37,39,41,43,45,47,49,51,53,55,57,59,61,-1,-1,-1,-1,-1,-1,-1,-1,-1,-1,-1,-1,-1,-1,-1,-1,-1,-1,-1,-1,-1,-1,-1,-1,-1,-1,-1,-1,-1,-1,-1,-1],"loss_changes":[1.7937786E8,3.3747696E7,1.9793856E7,6.31436E6,4.530992E6,3.588432E6,4.060736E6,1.1628785E6,7.47068E5,1.709888E6,1.114136E6,1.302256E6,1.458488E6,1.92032E6,3.865388E6,2.2625238E5,5.08684E5,3.04436E5,6.47748E5,4.8503625E5,1.829944E6,1.023344E6,9.84792E5,1.19154E6,1.552656E6,5.96872E5,4.69928E5,1.095152E6,6.30496E5,1.266315E6,3.0873E5,0E0,0E0,0E0,0E0,0E0,0E0,0E0,0E0,0E0,0E0,0E0,0E0,0E0,0E0,0E0,0E0,0E0,0E0,0E0,0E0,0E0,0E0,0E0,0E0,0E0,0E0,0E0,0E0,0E0,0E0,0E0,0E0],"parents":[2147483647,0,0,1,1,2,2,3,3,4,4,5,5,6,6,7,7,8,8,9,9,10,10,11,11,12,12,13,13,14,14,15,15,16,16,17,17,18,18,19,19,20,20,21,21,22,22,23,23,24,24,25,25,26,26,27,27,28,28,29,29,30,30],"right_children":[2,4,6,8,10,12,14,16,18,20,22,24,26,28,30,32,34,36,38,40,42,44,46,48,50,52,54,56,58,60,62,-1,-1,-1,-1,-1,-1,-1,-1,-1,-1,-1,-1,-1,-1,-1,-1,-1,-1,-1,-1,-1,-1,-1,-1,-1,-1,-1,-1,-1,-1,-1,-1],"split_conditions":[2.7375E1,2.6205E1,2.8974998E1,2.1474998E1,6.14667E2,1.55E1,1.1195E2,6.65E1,-9.159756E-1,2.704E1,1.55E1,4.475E2,-9.973249E0,1.16755E1,2.8515E1,6.5E0,6.123234E-17,-5E-1,4.105E2,7.019861E2,9.0552497E-1,9.7407E-1,7.391167E1,2.8268402E2,1.1471666E2,5.02765E-1,1.3608313E2,9.159756E-1,2.602E1,2.7584595E2,3.4145E1,3.7836198E-2,2.2542796E0,6.7464175E0,3.8451555E0,1.895093E1,1.0628444E1,5.6462693E0,8.437669E0,5.511525E0,1.8709831E1,1.22216835E1,2.0456186E1,1.4997596E1,2.9630161E1,1.6133286E1,2.1318977E1,9.864901E0,1.8341581E1,2.2793137E1,1.4386835E1,2.5055952E1,2.9787466E1,1.7495127E1,2.3060642E1,3.0569479E1,2.2601274E1,-8.716362E0,3.4634716E1,1.4718567E1,3.705248E1,3.3345516E1,1.3488396E1],"split_indices":[28,23,28,23,64,26,63,10,13,60,26,36,59,35,60,26,55,21,5,61,22,22,37,41,37,38,53,13,60,53,60,0,0,0,0,0,0,0,0,0,0,0,0,0,0,0,0,0,0,0,0,0,0,0,0,0,0,0,0,0,0,0,0],"split_type":[0,0,0,0,0,0,0,0,0,0,0,0,0,0,0,0,0,0,0,0,0,0,0,0,0,0,0,0,0,0,0,0,0,0,0,0,0,0,0,0,0,0,0,0,0,0,0,0,0,0,0,0,0,0,0,0,0,0,0,0,0,0,0],"sum_hessian":[2.9482E4,1.9424E4,1.0058E4,1.0664E4,8.76E3,5.107E3,4.951E3,5.414E3,5.25E3,4.986E3,3.774E3,3.045E3,2.062E3,4.328E3,6.23E2,2.179E3,3.235E3,7.39E2,4.511E3,4.66E2,4.52E3,2.254E3,1.52E3,1.432E3,1.613E3,1.222E3,8.4E2,2.817E3,1.511E3,3.76E2,2.47E2,6.61E2,1.518E3,8.08E2,2.427E3,4.8E1,6.91E2,1.113E3,3.398E3,4.37E2,2.9E1,4.23E3,2.9E2,2.205E3,4.9E1,7.2E2,8E2,1.96E2,1.236E3,1.342E3,2.71E2,7.01E2,5.21E2,2.28E2,6.12E2,2.617E3,2E2,3E0,1.508E3,3.49E2,2.7E1,2.37E2,1E1],"tree_param":{"num_deleted":"0","num_feature":"65","num_nodes":"63","size_leaf_vector":"0"}},{"base_weights":[1.3601897E2,7.426122E1,2.1440724E2,3.968628E1,1.0364699E2,1.7844818E2,2.7345407E2,1.8810179E1,5.3833138E1,8.566468E1,1.2488409E2,1.4553569E2,1.9748497E2,2.5148026E2,2.9578928E2,1.7276628E1,1.3906216E2,4.677873E1,9.445337E1,1.0838024E2,7.8132225E1,1.1144184E2,1.4631651E2,5.4459675E1,1.5112369E2,1.7699638E2,2.1199445E2,1.3580899E2,2.5679214E2,3.9823845E1,2.977028E2,9.082938E0,2.8228592E1,3.669235E2,7.577336E1,3.2908817E1,5.5908257E1,4.347369E1,1.3948259E2,9.3372185E1,1.308377E2,7.011687E1,9.6386795E1,1.2586164E0,1.1365583E2,4.5912025E1,1.5116348E2,1.07638885E2,-5.1003933E1,1.4275954E2,1.8069456E2,1.5891373E2,2.1078896E2,2.2079202E2,1.6022287E2,-3.805345E1,1.6366151E2,2.405938E2,2.7992072E2,-9.282004E1,2.3381168E2,3.0403723E2,2.4056245E2],"categories":[],"categories_nodes":[],"categories_segments":[],"categories_sizes":[],"default_left":[1,0,1,0,0,0,0,0,1,1,0,0,0,1,0,0,0,0,0,1,1,0,0,0,1,0,1,0,1,1,0,0,0,0,0,0,0,0,0,0,0,0,0,0,0,0,0,0,0,0,0,0,0,0,0,0,0,0,0,0,0,0,0],"id":9,"left_children":[1,3,5,7,9,11,13,15,17,19,21,23,25,27,29,31,33,35,37,39,41,43,45,47,49,51,53,55,57,59,61,-1,-1,-1,-1,-1,-1,-1,-1,-1,-1,-1,-1,-1,-1,-1,-1,-1,-1,-1,-1,-1,-1,-1,-1,-1,-1,-1,-1,-1,-1,-1,-1],"loss_changes":[1.4113549E8,1.6567032E7,2.7230912E7,2.212495E6,3.356064E6,4.976128E6,2.31136E6,5.5618325E5,1.275609E6,8.08896E5,1.14762E6,1.483448E6,1.466112E6,1.474784E6,1.16608E6,2.682367E5,5.2019756E5,4.8035E5,1.5090155E6,3.87854E5,5.18664E5,6.06548E5,7.49324E5,9.6453844E5,6.571E5,1.25156E6,1.310976E6,5.3890375E5,8.12304E5,5.105971E5,7.90848E5,0E0,0E0,0E0,0E0,0E0,0E0,0E0,0E0,0E0,0E0,0E0,0E0,0E0,0E0,0E0,0E0,0E0,0E0,0E0,0E0,0E0,0E0,0E0,0E0,0E0,0E0,0E0,0E0,0E0,0E0,0E0,0E0],"parents":[2147483647,0,0,1,1,2,2,3,3,4,4,5,5,6,6,7,7,8,8,9,9,10,10,11,11,12,12,13,13,14,14,15,15,16,16,17,17,18,18,19,19,20,20,21,21,22,22,23,23,24,24,25,25,26,26,27,27,28,28,29,29,30,30],"right_children":[2,4,6,8,10,12,14,16,18,20,22,24,26,28,30,32,34,36,38,40,42,44,46,48,50,52,54,56,58,60,62,-1,-1,-1,-1,-1,-1,-1,-1,-1,-1,-1,-1,-1,-1,-1,-1,-1,-1,-1,-1,-1,-1,-1,-1,-1,-1,-1,-1,-1,-1,-1,-1],"split_conditions":[2.6345001E1,2.0575E1,1.16574E3,1.8045E1,9.4127E0,7.8899097E2,1.5005669E3,2.851667E2,7.0407E-1,-7.865661E-1,7.865E2,1.2295E1,7.985E2,3.0052502E2,2.6035E1,1.4780001E1,3.16575E0,7.163625E0,2.7545E1,1.2922188E2,2.5075E2,2.667E1,2.6175E1,3.2723E0,1.65E1,5.2175E2,3.3809998E1,1.2355E1,1.75E1,-3.48956E-2,4.6531E0,9.0829384E-1,2.8228593E0,3.669235E1,7.5773363E0,3.2908819E0,5.5908256E0,4.347369E0,1.3948259E1,9.337218E0,1.3083771E1,7.011687E0,9.6386795E0,1.2586164E-1,1.1365583E1,4.5912027E0,1.5116348E1,1.0763888E1,-5.1003933E0,1.4275954E1,1.8069456E1,1.5891373E1,2.1078896E1,2.2079203E1,1.6022287E1,-3.8053453E0,1.6366152E1,2.405938E1,2.7992071E1,-9.282004E0,2.3381168E1,3.0403723E1,2.4056246E1],"split_indices":[28,28,64,23,2,64,64,11,22,13,5,33,5,8,60,23,44,2,60,53,11,60,60,15,26,11,60,33,26,6,15,0,0,0,0,0,0,0,0,0,0,0,0,0,0,0,0,0,0,0,0,0,0,0,0,0,0,0,0,0,0,0,0],"split_type":[0,0,0,0,0,0,0,0,0,0,0,0,0,0,0,0,0,0,0,0,0,0,0,0,0,0,0,0,0,0,0,0,0,0,0,0,0,0,0,0,0,0,0,0,0,0,0,0,0,0,0,0,0,0,0,0,0,0,0,0,0,0,0],"sum_hessian":[2.9156E4,1.6309E4,1.2847E4,7.494E3,8.815E3,7.987E3,4.86E3,3.028E3,4.466E3,4.776E3,4.039E3,2.93E3,5.057E3,2.456E3,2.404E3,2.991E3,3.7E1,3.807E3,6.59E2,1.186E3,3.59E3,2.486E3,1.553E3,1.7E2,2.76E3,2.102E3,2.955E3,1.09E2,2.347E3,1.8E1,2.386E3,1.712E3,1.279E3,7E0,3E1,1.513E3,2.294E3,3.1E2,3.49E2,7.14E2,4.72E2,2.498E3,1.092E3,4.9E1,2.437E3,7.2E1,1.481E3,1.13E2,5.7E1,2.156E3,6.04E2,1.373E3,7.29E2,2.523E3,4.32E2,1.5E1,9.4E1,1.387E3,9.6E2,1.1E1,7E0,2.144E3,2.42E2],"tree_param":{"num_deleted":"0","num_feature":"65","num_nodes":"63","size_leaf_vector":"0"}},{"base_weights":[1.228066E2,6.556487E1,1.9179854E2,3.612168E1,9.167644E1,1.4995418E2,2.3171239E2,2.006004E1,5.0283035E1,7.402799E1,1.0720412E2,1.258942E2,1.6374309E2,2.0895401E2,2.6091492E2,1.0149928E1,3.591458E1,6.386382E1,2.9935566E1,7.0006294E1,1.12112816E2,5.9774128E1,1.1132698E2,1.2296849E2,2.6184854E2,1.4733907E2,1.7661581E2,1.9433391E2,2.350704E2,2.6885876E2,1.935088E2,1.6020052E2,9.312389E0,3.418841E1,1.1967819E2,5.0900787E1,1.0912676E2,2.3547352E1,1.00947044E2,5.7472065E1,7.896094E1,1.7249582E2,9.292049E1,6.806729E1,-5.5072132E1,1.20459435E2,8.754157E1,1.1214888E2,1.5622182E2,2.9504025E2,5.4861E1,1.0356618E1,1.5080994E2,1.6572617E2,2.0685489E2,6.693128E1,1.9798558E2,1.5126823E2,2.4628078E2,2.4428488E2,2.790516E2,2.0313141E2,-2.6165378E2],"categories":[],"categories_nodes":[],"categories_segments":[],"categories_sizes":[],"default_left":[0,0,1,1,1,0,0,0,1,1,0,1,0,1,1,1,1,0,0,1,0,0,0,1,0,0,1,0,0,0,1,0,0,0,0,0,0,0,0,0,0,0,0,0,0,0,0,0,0,0,0,0,0,0,0,0,0,0,0,0,0,0,0],"id":10,"left_children":[1,3,5,7,9,11,13,15,17,19,21,23,25,27,29,31,33,35,37,39,41,43,45,47,49,51,53,55,57,59,61,-1,-1,-1,-1,-1,-1,-1,-1,-1,-1,-1,-1,-1,-1,-1,-1,-1,-1,-1,-1,-1,-1,-1,-1,-1,-1,-1,-1,-1,-1,-1,-1],"loss_changes":[1.1568374E8,1.2307608E7,2.2151776E7,1.71127E6,2.31756E6,2.131856E6,4.462752E6,5.54113E5,1.103426E6,6.00988E5,8.75652E5,9.09704E5,8.44184E5,1.4148E6,1.53992E6,2.715957E5,1.9211738E5,1.40146E6,7.248025E5,3.993E5,4.220325E5,3.4948388E5,8.9092E5,8.17188E5,3.20457E5,8.62804E5,7.244E5,1.130296E6,1.24792E6,5.97344E5,1.441562E6,0E0,0E0,0E0,0E0,0E0,0E0,0E0,0E0,0E0,0E0,0E0,0E0,0E0,0E0,0E0,0E0,0E0,0E0,0E0,0E0,0E0,0E0,0E0,0E0,0E0,0E0,0E0,0E0,0E0,0E0,0E0,0E0],"parents":[2147483647,0,0,1,1,2,2,3,3,4,4,5,5,6,6,7,7,8,8,9,9,10,10,11,11,12,12,13,13,14,14,15,15,16,16,17,17,18,18,19,19,20,20,21,21,22,22,23,23,24,24,25,25,26,26,27,27,28,28,29,29,30,30],"right_children":[2,4,6,8,10,12,14,16,18,20,22,24,26,28,30,32,34,36,38,40,42,44,46,48,50,52,54,56,58,60,62,-1,-1,-1,-1,-1,-1,-1,-1,-1,-1,-1,-1,-1,-1,-1,-1,-1,-1,-1,-1,-1,-1,-1,-1,-1,-1,-1,-1,-1,-1,-1,-1],"split_conditions":[2.6195E1,2.0595001E1,9.95292E2,1.479618E2,9.2318E0,7.33452E2,2.7805E1,8.058333E1,-6.1232336E-17,2.0794208E2,1.8451042E2,1.1139E0,7.965E2,1.75E1,1.395E2,1.5E0,1.06162155E2,1.31E1,2.2900613E2,7.7005E0,1.3575278E2,1.10795E1,3.3645E1,1.45E1,2.3635E1,1.6507001E0,1.65E1,2.6195E1,9.65E1,7.1580005E-1,2.9625275E2,1.6020052E1,9.3123895E-1,3.4188411E0,1.1967819E1,5.090079E0,1.0912677E1,2.3547351E0,1.0094705E1,5.7472067E0,7.896094E0,1.7249582E1,9.292048E0,6.8067293E0,-5.507213E0,1.2045943E1,8.754157E0,1.1214889E1,1.5622182E1,2.9504026E1,5.4861E0,1.0356618E0,1.5080994E1,1.6572617E1,2.068549E1,6.693128E0,1.979856E1,1.5126823E1,2.4628078E1,2.4428488E1,2.790516E1,2.031314E1,-2.6165379E1],"split_indices":[28,28,64,41,2,64,9,11,32,53,41,22,5,26,4,47,53,44,16,34,39,2,60,26,9,40,26,60,4,49,39,0,0,0,0,0,0,0,0,0,0,0,0,0,0,0,0,0,0,0,0,0,0,0,0,0,0,0,0,0,0,0,0],"split_type":[0,0,0,0,0,0,0,0,0,0,0,0,0,0,0,0,0,0,0,0,0,0,0,0,0,0,0,0,0,0,0,0,0,0,0,0,0,0,0,0,0,0,0,0,0,0,0,0,0,0,0,0,0,0,0,0,0,0,0,0,0,0,0],"sum_hessian":[2.9295E4,1.6012E4,1.3283E4,7.527E3,8.485E3,6.487E3,6.796E3,3.528E3,3.999E3,3.974E3,4.511E3,2.367E3,4.12E3,3.824E3,2.972E3,2.172E3,1.356E3,2.397E3,1.602E3,3.597E3,3.77E2,3.62E2,4.149E3,2.319E3,4.8E1,1.817E3,2.303E3,2.457E3,1.367E3,2.656E3,3.16E2,1.1E1,2.161E3,1.33E3,2.6E1,1.865E3,5.32E2,1.471E3,1.31E2,1.502E3,2.095E3,8.9E1,2.88E2,3.38E2,2.4E1,2.995E3,1.154E3,1.753E3,5.66E2,4.1E1,7E0,4.5E1,1.772E3,1.698E3,6.05E2,6.9E1,2.388E3,1.63E2,1.204E3,7.86E2,1.87E3,3.1E2,6E0],"tree_param":{"num_deleted":"0","num_feature":"65","num_nodes":"63","size_leaf_vector":"0"}},{"base_weights":[1.111703E2,6.694616E1,1.8530191E2,4.21767E1,1.00393036E2,1.5258073E2,2.212476E2,2.3599323E1,5.8918945E1,8.98303E1,1.20780205E2,1.3641837E2,1.8131561E2,2.4222545E2,1.975743E2,1.3067355E1,3.457466E1,4.657199E1,6.79212E1,8.366859E1,1.1314359E2,1.329843E2,1.07007744E2,5.7383987E1,1.4279134E2,1.8476472E2,4.216275E1,2.4369589E2,6.4931816E1,8.129412E1,2.0502132E2,1.9211371E2,1.2568775E1,4.0403927E1,4.818777E0,4.378486E1,9.389466E1,9.070955E1,6.377114E1,8.481082E1,-4.2910812E1,9.6973434E1,1.4895258E2,6.3891426E1,1.3728038E2,1.0833092E2,-1.1228647E2,7.254546E0,1.3251219E2,1.3991577E2,2.3693979E2,1.5307628E2,1.9887271E2,1.3868271E2,-2.5064044E2,1.5007437E2,2.4614023E2,2.407896E2,-3.9654987E2,1.7249247E1,1.9364622E2,1.813809E2,2.3042307E2],"categories":[],"categories_nodes":[],"categories_segments":[],"categories_sizes":[],"default_left":[0,0,1,0,0,1,1,0,0,1,1,0,1,1,0,1,0,1,1,0,0,1,1,0,1,0,0,1,0,0,1,0,0,0,0,0,0,0,0,0,0,0,0,0,0,0,0,0,0,0,0,0,0,0,0,0,0,0,0,0,0,0,0],"id":11,"left_children":[1,3,5,7,9,11,13,15,17,19,21,23,25,27,29,31,33,35,37,39,41,43,45,47,49,51,53,55,57,59,61,-1,-1,-1,-1,-1,-1,-1,-1,-1,-1,-1,-1,-1,-1,-1,-1,-1,-1,-1,-1,-1,-1,-1,-1,-1,-1,-1,-1,-1,-1,-1,-1],"loss_changes":[9.575971E7,1.5155776E7,1.280432E7,3.269058E6,1.665608E6,2.630384E6,2.534048E6,5.758895E5,6.11498E5,7.27744E5,4.31856E5,1.8368E6,9.78512E5,7.01616E5,2.10316E6,2.2486384E5,4.23209E5,3.03862E5,2.9647E5,5.9108E5,6.05125E5,4.07678E5,3.75447E5,1.03472594E6,8.84352E5,8.6592E5,1.4760884E6,5.87568E5,2.0432086E6,1.0688005E6,1.339376E6,0E0,0E0,0E0,0E0,0E0,0E0,0E0,0E0,0E0,0E0,0E0,0E0,0E0,0E0,0E0,0E0,0E0,0E0,0E0,0E0,0E0,0E0,0E0,0E0,0E0,0E0,0E0,0E0,0E0,0E0,0E0,0E0],"parents":[2147483647,0,0,1,1,2,2,3,3,4,4,5,5,6,6,7,7,8,8,9,9,10,10,11,11,12,12,13,13,14,14,15,15,16,16,17,17,18,18,19,19,20,20,21,21,22,22,23,23,24,24,25,25,26,26,27,27,28,28,29,29,30,30],"right_children":[2,4,6,8,10,12,14,16,18,20,22,24,26,28,30,32,34,36,38,40,42,44,46,48,50,52,54,56,58,60,62,-1,-1,-1,-1,-1,-1,-1,-1,-1,-1,-1,-1,-1,-1,-1,-1,-1,-1,-1,-1,-1,-1,-1,-1,-1,-1,-1,-1,-1,-1,-1,-1],"split_conditions":[2.8675E1,2.6205E1,2.8865002E1,2.1075E1,6.4535803E2,1.55E1,6.123234E-17,1.114375E2,8.1585E0,1.65E1,-3.7940952E-1,3.0521498E0,9.330127E-1,3.91E2,2.39255E0,1.5E0,3.8926E0,8.9887E-1,-9.159756E-1,-2.5953E0,9.85E1,5.5940002E1,1.1673334E2,1.2385E1,1.1106501E0,9.95E1,8.305E2,-7.865661E-1,1.00815E3,6.490347E1,1.2535E1,1.921137E1,1.2568775E0,4.040393E0,4.818777E-1,4.378486E0,9.389466E0,9.070955E0,6.3771143E0,8.481082E0,-4.2910814E0,9.697344E0,1.4895258E1,6.3891425E0,1.3728038E1,1.0833092E1,-1.1228647E1,7.254546E-1,1.325122E1,1.3991577E1,2.369398E1,1.5307628E1,1.9887272E1,1.3868271E1,-2.5064045E1,1.5007438E1,2.4614023E1,2.407896E1,-3.9654987E1,1.7249247E0,1.9364622E1,1.813809E1,2.3042307E1],"split_indices":[23,23,28,23,64,26,13,61,2,26,13,40,1,56,40,47,15,22,13,59,4,63,37,33,22,4,5,32,3,16,34,0,0,0,0,0,0,0,0,0,0,0,0,0,0,0,0,0,0,0,0,0,0,0,0,0,0,0,0,0,0,0,0],"split_type":[0,0,0,0,0,0,0,0,0,0,0,0,0,0,0,0,0,0,0,0,0,0,0,0,0,0,0,0,0,0,0,0,0,0,0,0,0,0,0,0,0,0,0,0,0,0,0,0,0,0,0,0,0,0,0,0,0,0,0,0,0,0,0],"sum_hessian":[2.9212E4,1.8298E4,1.0914E4,1.0514E4,7.784E3,5.716E3,5.198E3,4.985E3,5.529E3,5.131E3,2.653E3,3.662E3,2.054E3,2.751E3,2.447E3,2.545E3,2.44E3,2.334E3,3.195E3,4.062E3,1.069E3,1.402E3,1.251E3,2.74E2,3.388E3,2.004E3,5E1,2.728E3,2.3E1,1.48E2,2.299E3,6E0,2.539E3,2.04E3,4E2,2.206E3,1.28E2,4.89E2,2.706E3,4.026E3,3.6E1,7.39E2,3.3E2,8.3E1,1.319E3,1.244E3,7E0,1.65E2,1.09E2,3.29E3,9.8E1,6.21E2,1.383E3,3.8E1,1.2E1,7.1E1,2.657E3,1.7E1,6E0,9.5E1,5.3E1,1.195E3,1.104E3],"tree_param":{"num_deleted":"0","num_feature":"65","num_nodes":"63","size_leaf_vector":"0"}},{"base_weights":[9.913528E1,5.328936E1,1.5577408E2,2.7728474E1,7.377655E1,1.9709659E2,1.2730681E2,1.5034305E1,4.19755E1,6.0733467E1,8.9045044E1,1.7040244E2,2.1288692E2,1.11312256E2,1.5079933E2,3.3784173E0,2.517716E1,3.5024147E1,7.39283E1,7.8597466E1,5.4882797E1,8.561539E1,1.4023792E2,1.4727669E2,2.0245096E2,3.6484135E1,2.1457721E2,9.565091E1,1.3561371E2,1.0494017E2,1.6003638E2,9.688126E-1,3.0630342E1,1.6085701E1,3.789481E1,4.7456345E1,1.844632E1,3.582466E1,1.1358437E2,1.5638466E2,7.498667E1,3.722022E1,6.0600998E1,8.8205986E1,1.833037E1,1.471707E2,-2.3999496E2,-1.5900337E2,1.4847507E2,2.0406024E2,-1.0421313E2,1.9481284E2,-9.043242E1,2.206444E2,1.7014424E2,1.0059966E1,1.00710335E2,1.18640656E2,1.5836974E2,1.5032956E2,8.724518E1,1.127976E2,1.7054744E2],"categories":[],"categories_nodes":[],"categories_segments":[],"categories_sizes":[],"default_left":[0,0,0,1,0,0,0,0,0,1,1,1,0,1,1,1,1,1,1,1,1,1,1,0,0,0,0,0,0,0,0,0,0,0,0,0,0,0,0,0,0,0,0,0,0,0,0,0,0,0,0,0,0,0,0,0,0,0,0,0,0,0,0],"id":12,"left_children":[1,3,5,7,9,11,13,15,17,19,21,23,25,27,29,31,33,35,37,39,41,43,45,47,49,51,53,55,57,59,61,-1,-1,-1,-1,-1,-1,-1,-1,-1,-1,-1,-1,-1,-1,-1,-1,-1,-1,-1,-1,-1,-1,-1,-1,-1,-1,-1,-1,-1,-1,-1,-1],"loss_changes":[7.598288E7,8.468328E6,1.5374368E7,1.3011575E6,1.782544E6,2.213728E6,2.8968E6,4.5011188E5,7.50603E5,5.02068E5,7.13818E5,1.44432E6,9.91056E5,1.744228E6,1.312472E6,1.163968E5,2.3479688E5,5.73522E5,9.1011025E5,3.23355E5,3.66691E5,6.74178E5,7.154265E5,4.49006E5,4.31368E5,6.80737E5,8.56944E5,1.216264E6,6.79146E5,4.117585E5,1.2767E6,0E0,0E0,0E0,0E0,0E0,0E0,0E0,0E0,0E0,0E0,0E0,0E0,0E0,0E0,0E0,0E0,0E0,0E0,0E0,0E0,0E0,0E0,0E0,0E0,0E0,0E0,0E0,0E0,0E0,0E0,0E0,0E0],"parents":[2147483647,0,0,1,1,2,2,3,3,4,4,5,5,6,6,7,7,8,8,9,9,10,10,11,11,12,12,13,13,14,14,15,15,16,16,17,17,18,18,19,19,20,20,21,21,22,22,23,23,24,24,25,25,26,26,27,27,28,28,29,29,30,30],"right_children":[2,4,6,8,10,12,14,16,18,20,22,24,26,28,30,32,34,36,38,40,42,44,46,48,50,52,54,56,58,60,62,-1,-1,-1,-1,-1,-1,-1,-1,-1,-1,-1,-1,-1,-1,-1,-1,-1,-1,-1,-1,-1,-1,-1,-1,-1,-1,-1,-1,-1,-1,-1,-1],"split_conditions":[2.6244999E1,2.0235E1,-1.08175E1,1.4277084E2,9.3565E0,6.880834E2,4.7045142E2,3.277625E0,1.57425E1,-7.865661E-1,8.97745E-1,1.65E1,1.2295E1,1.55E1,-9.159756E-1,5.33045E-1,1.55E1,1.0645E2,-7.52885E1,-5E-1,1.8817361E2,1.3105E1,3.3145325E2,2.971875E2,8.055E2,9.77545E-1,1.395E2,2.3923502E0,4.871E-1,1.125E2,1.2445E1,9.688126E-2,3.0630343E0,1.6085701E0,3.789481E0,4.7456346E0,1.844632E0,3.5824661E0,1.1358438E1,1.5638466E1,7.4986672E0,3.7220218E0,6.0601E0,8.820599E0,1.833037E0,1.4717071E1,-2.3999496E1,-1.5900337E1,1.48475065E1,2.0406025E1,-1.0421313E1,1.9481283E1,-9.043242E0,2.206444E1,1.7014425E1,1.0059966E0,1.00710335E1,1.1864066E1,1.5836974E1,1.5032956E1,8.724518E0,1.127976E1,1.7054745E1],"split_indices":[28,28,59,61,2,11,41,43,44,13,22,26,33,26,32,22,26,63,40,19,41,44,53,46,10,51,4,40,51,4,33,0,0,0,0,0,0,0,0,0,0,0,0,0,0,0,0,0,0,0,0,0,0,0,0,0,0,0,0,0,0,0,0],"split_type":[0,0,0,0,0,0,0,0,0,0,0,0,0,0,0,0,0,0,0,0,0,0,0,0,0,0,0,0,0,0,0,0,0,0,0,0,0,0,0,0,0,0,0,0,0,0,0,0,0,0,0,0,0,0,0,0,0,0,0,0,0,0,0],"sum_hessian":[2.9264E4,1.6174E4,1.309E4,7.197E3,8.977E3,5.337E3,7.753E3,3.807E3,3.39E3,4.844E3,4.133E3,1.988E3,3.349E3,4.616E3,3.137E3,1.772E3,2.035E3,2.786E3,6.04E2,1.192E3,3.652E3,3.876E3,2.57E2,1.158E3,8.3E2,3.2E1,3.317E3,2.81E3,1.806E3,5.28E2,2.609E3,1.629E3,1.43E2,1.188E3,8.47E2,1.591E3,1.195E3,3.09E2,2.95E2,5.1E1,1.141E3,8.95E2,2.757E3,3.732E3,1.44E2,2.53E2,4E0,4E0,1.154E3,8.26E2,4E0,1.4E1,1.8E1,2.915E3,4.02E2,1.57E2,2.653E3,1.038E3,7.68E2,1.46E2,3.82E2,4.77E2,2.132E3],"tree_param":{"num_deleted":"0","num_feature":"65","num_nodes":"63","size_leaf_vector":"0"}},{"base_weights":[8.901218E1,5.4484337E1,1.5064864E2,3.347038E1,8.186269E1,1.2519876E2,1.8381071E2,1.8714157E1,4.82314E1,2.9217205E1,8.642449E1,9.341393E1,1.3833806E2,1.916078E2,1.3368303E2,1.3969688E1,3.9326183E1,6.829066E0,5.0650944E1,-4.0144306E1,4.944702E1,7.86034E1,1.1048199E2,-1.0630123E1,9.959996E1,1.2501073E2,1.5816852E2,-1.8017944E2,1.9221815E2,6.471127E1,1.8182338E2,-6.2647123E0,1.8919613E1,3.0444208E2,3.6871357E1,1.2851022E2,3.4253213E0,4.5860905E1,7.4342476E1,8.78367E1,-8.2065315E1,4.1512997E1,1.3391075E2,7.414471E1,1.1147887E2,5.8244114E1,1.22826996E2,-4.6207916E1,1.4160312E2,2.3601738E1,1.079715E2,1.0922199E2,1.3821303E2,1.8062097E2,1.3308652E2,1.7789671E2,2.0771786E2,-4.196328E1,1.02749146E2,9.307301E1,1.9533353E2],"categories":[],"categories_nodes":[],"categories_segments":[],"categories_sizes":[],"default_left":[0,0,1,0,0,1,1,1,1,0,1,0,0,0,1,0,0,0,1,0,0,1,0,1,0,0,0,0,0,0,0,0,0,0,0,0,0,0,0,0,0,0,0,0,0,0,0,0,0,0,0,0,0,0,0,0,0,0,0,0,0],"id":13,"left_children":[1,3,5,7,9,11,13,15,17,19,21,23,25,27,29,31,33,35,37,39,41,43,45,47,49,51,53,-1,55,57,59,-1,-1,-1,-1,-1,-1,-1,-1,-1,-1,-1,-1,-1,-1,-1,-1,-1,-1,-1,-1,-1,-1,-1,-1,-1,-1,-1,-1,-1,-1],"loss_changes":[6.246219E7,1.0822624E7,8.871584E6,2.318194E6,1.959572E6,2.478664E6,1.762144E6,5.2029662E5,5.32784E5,9.182554E5,1.405868E6,1.126105E6,1.095256E6,9.3232E5,2.043514E6,4.3390612E5,6.3698525E5,1.2174042E5,5.67186E5,8.01242E5,3.3353038E5,8.2388E5,1.180712E6,5.427394E5,1.047218E6,5.11856E5,9.28816E5,0E0,8.39872E5,1.043076E6,4.18267E5,0E0,0E0,0E0,0E0,0E0,0E0,0E0,0E0,0E0,0E0,0E0,0E0,0E0,0E0,0E0,0E0,0E0,0E0,0E0,0E0,0E0,0E0,0E0,0E0,0E0,0E0,0E0,0E0,0E0,0E0],"parents":[2147483647,0,0,1,1,2,2,3,3,4,4,5,5,6,6,7,7,8,8,9,9,10,10,11,11,12,12,13,13,14,14,15,15,16,16,17,17,18,18,19,19,20,20,21,21,22,22,23,23,24,24,25,25,26,26,28,28,29,29,30,30],"right_children":[2,4,6,8,10,12,14,16,18,20,22,24,26,28,30,32,34,36,38,40,42,44,46,48,50,52,54,-1,56,58,60,-1,-1,-1,-1,-1,-1,-1,-1,-1,-1,-1,-1,-1,-1,-1,-1,-1,-1,-1,-1,-1,-1,-1,-1,-1,-1,-1,-1,-1,-1],"split_conditions":[3.445E2,2.6205E1,2.9075E1,2.1465E1,1.8398611E2,6.4166746E0,1.1511667E2,2.5E-1,2.6455E1,2.987525E2,1.0660999E1,1.2285E1,2.9564999E1,4.1112003E0,2.61045E0,1.2455E1,5.5E-1,1.00275E3,1.814184E2,2.32E2,8.15E1,8.5525E1,1.2434999E1,6.830127E-1,2.6935001E1,7.0799994E-1,2.8134998E1,-1.8017944E1,1.395E1,1.4316E-1,2.6585E1,-6.264712E-1,1.8919613E0,3.0444208E1,3.6871357E0,1.2851023E1,3.4253213E-1,4.5860906E0,7.4342475E0,8.78367E0,-8.206532E0,4.1513E0,1.3391075E1,7.4144707E0,1.1147887E1,5.8244114E0,1.22827E1,-4.620792E0,1.4160312E1,2.360174E0,1.079715E1,1.0922199E1,1.3821303E1,1.8062098E1,1.3308652E1,1.778967E1,2.0771788E1,-4.196328E0,1.0274915E1,9.3073015E0,1.9533354E1],"split_indices":[36,23,28,23,41,43,37,24,60,46,2,33,23,43,40,23,29,3,53,10,54,42,33,24,60,20,60,0,48,52,60,0,0,0,0,0,0,0,0,0,0,0,0,0,0,0,0,0,0,0,0,0,0,0,0,0,0,0,0,0,0],"split_type":[0,0,0,0,0,0,0,0,0,0,0,0,0,0,0,0,0,0,0,0,0,0,0,0,0,0,0,0,0,0,0,0,0,0,0,0,0,0,0,0,0,0,0,0,0,0,0,0,0,0,0,0,0,0,0,0,0,0,0,0,0],"sum_hessian":[2.9353E4,1.8815E4,1.0538E4,1.0646E4,8.169E3,5.965E3,4.573E3,5.325E3,5.321E3,6.52E2,7.517E3,1.747E3,4.218E3,3.955E3,6.18E2,4.33E3,9.95E2,2.94E2,5.027E3,1.47E2,5.05E2,5.676E3,1.841E3,9.8E1,1.649E3,2.527E3,1.691E3,6E0,3.949E3,2.55E2,3.63E2,8.51E2,3.479E3,8E0,9.87E2,7E0,2.87E2,4.184E3,8.43E2,3.6E1,1.11E2,4.63E2,4.2E1,5.001E3,6.75E2,3.53E2,1.488E3,8E1,1.8E1,1.64E2,1.485E3,1.155E3,1.372E3,8.89E2,8.02E2,2.059E3,1.89E3,6.7E1,1.88E2,4.9E1,3.14E2],"tree_param":{"num_deleted":"0","num_feature":"65","num_nodes":"61","size_leaf_vector":"0"}},{"base_weights":[8.087749E1,4.3338066E1,1.2831693E2,1.8304148E1,5.730181E1,1.0323094E2,1.5894502E2,1.3213387E1,3.8053776E1,4.6828133E1,7.286232E1,1.3013701E2,9.141013E1,1.7485127E2,1.4149564E2,-9.291717E0,1.8332247E1,1.9071657E2,3.5172832E1,3.499383E1,5.6259796E1,8.163989E1,5.5466137E1,9.974284E1,1.4272952E2,5.3738303E0,9.543142E1,1.7677379E2,4.5751705E1,5.1314583E1,1.4763802E2,-1.1164873E1,9.747327E1,8.508877E0,2.661524E1,1.6715332E1,2.2845488E2,3.232143E1,1.4713104E2,3.438767E2,3.4537464E1,5.8944885E1,-1.3634197E1,7.136882E1,9.573585E1,4.1486145E1,6.871602E1,2.8951483E0,1.0535009E2,1.3272838E2,1.7779964E2,-2.5989239E1,1.0342911E2,9.283872E1,1.8568488E2,1.8598085E2,1.4842853E2,1.7056042E2,-1.9892467E2,1.8115825E2,2.3955734E1,1.3104877E2,1.7068442E2],"categories":[],"categories_nodes":[],"categories_segments":[],"categories_sizes":[],"default_left":[1,1,0,1,1,1,1,1,0,0,0,1,0,1,0,0,0,0,0,0,1,0,0,1,1,1,1,1,0,1,0,0,0,0,0,0,0,0,0,0,0,0,0,0,0,0,0,0,0,0,0,0,0,0,0,0,0,0,0,0,0,0,0],"id":14,"left_children":[1,3,5,7,9,11,13,15,17,19,21,23,25,27,29,31,33,35,37,39,41,43,45,47,49,51,53,55,57,59,61,-1,-1,-1,-1,-1,-1,-1,-1,-1,-1,-1,-1,-1,-1,-1,-1,-1,-1,-1,-1,-1,-1,-1,-1,-1,-1,-1,-1,-1,-1,-1,-1],"loss_changes":[5.2166224E7,5.716472E6,9.926624E6,5.884645E5,1.707672E6,2.25168E6,1.592016E6,5.3688944E5,5.2106775E5,6.98764E5,6.40154E5,8.16308E5,1.711388E6,7.47168E5,1.533996E6,1.738775E5,3.0864238E5,1.406445E5,3.7162575E5,3.8099E5,6.56153E5,3.99134E5,2.599955E5,3.467025E5,5.13734E5,6.854078E5,1.088876E6,7.548E5,1.438665E6,6.31535E5,9.73584E5,0E0,0E0,0E0,0E0,0E0,0E0,0E0,0E0,0E0,0E0,0E0,0E0,0E0,0E0,0E0,0E0,0E0,0E0,0E0,0E0,0E0,0E0,0E0,0E0,0E0,0E0,0E0,0E0,0E0,0E0,0E0,0E0],"parents":[2147483647,0,0,1,1,2,2,3,3,4,4,5,5,6,6,7,7,8,8,9,9,10,10,11,11,12,12,13,13,14,14,15,15,16,16,17,17,18,18,19,19,20,20,21,21,22,22,23,23,24,24,25,25,26,26,27,27,28,28,29,29,30,30],"right_children":[2,4,6,8,10,12,14,16,18,20,22,24,26,28,30,32,34,36,38,40,42,44,46,48,50,52,54,56,58,60,62,-1,-1,-1,-1,-1,-1,-1,-1,-1,-1,-1,-1,-1,-1,-1,-1,-1,-1,-1,-1,-1,-1,-1,-1,-1,-1,-1,-1,-1,-1,-1,-1],"split_conditions":[2.8295E1,2.2154999E1,2.8625E1,2.5E-1,7.7622004E0,-6.035534E-1,6.123234E-17,1.2455E1,5.5E-1,1.07031044E2,3.2215E1,7.389833E1,2.6625E1,2.9659482E2,2.18985E0,1.01085E3,6.2630997E0,5.279E-1,9.005E1,1.00155E3,1.4575E2,2.7625E1,1.4706055E2,5.473E1,5.0281E-1,6.5484717E2,1.1166999E0,2.8095001E1,1.03350006E2,1.102E2,6.895E2,-1.1164874E0,9.747327E0,8.508877E-1,2.661524E0,1.6715332E0,2.2845488E1,3.2321432E0,1.4713104E1,3.4387672E1,3.4537466E0,5.894489E0,-1.3634198E0,7.1368823E0,9.573585E0,4.1486144E0,6.871602E0,2.8951484E-1,1.0535009E1,1.3272838E1,1.7779964E1,-2.598924E0,1.0342911E1,9.283873E0,1.8568487E1,1.8598085E1,1.4842853E1,1.7056044E1,-1.9892467E1,1.8115826E1,2.3955734E0,1.31048765E1,1.7068441E1],"split_indices":[23,23,28,24,35,13,13,23,18,53,60,37,60,39,40,3,2,20,42,3,63,23,53,63,38,61,22,60,37,63,36,0,0,0,0,0,0,0,0,0,0,0,0,0,0,0,0,0,0,0,0,0,0,0,0,0,0,0,0,0,0,0,0],"split_type":[0,0,0,0,0,0,0,0,0,0,0,0,0,0,0,0,0,0,0,0,0,0,0,0,0,0,0,0,0,0,0,0,0,0,0,0,0,0,0,0,0,0,0,0,0,0,0,0,0,0,0,0,0,0,0,0,0,0,0,0,0,0,0],"sum_hessian":[2.9295E4,1.6355E4,1.294E4,5.857E3,1.0498E4,7.116E3,5.824E3,4.658E3,1.199E3,6.277E3,4.221E3,2.169E3,4.947E3,3.042E3,2.782E3,8.63E2,3.795E3,2.1E1,1.178E3,2.786E3,3.491E3,2.803E3,1.418E3,6.38E2,1.531E3,2.21E2,4.726E3,2.997E3,4.5E1,1.78E2,2.604E3,8.49E2,1.4E1,1.737E3,2.058E3,4E0,1.7E1,1.15E3,2.8E1,3E0,2.783E3,3.362E3,1.29E2,1.625E3,1.178E3,6.92E2,7.26E2,3.5E1,6.03E2,1.195E3,3.36E2,1.68E2,5.3E1,4.596E3,1.3E2,2.258E3,7.39E2,3E1,1.5E1,3E1,1.48E2,1.518E3,1.086E3],"tree_param":{"num_deleted":"0","num_feature":"65","num_nodes":"63","size_leaf_vector":"0"}},{"base_weights":[7.243065E1,4.489157E1,1.23709724E2,2.6748663E1,6.563265E1,1.08242134E2,1.5341425E2,1.3596713E1,3.800896E1,5.644378E1,8.002331E1,1.3566888E1,1.1137017E2,1.6050232E2,1.0701253E2,9.811409E0,3.1070948E1,3.53291E1,1.1182179E2,6.531493E1,4.566232E1,1.0573672E2,6.887573E1,7.1407455E1,-7.13763E1,1.2644006E2,9.709618E1,-4.048707E0,1.6203896E2,6.53367E1,2.0261046E2,-3.6617255E0,1.5265923E1,2.1418565E2,2.630283E1,3.830804E1,-4.3808556E0,-2.8106852E1,1.538964E2,6.78444E1,-2.933951E1,3.311322E1,5.6091988E1,1.2498904E2,8.845168E1,7.677264E1,5.008921E1,-6.918097E1,1.0096004E2,4.983294E1,-1.1011102E2,1.0880414E2,1.4311673E2,9.8002914E1,-2.4978824E2,7.140499E1,-2.1104028E2,-1.8460143E2,1.6233168E2,1.310124E2,1.997482E1,-2.8072546E1,2.0955063E2],"categories":[],"categories_nodes":[],"categories_segments":[],"categories_sizes":[],"default_left":[1,1,0,0,0,0,1,1,1,0,1,1,1,0,0,0,0,0,0,1,0,0,1,0,0,0,1,0,0,0,0,0,0,0,0,0,0,0,0,0,0,0,0,0,0,0,0,0,0,0,0,0,0,0,0,0,0,0,0,0,0,0,0],"id":15,"left_children":[1,3,5,7,9,11,13,15,17,19,21,23,25,27,29,31,33,35,37,39,41,43,45,47,49,51,53,55,57,59,61,-1,-1,-1,-1,-1,-1,-1,-1,-1,-1,-1,-1,-1,-1,-1,-1,-1,-1,-1,-1,-1,-1,-1,-1,-1,-1,-1,-1,-1,-1,-1,-1],"loss_changes":[4.126677E7,7.154036E6,4.674896E6,1.501906E6,1.168664E6,1.988016E6,1.132E6,3.0932125E5,1.077069E6,5.15218E5,9.83064E5,1.0663398E6,1.386568E6,7.66552E5,1.8433635E6,2.8291653E5,7.216691E5,6.24167E5,1.128827E6,7.13081E5,3.18675E5,3.36031E5,3.54137E5,5.4294744E5,4.1864775E5,9.13808E5,1.076274E6,4.6799944E5,3.3448E5,9.685935E5,2.31621E5,0E0,0E0,0E0,0E0,0E0,0E0,0E0,0E0,0E0,0E0,0E0,0E0,0E0,0E0,0E0,0E0,0E0,0E0,0E0,0E0,0E0,0E0,0E0,0E0,0E0,0E0,0E0,0E0,0E0,0E0,0E0,0E0],"parents":[2147483647,0,0,1,1,2,2,3,3,4,4,5,5,6,6,7,7,8,8,9,9,10,10,11,11,12,12,13,13,14,14,15,15,16,16,17,17,18,18,19,19,20,20,21,21,22,22,23,23,24,24,25,25,26,26,27,27,28,28,29,29,30,30],"right_children":[2,4,6,8,10,12,14,16,18,20,22,24,26,28,30,32,34,36,38,40,42,44,46,48,50,52,54,56,58,60,62,-1,-1,-1,-1,-1,-1,-1,-1,-1,-1,-1,-1,-1,-1,-1,-1,-1,-1,-1,-1,-1,-1,-1,-1,-1,-1,-1,-1,-1,-1,-1,-1],"split_conditions":[2.8795E1,2.2805E1,2.9765E1,2.0705E1,9.95E0,1.2285E1,1.15149994E2,2.5E-1,5.4404517E2,1.2905E1,-6.035534E-1,1.0933001E0,6.123234E-17,1.2295E1,1.2565001E1,1.3195E1,-8.8175E-1,1.5071667E2,2.6345001E1,1.009735E0,3.210625E2,1.2684999E1,1.69065E0,1.2145E1,4.7E1,5.250834E2,3.523267E2,3.2175E1,1.23447914E2,1.92125E0,7.985E2,-3.6617255E-1,1.5265923E0,2.1418566E1,2.630283E0,3.830804E0,-4.3808556E-1,-2.8106852E0,1.538964E1,6.78444E0,-2.9339511E0,3.311322E0,5.609199E0,1.2498904E1,8.845168E0,7.6772637E0,5.008921E0,-6.918097E0,1.0096004E1,4.983294E0,-1.1011103E1,1.0880414E1,1.4311673E1,9.800292E0,-2.4978825E1,7.140499E0,-2.1104029E1,-1.8460142E1,1.6233168E1,1.3101241E1,1.997482E0,-2.8072546E0,2.0955063E1],"split_indices":[23,28,28,23,48,33,37,24,41,33,13,38,13,33,33,23,27,37,60,38,41,33,15,33,54,11,53,23,41,38,30,0,0,0,0,0,0,0,0,0,0,0,0,0,0,0,0,0,0,0,0,0,0,0,0,0,0,0,0,0,0,0,0],"split_type":[0,0,0,0,0,0,0,0,0,0,0,0,0,0,0,0,0,0,0,0,0,0,0,0,0,0,0,0,0,0,0,0,0,0,0,0,0,0,0,0,0,0,0,0,0,0,0,0,0,0,0,0,0,0,0,0,0,0,0,0,0,0,0],"sum_hessian":[2.9225E4,1.9015E4,1.021E4,1.0144E4,8.871E3,6.717E3,3.493E3,4.68E3,5.464E3,5.417E3,3.454E3,2.15E2,6.502E3,3.028E3,4.65E2,3.848E3,8.32E2,5.274E3,1.9E2,2.969E3,2.448E3,1.042E3,2.412E3,1.28E2,8.7E1,3.159E3,3.343E3,2.8E1,3E3,3.25E2,1.4E2,1.109E3,2.739E3,2E1,8.12E2,4.906E3,3.68E2,4.4E1,1.46E2,2.892E3,7.7E1,1.113E3,1.335E3,4.9E2,5.52E2,1.696E3,7.16E2,2.2E1,1.06E2,2.1E1,6.6E1,1.539E3,1.62E3,3.335E3,8E0,2.1E1,7E0,2E0,2.998E3,1.32E2,1.93E2,4E0,1.36E2],"tree_param":{"num_deleted":"0","num_feature":"65","num_nodes":"63","size_leaf_vector":"0"}},{"base_weights":[6.559099E1,4.0037567E1,1.1033227E2,2.0742014E1,5.5651443E1,9.275716E1,1.359823E2,4.4815273E0,2.759643E1,7.6809586E1,4.9643246E1,1.0039896E2,4.5882797E1,8.818311E1,1.4068956E2,7.1509415E1,3.763399E0,2.460678E1,5.5131485E1,4.2094376E1,8.8866554E1,4.451143E1,8.198323E1,1.0694501E2,6.519879E1,-2.4662052E1,8.769394E1,1.3773355E2,2.8336363E1,8.726574E1,1.4343929E2,1.554997E2,-4.5010173E-1,3.1741152E0,7.129569E1,1.9070612E1,4.0480198E1,9.336714E0,8.769612E1,3.5616177E1,1.2946947E2,8.6465225E1,2.939897E2,-6.952104E0,4.6930706E1,6.095926E1,1.331239E2,9.1625404E1,1.2226474E2,4.6891335E1,8.602301E1,-4.5738415E1,1.05997696E2,7.057504E1,1.21734245E2,1.554859E2,-3.1132416E1,-2.0023544E0,2.3156091E2,-3.1254116E1,9.595089E1,-1.13092575E1,1.4419518E2],"categories":[],"categories_nodes":[],"categories_segments":[],"categories_sizes":[],"default_left":[0,0,1,0,1,1,0,1,1,0,0,1,0,0,1,0,1,1,0,0,0,0,0,1,1,0,0,1,1,1,0,0,0,0,0,0,0,0,0,0,0,0,0,0,0,0,0,0,0,0,0,0,0,0,0,0,0,0,0,0,0,0,0],"id":16,"left_children":[1,3,5,7,9,11,13,15,17,19,21,23,25,27,29,31,33,35,37,39,41,43,45,47,49,51,53,55,57,59,61,-1,-1,-1,-1,-1,-1,-1,-1,-1,-1,-1,-1,-1,-1,-1,-1,-1,-1,-1,-1,-1,-1,-1,-1,-1,-1,-1,-1,-1,-1,-1,-1],"loss_changes":[3.3259688E7,5.57852E6,4.75508E6,9.232905E5,1.29741E6,2.244556E6,9.54656E5,1.1804583E5,4.784055E5,9.43043E5,1.319904E6,1.236848E6,2.6036752E6,1.1466852E6,5.62016E5,1.5721139E5,9.659659E4,4.6137775E5,8.492166E5,3.2651844E5,8.01108E5,8.57541E5,1.164907E6,1.056644E6,3.196375E5,9.108589E5,3.142425E5,6.4036775E5,1.09177E6,2.0269525E5,4.36536E5,0E0,0E0,0E0,0E0,0E0,0E0,0E0,0E0,0E0,0E0,0E0,0E0,0E0,0E0,0E0,0E0,0E0,0E0,0E0,0E0,0E0,0E0,0E0,0E0,0E0,0E0,0E0,0E0,0E0,0E0,0E0,0E0],"parents":[2147483647,0,0,1,1,2,2,3,3,4,4,5,5,6,6,7,7,8,8,9,9,10,10,11,11,12,12,13,13,14,14,15,15,16,16,17,17,18,18,19,19,20,20,21,21,22,22,23,23,24,24,25,25,26,26,27,27,28,28,29,29,30,30],"right_children":[2,4,6,8,10,12,14,16,18,20,22,24,26,28,30,32,34,36,38,40,42,44,46,48,50,52,54,56,58,60,62,-1,-1,-1,-1,-1,-1,-1,-1,-1,-1,-1,-1,-1,-1,-1,-1,-1,-1,-1,-1,-1,-1,-1,-1,-1,-1,-1,-1,-1,-1,-1,-1],"split_conditions":[4.114167E2,8.5891E0,1.2777E1,6.259E0,-7.865661E-1,1.375E2,2.6564999E1,1.5E0,6.4419496E-1,8.55E1,5.0508334E2,3.3135002E1,1.2445E1,4.33455E0,-7.865661E-1,2.19825E-2,5E-1,1.65E1,-6.5690994E1,3.493333E2,1.185E2,2.9819E2,1.405E2,5.2475E2,-9.159756E-1,8.47E1,8.5265005E-1,9.159756E-1,2.875818E2,1.5E0,9.968779E1,1.554997E1,-4.5010176E-2,3.174115E-1,7.1295695E0,1.9070612E0,4.04802E0,9.336714E-1,8.769612E0,3.5616176E0,1.2946947E1,8.6465225E0,2.939897E1,-6.952104E-1,4.693071E0,6.095926E0,1.331239E1,9.16254E0,1.2226474E1,4.6891336E0,8.602302E0,-4.5738416E0,1.059977E1,7.057504E0,1.2173425E1,1.5548591E1,-3.1132417E0,-2.0023544E-1,2.3156092E1,-3.1254117E0,9.595089E0,-1.1309258E0,1.44195175E1],"split_indices":[11,2,2,2,13,4,60,47,22,4,41,60,33,15,32,52,7,26,40,11,4,46,4,11,32,42,49,13,53,14,53,0,0,0,0,0,0,0,0,0,0,0,0,0,0,0,0,0,0,0,0,0,0,0,0,0,0,0,0,0,0,0,0],"split_type":[0,0,0,0,0,0,0,0,0,0,0,0,0,0,0,0,0,0,0,0,0,0,0,0,0,0,0,0,0,0,0,0,0,0,0,0,0,0,0,0,0,0,0,0,0,0,0,0,0,0,0,0,0,0,0,0,0,0,0,0,0,0,0],"sum_hessian":[2.9094E4,1.8519E4,1.0575E4,8.284E3,1.0235E4,6.278E3,4.297E3,2.457E3,5.827E3,2.261E3,7.974E3,5.397E3,8.81E2,3.87E2,3.91E3,2.5E1,2.432E3,5.258E3,5.69E2,5.84E2,1.677E3,6.884E3,1.09E3,4.549E3,8.48E2,3.28E2,5.53E2,2.11E2,1.76E2,1.93E2,3.717E3,1.1E1,1.4E1,2.412E3,2E1,3.9E3,1.358E3,2.37E2,3.32E2,5.45E2,3.9E1,1.659E3,1.8E1,3.09E2,6.575E3,7.74E2,3.16E2,2.278E3,2.271E3,4.53E2,3.95E2,2.83E2,4.5E1,3.7E2,1.83E2,1.91E2,2E1,1.54E2,2.2E1,1.3E1,1.8E2,1.8E1,3.699E3],"tree_param":{"num_deleted":"0","num_feature":"65","num_nodes":"63","size_leaf_vector":"0"}},{"base_weights":[5.846414E1,3.880884E1,1.0737613E2,2.3667791E1,5.8894024E1,9.415248E1,1.26479485E2,1.5831117E1,3.745611E1,7.909833E1,5.119269E1,3.0001993E1,9.6592476E1,1.3358229E2,9.534192E1,3.4081383E0,2.246685E1,3.696541E1,2.4583905E2,1.8307938E1,8.3667435E1,4.5121742E1,7.568542E1,9.518333E0,2.0738545E2,9.867599E1,2.2755444E1,-5.7377842E1,1.3511469E2,4.2196712E1,1.2605463E2,2.971683E0,3.8838956E2,-3.1359081E0,2.6157104E1,3.5390945E1,1.0049691E2,3.935537E2,1.9413635E1,3.4683365E1,-3.437338E1,9.951001E1,7.127025E1,-1.4884399E1,4.854259E1,7.0674644E1,2.3113159E2,4.0172836E1,-1.201028E2,2.3723645E2,3.613507E1,1.0253746E2,5.8224396E1,-1.600462E2,7.988188E1,1.2160104E2,-4.081634E2,1.3930785E2,1.0691188E2,5.8023994E1,-1.8004413E2,4.9509373E1,1.4019278E2],"categories":[],"categories_nodes":[],"categories_segments":[],"categories_sizes":[],"default_left":[0,0,0,1,1,1,0,0,1,1,0,1,1,0,1,0,0,1,0,1,1,0,1,0,0,0,0,1,1,1,0,0,0,0,0,0,0,0,0,0,0,0,0,0,0,0,0,0,0,0,0,0,0,0,0,0,0,0,0,0,0,0,0],"id":17,"left_children":[1,3,5,7,9,11,13,15,17,19,21,23,25,27,29,31,33,35,37,39,41,43,45,47,49,51,53,55,57,59,61,-1,-1,-1,-1,-1,-1,-1,-1,-1,-1,-1,-1,-1,-1,-1,-1,-1,-1,-1,-1,-1,-1,-1,-1,-1,-1,-1,-1,-1,-1,-1,-1],"loss_changes":[2.8249824E7,6.374592E6,2.116136E6,1.2913075E6,1.39806E6,7.7692E5,7.4874E5,6.284949E5,4.338725E5,6.88698E5,9.67112E5,6.665831E5,7.36032E5,8.27392E5,1.044207E6,4.4512603E5,4.6965075E5,4.28865E5,3.2682325E5,1.5216105E5,4.46795E5,1.07491E6,9.923485E5,6.644211E5,8.8555375E4,7.23028E5,1.4016781E6,1.4936469E6,3.13748E5,8.4408694E5,4.335185E5,0E0,0E0,0E0,0E0,0E0,0E0,0E0,0E0,0E0,0E0,0E0,0E0,0E0,0E0,0E0,0E0,0E0,0E0,0E0,0E0,0E0,0E0,0E0,0E0,0E0,0E0,0E0,0E0,0E0,0E0,0E0,0E0],"parents":[2147483647,0,0,1,1,2,2,3,3,4,4,5,5,6,6,7,7,8,8,9,9,10,10,11,11,12,12,13,13,14,14,15,15,16,16,17,17,18,18,19,19,20,20,21,21,22,22,23,23,24,24,25,25,26,26,27,27,28,28,29,29,30,30],"right_children":[2,4,6,8,10,12,14,16,18,20,22,24,26,28,30,32,34,36,38,40,42,44,46,48,50,52,54,56,58,60,62,-1,-1,-1,-1,-1,-1,-1,-1,-1,-1,-1,-1,-1,-1,-1,-1,-1,-1,-1,-1,-1,-1,-1,-1,-1,-1,-1,-1,-1,-1,-1,-1],"split_conditions":[2.7825E1,2.6805E1,2.9865002E1,2.5E-1,-6.035534E-1,3.006275E2,1.385E2,1.8175E1,3.02904E2,5.6165E1,5.0726392E2,1.0185001E0,9.330127E-1,1.055571E2,2.3926501E0,5.400834E2,2.7105E1,3.5222E0,1.0037E3,5E-1,2.8585E1,1.4756E0,1.2456E0,4.57845E0,1.56625E2,3.3945E1,2.8625E1,2.05E1,6.035534E-1,6.96085E-1,2.981225E2,2.971683E-1,3.8838955E1,-3.1359082E-1,2.6157105E0,3.5390947E0,1.0049691E1,3.9355373E1,1.9413636E0,3.4683366E0,-3.4373379E0,9.951001E0,7.127025E0,-1.4884399E0,4.854259E0,7.0674644E0,2.311316E1,4.017284E0,-1.201028E1,2.3723646E1,3.613507E0,1.0253746E1,5.8224397E0,-1.6004622E1,7.9881883E0,1.2160105E1,-4.081634E1,1.3930785E1,1.0691188E1,5.8023996E0,-1.8004414E1,4.9509373E0,1.4019279E1],"split_indices":[28,23,28,24,13,8,4,23,8,63,41,22,1,53,40,11,60,38,3,55,60,40,22,15,40,60,60,26,13,40,46,0,0,0,0,0,0,0,0,0,0,0,0,0,0,0,0,0,0,0,0,0,0,0,0,0,0,0,0,0,0,0,0],"split_type":[0,0,0,0,0,0,0,0,0,0,0,0,0,0,0,0,0,0,0,0,0,0,0,0,0,0,0,0,0,0,0,0,0,0,0,0,0,0,0,0,0,0,0,0,0,0,0,0,0,0,0,0,0,0,0,0,0,0,0,0,0,0,0],"sum_hessian":[2.9388E4,2.0965E4,8.423E3,1.1955E4,9.01E3,4.981E3,3.442E3,7.624E3,4.331E3,2.484E3,6.526E3,1.83E2,4.798E3,2.8E3,6.42E2,2.655E3,4.969E3,4.322E3,9E0,1.74E2,2.31E3,5.232E3,1.294E3,1.65E2,1.8E1,4.666E3,1.32E2,2.2E1,2.778E3,2.36E2,4.06E2,2.653E3,2E0,6.26E2,4.343E3,4.219E3,1.03E2,5E0,4E0,1.33E2,4.1E1,1.011E3,1.299E3,2.82E2,4.95E3,1.255E3,3.9E1,1.34E2,3.1E1,1.5E1,3E0,4.258E3,4.08E2,3.1E1,1.01E2,1.5E1,7E0,2.415E3,3.63E2,2.21E2,1.5E1,6.4E1,3.42E2],"tree_param":{"num_deleted":"0","num_feature":"65","num_nodes":"63","size_leaf_vector":"0"}},{"base_weights":[5.3174343E1,3.3752274E1,9.58903E1,2.1411118E1,5.389515E1,8.2296524E1,1.11004776E2,4.819944E0,2.747704E1,7.63388E1,4.7937862E1,-2.8231087E-1,8.607131E1,1.9410347E1,1.1365256E2,-6.8331013E0,9.93079E0,2.1980846E1,4.0944893E1,3.375591E1,8.474112E1,2.9382053E1,5.3320297E1,-2.0614359E1,2.1999724E2,-2.1324772E1,8.7994225E1,-8.270032E1,1.0884987E2,1.1465614E2,-4.6186882E1,-7.9162345E0,1.3130815E2,7.4191414E1,8.774421E0,-1.2856805E1,2.412155E1,5.1671467E1,2.0773611E1,-4.088431E1,4.7147472E1,3.956351E1,9.141021E1,3.6851E1,3.616166E-1,1.0502273E2,5.1233498E1,-5.6889465E1,3.571489E1,3.4058453E2,-7.794144E1,-1.05260956E2,5.002856E1,8.483703E1,1.3678242E2,2.1015688E2,-1.1429358E2,-8.3845345E1,1.3687413E2,5.975965E1,1.17583466E2,-9.414917E1,2.5313354E2],"categories":[],"categories_nodes":[],"categories_segments":[],"categories_sizes":[],"default_left":[1,0,0,1,1,0,0,0,1,1,0,1,0,0,1,0,1,0,0,0,0,1,0,1,0,0,1,0,1,1,1,0,0,0,0,0,0,0,0,0,0,0,0,0,0,0,0,0,0,0,0,0,0,0,0,0,0,0,0,0,0,0,0],"id":18,"left_children":[1,3,5,7,9,11,13,15,17,19,21,23,25,27,29,31,33,35,37,39,41,43,45,47,49,51,53,55,57,59,61,-1,-1,-1,-1,-1,-1,-1,-1,-1,-1,-1,-1,-1,-1,-1,-1,-1,-1,-1,-1,-1,-1,-1,-1,-1,-1,-1,-1,-1,-1,-1,-1],"loss_changes":[2.4314112E7,5.008112E6,1.873112E6,1.257575E6,1.019838E6,1.50468E6,1.049128E6,1.9940488E5,6.76475E5,5.71043E5,6.02881E5,9.540269E5,9.55144E5,1.1323276E6,6.81112E5,1.5380695E5,1.7226608E5,4.85136E5,5.7252E5,2.678077E5,3.99815E5,2.9541975E5,5.00635E5,4.0048494E5,6.732429E5,4.963744E5,6.86936E5,5.606539E5,3.6788556E5,6.65824E5,4.1144675E5,0E0,0E0,0E0,0E0,0E0,0E0,0E0,0E0,0E0,0E0,0E0,0E0,0E0,0E0,0E0,0E0,0E0,0E0,0E0,0E0,0E0,0E0,0E0,0E0,0E0,0E0,0E0,0E0,0E0,0E0,0E0,0E0],"parents":[2147483647,0,0,1,1,2,2,3,3,4,4,5,5,6,6,7,7,8,8,9,9,10,10,11,11,12,12,13,13,14,14,15,15,16,16,17,17,18,18,19,19,20,20,21,21,22,22,23,23,24,24,25,25,26,26,27,27,28,28,29,29,30,30],"right_children":[2,4,6,8,10,12,14,16,18,20,22,24,26,28,30,32,34,36,38,40,42,44,46,48,50,52,54,56,58,60,62,-1,-1,-1,-1,-1,-1,-1,-1,-1,-1,-1,-1,-1,-1,-1,-1,-1,-1,-1,-1,-1,-1,-1,-1,-1,-1,-1,-1,-1,-1,-1,-1],"split_conditions":[2.9095001E1,2.7055E1,5.695E2,1.1177083E2,-7.865661E-1,2.6654999E1,2.980475E2,2.988425E2,1.55E1,6.0614998E1,2.25E1,1.2488E-1,1.8621875E2,7.965E2,1.0665001E1,5.155E2,-5E-1,3.65E1,-6.2262E0,2.4753125E2,1.00335E3,1.1145E2,9.45E1,5.282851E-1,6.25E1,2.355E2,9.6819997E-1,2.065E2,1.01100006E2,-7.865661E-1,9.829629E-1,-7.916235E-1,1.31308155E1,7.4191413E0,8.7744206E-1,-1.2856805E0,2.412155E0,5.1671467E0,2.077361E0,-4.0884314E0,4.7147474E0,3.956351E0,9.141021E0,3.6851003E0,3.616166E-2,1.0502273E1,5.1233497E0,-5.6889467E0,3.571489E0,3.4058453E1,-7.7941437E0,-1.0526095E1,5.0028563E0,8.483703E0,1.3678243E1,2.1015688E1,-1.14293585E1,-8.384535E0,1.3687413E1,5.975965E0,1.1758347E1,-9.414917E0,2.5313354E1],"split_indices":[23,23,36,61,13,60,46,46,26,63,56,52,41,10,44,10,19,10,59,41,3,37,36,31,56,36,22,54,63,32,13,0,0,0,0,0,0,0,0,0,0,0,0,0,0,0,0,0,0,0,0,0,0,0,0,0,0,0,0,0,0,0,0],"split_type":[0,0,0,0,0,0,0,0,0,0,0,0,0,0,0,0,0,0,0,0,0,0,0,0,0,0,0,0,0,0,0,0,0,0,0,0,0,0,0,0,0,0,0,0,0,0,0,0,0,0,0,0,0,0,0,0,0,0,0,0,0,0,0],"sum_hessian":[2.931E4,2.015E4,9.16E3,1.2496E4,7.654E3,4.826E3,4.334E3,3.346E3,9.15E3,1.603E3,6.051E3,2.11E2,4.615E3,1.22E2,4.212E3,1.02E3,2.326E3,6.5E3,2.65E3,2.65E2,1.338E3,1.362E3,4.689E3,1.94E2,1.7E1,8.1E1,4.534E3,5.7E1,6.5E1,4.186E3,2.6E1,1.013E3,7E0,4E1,2.286E3,3.76E2,6.124E3,1.729E3,9.21E2,4E1,2.25E2,1.73E2,1.165E3,1.083E3,2.79E2,1.8E2,4.509E3,1.18E2,7.6E1,1.2E1,5E0,3.7E1,4.4E1,4.261E3,2.73E2,5E0,5.2E1,8E0,5.7E1,2.13E2,3.973E3,2.3E1,3E0],"tree_param":{"num_deleted":"0","num_feature":"65","num_nodes":"63","size_leaf_vector":"0"}},{"base_weights":[4.697078E1,2.3141163E1,7.3104614E1,1.2247558E1,3.5071926E1,5.8405647E1,9.460111E1,-1.2755932E0,1.6880598E1,-3.501299E-1,3.9515373E1,7.2412224E1,4.9149433E1,1.8613474E1,9.686911E1,-1.8375459E0,1.6299683E2,3.3965482E2,1.671582E1,-1.1409399E1,1.04717415E2,3.5155396E1,7.422067E1,7.878514E1,-5.862005E1,3.5347317E1,5.7007988E1,-1.5343062E2,4.735784E1,9.795068E1,-5.005536E1,9.777361E-2,-3.906946E1,2.8971813E0,2.2645724E2,1.4011141E0,1.9383287E1,2.1946738E2,-1.3592703E1,3.1229477E2,5.4430264E1,3.1928017E1,6.7789825E1,5.199484E1,1.4660637E2,5.9431835E1,8.940739E1,-1.0642796E2,6.331855E1,3.2808723E1,7.7808395E1,1.4516794E2,5.5501785E1,1.0407434E2,-1.9517296E2,-3.461324E2,5.826215E1,5.4485195E1,1.01233604E2,-1.1612433E2,1.663709E2],"categories":[],"categories_nodes":[],"categories_segments":[],"categories_sizes":[],"default_left":[1,1,0,0,1,0,0,1,0,1,0,0,0,1,1,0,0,0,0,0,0,0,0,0,0,0,0,0,0,1,1,0,0,0,0,0,0,0,0,0,0,0,0,0,0,0,0,0,0,0,0,0,0,0,0,0,0,0,0,0,0],"id":19,"left_children":[1,3,5,7,9,11,13,15,17,19,21,23,25,27,29,31,33,-1,35,37,39,41,43,45,47,49,51,53,55,57,59,-1,-1,-1,-1,-1,-1,-1,-1,-1,-1,-1,-1,-1,-1,-1,-1,-1,-1,-1,-1,-1,-1,-1,-1,-1,-1,-1,-1,-1,-1],"loss_changes":[1.828314E7,1.9957645E6,4.419096E6,5.0312738E5,1.153727E6,1.07498E6,9.77948E5,1.8954184E5,3.1242712E5,9.516865E5,9.82901E5,2.766992E6,5.4161E5,8.281858E5,8.82088E5,1.4728558E5,7.046384E4,0E0,2.4422375E5,3.7650206E5,7.9720275E5,6.07449E5,1.160389E6,6.43276E5,9.045019E5,1.93735E5,4.158E5,2.7828512E5,6.33742E5,7.76444E5,6.055811E5,0E0,0E0,0E0,0E0,0E0,0E0,0E0,0E0,0E0,0E0,0E0,0E0,0E0,0E0,0E0,0E0,0E0,0E0,0E0,0E0,0E0,0E0,0E0,0E0,0E0,0E0,0E0,0E0,0E0,0E0],"parents":[2147483647,0,0,1,1,2,2,3,3,4,4,5,5,6,6,7,7,8,8,9,9,10,10,11,11,12,12,13,13,14,14,15,15,16,16,18,18,19,19,20,20,21,21,22,22,23,23,24,24,25,25,26,26,27,27,28,28,29,29,30,30],"right_children":[2,4,6,8,10,12,14,16,18,20,22,24,26,28,30,32,34,-1,36,38,40,42,44,46,48,50,52,54,56,58,60,-1,-1,-1,-1,-1,-1,-1,-1,-1,-1,-1,-1,-1,-1,-1,-1,-1,-1,-1,-1,-1,-1,-1,-1,-1,-1,-1,-1,-1,-1],"split_conditions":[2.5855E1,2.5058679E2,1.2341E1,8.408333E1,2.7015E1,1.5097E1,1.2305E1,2.4936E2,1.00145E3,-5.5754004E0,1.11825E1,1.2344999E0,1.07765E1,-5.04305E0,1.3032499E1,8.95E0,7.5E-1,3.396548E1,1.2295E1,1.00255E3,7.94975E1,8.5125E1,5.005243E2,4.1184E-1,1.2395E1,8.6375E1,1.932E1,1.1574E0,3.36565E-1,-7.865661E-1,4.61245E0,9.7773615E-3,-3.9069462E0,2.8971812E-1,2.2645725E1,1.4011142E-1,1.9383287E0,2.1946737E1,-1.3592703E0,3.1229477E1,5.4430265E0,3.1928017E0,6.7789826E0,5.199484E0,1.4660637E1,5.9431834E0,8.940739E0,-1.06427965E1,6.3318553E0,3.2808723E0,7.7808394E0,1.4516794E1,5.5501785E0,1.0407434E1,-1.9517296E1,-3.461324E1,5.8262153E0,5.4485197E0,1.0123361E1,-1.1612433E1,1.663709E1],"split_indices":[28,41,2,41,60,40,33,40,3,58,44,38,2,40,44,48,11,0,33,3,42,42,41,38,33,42,9,62,22,32,38,0,0,0,0,0,0,0,0,0,0,0,0,0,0,0,0,0,0,0,0,0,0,0,0,0,0,0,0,0,0],"split_type":[0,0,0,0,0,0,0,0,0,0,0,0,0,0,0,0,0,0,0,0,0,0,0,0,0,0,0,0,0,0,0,0,0,0,0,0,0,0,0,0,0,0,0,0,0,0,0,0,0,0,0,0,0,0,0,0,0,0,0,0,0],"sum_hessian":[2.936E4,1.5358E4,1.4002E4,8.029E3,7.329E3,8.318E3,5.684E3,2.049E3,5.98E3,8.17E2,6.512E3,3.307E3,5.011E3,1.65E2,5.519E3,2.043E3,6E0,2E0,5.978E3,7.4E2,7.7E1,5.787E3,7.25E2,3.154E3,1.53E2,1.82E3,3.191E3,2.3E1,1.42E2,5.479E3,4E1,1.943E3,1E2,2E0,4E0,8.87E2,5.091E3,6E0,7.34E2,1.4E1,6.3E1,5.268E3,5.19E2,5.56E2,1.69E2,1.12E3,2.034E3,1.1E2,4.3E1,1.719E3,1.01E2,5.2E1,3.139E3,3E0,2E1,3E0,1.39E2,3.86E2,5.093E3,3.1E1,9E0],"tree_param":{"num_deleted":"0","num_feature":"65","num_nodes":"61","size_leaf_vector":"0"}},{"base_weights":[4.3215023E1,2.7088654E1,7.532219E1,3.7041435E1,1.1428737E1,6.002894E1,8.7494354E1,2.6821514E1,5.0241104E1,-4.035822E0,1.625777E1,6.967616E1,2.2263296E1,9.9882324E1,7.514224E1,-2.4248378E0,3.1407822E1,4.913239E1,1.6619658E2,1.4386038E0,-9.866391E1,4.9189787E0,2.1115242E1,3.515939E1,7.472913E1,-2.6040949E1,4.5492733E1,1.03454285E2,6.903404E1,5.4777287E1,8.667319E1,-4.112462E0,3.8295972E2,1.8291552E1,4.1440083E1,4.9454918E1,-2.939291E2,-2.9011696E1,2.234677E2,2.1672452E2,4.2762083E-1,-1.2317801E2,-1.7459245E0,4.2689066E0,2.2951021E2,1.030901E1,2.9099648E1,5.5361637E1,7.5025773E0,9.807772E1,6.689618E1,4.5331554E1,-8.468093E1,3.9508453E1,2.264064E2,7.4677765E1,1.07419174E2,-2.1970495E1,8.935116E1,6.486479E1,-2.524099E1,-8.279588E1,8.848326E1],"categories":[],"categories_nodes":[],"categories_segments":[],"categories_sizes":[],"default_left":[0,1,0,0,1,1,1,0,1,0,0,1,0,1,1,1,1,1,1,0,0,1,0,1,0,0,1,1,1,0,1,0,0,0,0,0,0,0,0,0,0,0,0,0,0,0,0,0,0,0,0,0,0,0,0,0,0,0,0,0,0,0,0],"id":20,"left_children":[1,3,5,7,9,11,13,15,17,19,21,23,25,27,29,31,33,35,37,39,41,43,45,47,49,51,53,55,57,59,61,-1,-1,-1,-1,-1,-1,-1,-1,-1,-1,-1,-1,-1,-1,-1,-1,-1,-1,-1,-1,-1,-1,-1,-1,-1,-1,-1,-1,-1,-1,-1,-1],"loss_changes":[1.5212696E7,3.048503E6,1.8235E6,1.612053E6,5.678492E5,1.58585E6,8.29196E5,9.045335E5,6.62669E5,9.377843E5,3.1901712E5,6.02584E5,9.9759225E5,2.93344E5,6.39149E5,5.966766E5,7.66256E5,5.86579E5,5.542931E5,3.7252478E5,2.3499481E5,2.5291511E5,3.4965725E5,2.4821938E5,5.4686E5,1.2133852E6,6.406381E5,2.70598E5,5.307629E5,8.0397925E5,5.43834E5,0E0,0E0,0E0,0E0,0E0,0E0,0E0,0E0,0E0,0E0,0E0,0E0,0E0,0E0,0E0,0E0,0E0,0E0,0E0,0E0,0E0,0E0,0E0,0E0,0E0,0E0,0E0,0E0,0E0,0E0,0E0,0E0],"parents":[2147483647,0,0,1,1,2,2,3,3,4,4,5,5,6,6,7,7,8,8,9,9,10,10,11,11,12,12,13,13,14,14,15,15,16,16,17,17,18,18,19,19,20,20,21,21,22,22,23,23,24,24,25,25,26,26,27,27,28,28,29,29,30,30],"right_children":[2,4,6,8,10,12,14,16,18,20,22,24,26,28,30,32,34,36,38,40,42,44,46,48,50,52,54,56,58,60,62,-1,-1,-1,-1,-1,-1,-1,-1,-1,-1,-1,-1,-1,-1,-1,-1,-1,-1,-1,-1,-1,-1,-1,-1,-1,-1,-1,-1,-1,-1,-1,-1],"split_conditions":[3.635E2,5E-1,5.215E2,2.4825E1,2.991125E2,1.0225E2,6.123234E-17,2.7015E1,1.2026501E0,2.2825E1,1.9345001E1,6.906E1,1.2465E1,1.2695E1,7.90075E1,8.345E2,-6.035534E-1,3.567009E2,7.865661E-1,1.00169995E3,1.2893515E2,2.9055E0,8.1875E1,3.7940952E-1,1.03455E1,1.20875E0,4.6617002E0,2.5E0,3.08805E-1,1.1975E2,3.002025E2,-4.112462E-1,3.829597E1,1.8291552E0,4.144008E0,4.945492E0,-2.9392912E1,-2.9011695E0,2.234677E1,2.1672453E1,4.2762082E-2,-1.2317801E1,-1.7459245E-1,4.2689067E-1,2.2951021E1,1.030901E0,2.9099648E0,5.536164E0,7.5025773E-1,9.807773E0,6.689618E0,4.5331554E0,-8.468093E0,3.9508455E0,2.264064E1,7.467777E0,1.0741918E1,-2.1970496E0,8.935116E0,6.4864793E0,-2.524099E0,-8.279589E0,8.848327E0],"split_indices":[36,55,36,28,46,63,13,60,22,28,23,63,33,33,42,5,32,53,13,3,53,38,42,32,40,38,38,57,22,37,8,0,0,0,0,0,0,0,0,0,0,0,0,0,0,0,0,0,0,0,0,0,0,0,0,0,0,0,0,0,0,0,0],"split_type":[0,0,0,0,0,0,0,0,0,0,0,0,0,0,0,0,0,0,0,0,0,0,0,0,0,0,0,0,0,0,0,0,0,0,0,0,0,0,0,0,0,0,0,0,0,0,0,0,0,0,0,0,0,0,0,0,0,0,0,0,0,0,0],"sum_hessian":[2.9384E4,1.9561E4,9.823E3,1.1959E4,7.602E3,4.356E3,5.467E3,6.742E3,5.217E3,1.809E3,5.793E3,3.469E3,8.87E2,2.726E3,2.741E3,9.14E2,5.828E3,5.169E3,4.8E1,1.711E3,9.8E1,1.738E3,4.055E3,4.44E2,3.025E3,2.88E2,5.99E2,2.441E3,2.85E2,9.93E2,1.748E3,9.11E2,3E0,2.527E3,3.301E3,5.165E3,4E0,1.1E1,3.7E1,7E0,1.704E3,7.8E1,2E1,1.734E3,4E0,1.724E3,2.331E3,2.56E2,1.88E2,7.57E2,2.268E3,1.3E2,1.58E2,5.81E2,1.8E1,2.98E2,2.143E3,5.2E1,2.33E2,8.82E2,1.11E2,1.8E1,1.73E3],"tree_param":{"num_deleted":"0","num_feature":"65","num_nodes":"63","size_leaf_vector":"0"}},{"base_weights":[3.860989E1,2.5174675E1,7.0798775E1,1.0176936E1,3.448712E1,6.3062668E1,8.744004E1,-7.854404E0,1.2826053E1,2.6780699E1,4.5423866E1,8.205482E1,5.429555E1,4.1019768E1,9.308514E1,-2.3588497E1,-1.6105616E0,1.0925256E1,3.3669647E1,-5.74499E0,2.915815E1,4.71612E1,-6.9199356E1,2.9690329E1,9.102229E1,2.629425E1,6.0575306E1,-8.451541E1,4.4329945E1,9.370206E1,-2.2547989E2,-2.093384E1,-5.8114212E1,-5.085496E0,4.7651226E1,1.2276337E1,-1.2665824E1,1.2142929E1,7.407916E1,2.7998095E1,-3.1645405E1,1.961933E1,3.6801895E1,5.5321075E1,2.7966375E1,1.7879712E2,-8.1341286E1,-1.5256523E2,3.57681E1,9.3598366E1,-1.1523527E2,-8.1324615E1,3.7305275E1,-1.435237E2,6.1491055E1,5.109904E0,-1.1524217E2,3.1491549E1,7.779757E1,1.4301036E1,9.515968E1,6.3942993E1,-3.1382135E2],"categories":[],"categories_nodes":[],"categories_segments":[],"categories_sizes":[],"default_left":[1,0,1,1,0,1,0,1,1,0,1,0,1,0,1,0,1,1,0,0,1,1,0,0,0,0,0,0,0,0,0,0,0,0,0,0,0,0,0,0,0,0,0,0,0,0,0,0,0,0,0,0,0,0,0,0,0,0,0,0,0,0,0],"id":21,"left_children":[1,3,5,7,9,11,13,15,17,19,21,23,25,27,29,31,33,35,37,39,41,43,45,47,49,51,53,55,57,59,61,-1,-1,-1,-1,-1,-1,-1,-1,-1,-1,-1,-1,-1,-1,-1,-1,-1,-1,-1,-1,-1,-1,-1,-1,-1,-1,-1,-1,-1,-1,-1,-1],"loss_changes":[1.265386E7,2.883465E6,1.103828E6,3.7798644E5,1.072383E6,9.75602E5,7.12094E5,9.957859E4,2.7292688E5,5.781955E5,1.05153E6,8.69302E5,7.07048E5,1.2757859E5,4.99678E5,2.5179766E4,1.2469126E5,2.0169144E5,5.0015375E5,4.4660556E5,5.07186E5,8.10723E5,2.524249E5,3.0786125E5,8.5295E5,8.7992925E5,6.23924E5,2.2620047E4,1.2258425E5,2.79996E5,1.4790688E5,0E0,0E0,0E0,0E0,0E0,0E0,0E0,0E0,0E0,0E0,0E0,0E0,0E0,0E0,0E0,0E0,0E0,0E0,0E0,0E0,0E0,0E0,0E0,0E0,0E0,0E0,0E0,0E0,0E0,0E0,0E0,0E0],"parents":[2147483647,0,0,1,1,2,2,3,3,4,4,5,5,6,6,7,7,8,8,9,9,10,10,11,11,12,12,13,13,14,14,15,15,16,16,17,17,18,18,19,19,20,20,21,21,22,22,23,23,24,24,25,25,26,26,27,27,28,28,29,29,30,30],"right_children":[2,4,6,8,10,12,14,16,18,20,22,24,26,28,30,32,34,36,38,40,42,44,46,48,50,52,54,56,58,60,62,-1,-1,-1,-1,-1,-1,-1,-1,-1,-1,-1,-1,-1,-1,-1,-1,-1,-1,-1,-1,-1,-1,-1,-1,-1,-1,-1,-1,-1,-1,-1,-1],"split_conditions":[2.7775002E1,8.44885E0,1.85E1,1.3535E1,3.8369098E2,2.5E0,1.005E2,4.575E0,2.3954E0,1.2285E1,1.005E1,-9.6720004E-1,-7.125E-1,-5.70205E0,1.1666E0,7.65E1,1.4042001E0,9.829629E-1,2.8015E1,-1.1155E-1,8.2175E1,3.3645E1,1.15275E0,-4.3184E0,7.39675E0,1.2325E1,1.4887527E0,1.1461E1,1.2575E1,9.892857E1,1.4927E1,-2.093384E0,-5.8114214E0,-5.0854963E-1,4.765123E0,1.2276337E0,-1.2665824E0,1.2142929E0,7.4079165E0,2.7998095E0,-3.1645405E0,1.961933E0,3.6801896E0,5.532108E0,2.7966375E0,1.7879713E1,-8.134129E0,-1.5256523E1,3.5768101E0,9.359837E0,-1.1523527E1,-8.132462E0,3.7305276E0,-1.435237E1,6.1491055E0,5.109904E-1,-1.1524218E1,3.149155E0,7.779757E0,1.4301037E0,9.515968E0,6.3942995E0,-3.1382135E1],"split_indices":[28,2,26,23,41,26,4,23,51,33,29,15,40,15,62,10,51,13,60,15,42,60,62,15,44,33,16,2,33,53,2,0,0,0,0,0,0,0,0,0,0,0,0,0,0,0,0,0,0,0,0,0,0,0,0,0,0,0,0,0,0,0,0],"split_type":[0,0,0,0,0,0,0,0,0,0,0,0,0,0,0,0,0,0,0,0,0,0,0,0,0,0,0,0,0,0,0,0,0,0,0,0,0,0,0,0,0,0,0,0,0,0,0,0,0,0,0,0,0,0,0,0,0,0,0,0,0,0,0],"sum_hessian":[2.9263E4,2.0647E4,8.616E3,7.91E3,1.2737E4,5.885E3,2.731E3,1.013E3,6.897E3,7.474E3,5.263E3,1.856E3,4.029E3,2.97E2,2.434E3,2.87E2,7.26E2,6.322E3,5.75E2,5.09E2,6.965E3,5.185E3,7.8E1,2.72E2,1.584E3,7.39E2,3.29E3,7E0,2.9E2,2.43E3,4E0,2.68E2,1.9E1,6.79E2,4.7E1,5.98E3,3.42E2,3.76E2,1.99E2,2.21E2,2.88E2,3.1E3,3.865E3,3.637E3,1.548E3,3E0,7.5E1,8E0,2.64E2,1.565E3,1.9E1,6.8E1,6.71E2,1.4E1,3.276E3,2E0,5E0,2.11E2,7.9E1,4.4E1,2.386E3,1E0,3E0],"tree_param":{"num_deleted":"0","num_feature":"65","num_nodes":"63","size_leaf_vector":"0"}},{"base_weights":[3.4217678E1,1.6033876E1,5.3207405E1,9.051246E0,2.5536253E1,4.1503716E1,6.738049E1,1.1750741E0,1.4826448E1,2.2540693E1,4.078252E1,2.1435408E1,4.9900204E1,5.699091E1,7.640268E1,4.8653646E0,-1.7861355E1,1.2723621E1,1.0984208E2,2.9535744E1,1.5007164E1,1.3211574E1,4.738908E1,4.0613167E1,-3.2789627E1,4.6188835E1,1.1381817E2,4.55945E1,7.655541E1,-1.4707028E2,7.734886E1,3.345063E0,9.1316E1,-1.1302142E1,-6.2505165E1,9.111194E0,3.321614E1,6.2742672E1,1.6963615E2,3.1817924E1,-5.979812E1,1.067145E1,3.0004948E1,-1.9930396E2,1.7395826E1,9.266423E1,4.0449368E1,-4.133293E1,4.646303E1,2.0856752E1,-6.1980446E1,3.244156E1,5.6356354E1,1.1859623E2,-2.7418582E2,4.6889694E1,-1.8273628E2,-7.9341515E1,7.96289E1,1.0267775E1,-3.2835202E2,8.148594E1,3.265871E1],"categories":[],"categories_nodes":[],"categories_segments":[],"categories_sizes":[],"default_left":[0,0,0,0,1,0,0,1,1,1,1,1,1,0,0,0,0,0,0,1,1,0,0,0,1,1,1,0,1,0,1,0,0,0,0,0,0,0,0,0,0,0,0,0,0,0,0,0,0,0,0,0,0,0,0,0,0,0,0,0,0,0,0],"id":22,"left_children":[1,3,5,7,9,11,13,15,17,19,21,23,25,27,29,31,33,35,37,39,41,43,45,47,49,51,53,55,57,59,61,-1,-1,-1,-1,-1,-1,-1,-1,-1,-1,-1,-1,-1,-1,-1,-1,-1,-1,-1,-1,-1,-1,-1,-1,-1,-1,-1,-1,-1,-1,-1,-1],"loss_changes":[1.014698E7,9.9597125E5,2.381692E6,3.937137E5,2.895035E5,1.326062E6,6.04936E5,2.5741247E5,9.964105E5,2.7974875E5,1.893555E5,2.419133E6,1.311805E6,6.70978E5,7.46364E5,4.0305634E5,1.7352639E5,3.6147106E5,2.9351325E5,5.6378475E5,1.6627669E5,1.8397845E5,2.60491E5,8.254845E5,9.534096E5,7.31855E5,5.9610575E5,5.746E5,5.3913E5,4.3120925E5,6.37414E5,0E0,0E0,0E0,0E0,0E0,0E0,0E0,0E0,0E0,0E0,0E0,0E0,0E0,0E0,0E0,0E0,0E0,0E0,0E0,0E0,0E0,0E0,0E0,0E0,0E0,0E0,0E0,0E0,0E0,0E0,0E0,0E0],"parents":[2147483647,0,0,1,1,2,2,3,3,4,4,5,5,6,6,7,7,8,8,9,9,10,10,11,11,12,12,13,13,14,14,15,15,16,16,17,17,18,18,19,19,20,20,21,21,22,22,23,23,24,24,25,25,26,26,27,27,28,28,29,29,30,30],"right_children":[2,4,6,8,10,12,14,16,18,20,22,24,26,28,30,32,34,36,38,40,42,44,46,48,50,52,54,56,58,60,62,-1,-1,-1,-1,-1,-1,-1,-1,-1,-1,-1,-1,-1,-1,-1,-1,-1,-1,-1,-1,-1,-1,-1,-1,-1,-1,-1,-1,-1,-1,-1,-1],"split_conditions":[2.7835E1,1.8755001E1,8.15E0,1.2565001E1,1.9343744E2,1.2445E1,1.9597449E2,7.985E2,6.0111804E2,1.2735E1,-9.177784E-1,1.10149994E2,9.7360003E-1,5.915903E2,4.537349E1,1.9731747E2,2.98325E2,1.2752501E1,1.58575E1,2.0849E0,4.6305E-1,2.05075E0,2.0344444E2,2.06E2,1.15E1,1.5E0,3.4004672E2,7.137639E2,3.0046802E2,3.9627E0,1.1205E2,3.345063E-1,9.1316E0,-1.1302142E0,-6.2505164E0,9.111194E-1,3.321614E0,6.274267E0,1.6963615E1,3.1817925E0,-5.979812E0,1.067145E0,3.0004947E0,-1.9930395E1,1.7395827E0,9.266423E0,4.0449367E0,-4.133293E0,4.646303E0,2.0856752E0,-6.198045E0,3.244156E0,5.6356354E0,1.1859623E1,-2.7418583E1,4.6889696E0,-1.8273628E1,-7.9341516E0,7.96289E0,1.0267775E0,-3.28352E1,8.148594E0,3.265871E0],"split_indices":[23,9,18,33,53,33,53,30,61,33,31,63,49,41,39,16,46,44,44,15,51,40,61,36,47,0,53,61,8,25,63,0,0,0,0,0,0,0,0,0,0,0,0,0,0,0,0,0,0,0,0,0,0,0,0,0,0,0,0,0,0,0,0],"split_type":[0,0,0,0,0,0,0,0,0,0,0,0,0,0,0,0,0,0,0,0,0,0,0,0,0,0,0,0,0,0,0,0,0,0,0,0,0,0,0,0,0,0,0,0,0,0,0,0,0,0,0,0,0,0,0,0,0,0,0,0,0,0,0],"sum_hessian":[2.9387E4,1.5013E4,1.4374E4,8.655E3,6.358E3,7.875E3,6.499E3,3.662E3,4.993E3,5.316E3,1.042E3,2.324E3,5.551E3,3.024E3,3.475E3,3.068E3,5.94E2,4.886E3,1.07E2,2.755E3,2.561E3,2.02E2,8.4E2,1.717E3,6.07E2,5.248E3,3.03E2,1.913E3,1.111E3,1.4E1,3.461E3,3.016E3,5.2E1,5.19E2,7.5E1,4.155E3,7.31E2,6.1E1,4.6E1,2.687E3,6.8E1,1.988E3,5.73E2,3E0,1.99E2,1.1E2,7.3E2,1.14E2,1.603E3,2.14E2,3.93E2,2.233E3,3.015E3,3E2,3E0,1.903E3,1E1,2.1E1,1.09E3,8E0,6E0,3.167E3,2.94E2],"tree_param":{"num_deleted":"0","num_feature":"65","num_nodes":"63","size_leaf_vector":"0"}},{"base_weights":[3.1125834E1,1.4852554E1,4.796071E1,2.0266447E0,1.9342194E1,6.5239365E1,3.963131E1,3.8388078E0,-3.517423E1,2.069446E1,-1.2080409E1,2.467332E1,6.790561E1,2.2601255E1,4.6515205E1,3.3493164E0,2.6118253E2,2.0062384E2,-3.8950745E1,1.3673239E1,2.6819342E1,-6.8107155E1,-6.8366776E0,-1.2775364E1,4.8518696E1,6.414025E1,8.886291E1,3.7464764E1,-2.7055277E1,2.4023655E1,5.625038E1,5.8323105E1,2.5470722E0,4.4367526E2,1.339418E1,-4.256696E1,1.86184E2,-5.566215E0,1.5639177E1,2.3159006E1,4.698561E1,-7.5177956E1,1.2556889E1,3.9329678E1,-9.371409E0,3.7203022E1,-5.382458E1,5.6765953E1,-1.1265382E2,6.59227E1,1.0798514E1,9.141055E1,-2.8138506E1,1.8722159E0,4.843674E1,-3.32048E1,2.7540637E2,2.8720211E1,-2.2194204E1,5.3421783E1,1.3918909E2],"categories":[],"categories_nodes":[],"categories_segments":[],"categories_sizes":[],"default_left":[1,1,0,0,1,1,0,0,1,1,0,0,0,1,1,1,1,0,0,0,0,0,0,0,1,1,1,0,0,1,1,0,0,0,0,0,0,0,0,0,0,0,0,0,0,0,0,0,0,0,0,0,0,0,0,0,0,0,0,0,0],"id":23,"left_children":[1,3,5,7,9,11,13,15,17,19,21,23,25,27,29,31,33,-1,35,37,39,41,43,45,47,49,51,53,55,57,59,-1,-1,-1,-1,-1,-1,-1,-1,-1,-1,-1,-1,-1,-1,-1,-1,-1,-1,-1,-1,-1,-1,-1,-1,-1,-1,-1,-1,-1,-1],"loss_changes":[8.04408E6,8.598585E5,2.074626E6,2.6122966E5,4.70251E5,5.05916E5,1.140917E6,4.6444947E5,1.6810362E5,4.556925E5,1.3379603E5,2.6047645E5,3.41748E5,2.0720389E6,1.517349E6,1.6250114E5,3.1059434E5,0E0,1.5284134E5,1.8704906E5,4.1692775E5,2.3188031E4,4.939967E4,2.3588183E5,2.4299806E5,3.54503E5,2.01688E5,8.43434E5,1.2125614E6,4.5582212E5,1.12803E6,0E0,0E0,0E0,0E0,0E0,0E0,0E0,0E0,0E0,0E0,0E0,0E0,0E0,0E0,0E0,0E0,0E0,0E0,0E0,0E0,0E0,0E0,0E0,0E0,0E0,0E0,0E0,0E0,0E0,0E0],"parents":[2147483647,0,0,1,1,2,2,3,3,4,4,5,5,6,6,7,7,8,8,9,9,10,10,11,11,12,12,13,13,14,14,15,15,16,16,18,18,19,19,20,20,21,21,22,22,23,23,24,24,25,25,26,26,27,27,28,28,29,29,30,30],"right_children":[2,4,6,8,10,12,14,16,18,20,22,24,26,28,30,32,34,-1,36,38,40,42,44,46,48,50,52,54,56,58,60,-1,-1,-1,-1,-1,-1,-1,-1,-1,-1,-1,-1,-1,-1,-1,-1,-1,-1,-1,-1,-1,-1,-1,-1,-1,-1,-1,-1,-1,-1],"split_conditions":[2.7835E1,1.9425E1,-1.10975E1,6.7275E-1,4.42315E0,-7.865661E-1,1.2455E1,2.329E-1,3.5E0,1.06962814E2,6.7912506E1,1.6808429E2,1.5167E1,1.12149994E2,-7.865661E-1,1.5E0,-2.0572644E-1,2.0062384E1,3.3527E2,1.2295E1,8.5125E1,4.4160873E1,1.00355E3,4.2262E-3,3.1299365E2,2.05905E0,5.895E2,-7.506E-1,8.26E2,5E-1,1.20735E0,5.8323107E0,2.5470722E-1,4.4367527E1,1.339418E0,-4.256696E0,1.86184E1,-5.566215E-1,1.5639178E0,2.3159006E0,4.698561E0,-7.5177956E0,1.2556889E0,3.932968E0,-9.3714094E-1,3.7203023E0,-5.382458E0,5.676595E0,-1.1265382E1,6.59227E0,1.0798515E0,9.141055E0,-2.8138506E0,1.8722159E-1,4.843674E0,-3.32048E0,2.7540638E1,2.8720212E0,-2.2194204E0,5.3421783E0,1.3918909E1],"split_indices":[23,23,59,49,15,32,33,17,47,53,42,39,2,63,32,47,6,0,9,33,42,16,3,52,39,38,54,27,10,55,49,0,0,0,0,0,0,0,0,0,0,0,0,0,0,0,0,0,0,0,0,0,0,0,0,0,0,0,0,0,0],"split_type":[0,0,0,0,0,0,0,0,0,0,0,0,0,0,0,0,0,0,0,0,0,0,0,0,0,0,0,0,0,0,0,0,0,0,0,0,0,0,0,0,0,0,0,0,0,0,0,0,0,0,0,0,0,0,0,0,0,0,0,0,0],"sum_hessian":[2.9364E4,1.4932E4,1.4432E4,3.872E3,1.106E4,4.692E3,9.74E3,3.693E3,1.79E2,1.0604E4,4.56E2,2.9E2,4.402E3,2.805E3,6.935E3,3.687E3,6E0,2E0,1.77E2,4.942E3,5.662E3,3.8E1,4.18E2,1.13E2,1.77E2,3.735E3,6.67E2,2.159E3,6.46E2,2.096E3,4.839E3,5.2E1,3.635E3,3E0,3E0,1.75E2,2E0,4.58E2,4.484E3,4.794E3,8.68E2,3.5E1,3E0,2.1E1,3.97E2,5.1E1,6.2E1,1.69E2,8E0,3.614E3,1.21E2,6.53E2,1.4E1,5.09E2,1.65E3,6.34E2,1.2E1,1.903E3,1.93E2,4.681E3,1.58E2],"tree_param":{"num_deleted":"0","num_feature":"65","num_nodes":"61","size_leaf_vector":"0"}},{"base_weights":[2.8145357E1,1.6583538E1,4.995494E1,7.185409E0,2.4349218E1,-2.9371334E1,5.1735123E1,4.6198745E0,1.9742363E1,1.9178844E1,4.0257877E1,-3.822526E1,2.4929639E2,5.3648617E1,-2.1671078E-1,2.6626352E1,3.6334555E0,2.5576431E1,-2.6135342E1,3.6429287E1,1.6432964E1,4.1230007E1,-1.27818085E2,-2.1141333E1,-2.054449E2,2.703032E2,6.1627777E1,4.753434E1,6.927171E1,6.0952824E1,-2.3303202E1,2.009423E1,3.5206082E2,-4.677777E0,6.0531116E0,4.169105E1,1.2773682E1,-4.3578903E1,1.1111636E2,4.0206E1,-5.1664337E1,1.98999E1,6.376804E-1,3.2058956E1,6.3222244E1,-6.245809E1,-2.154484E2,1.563136E1,-5.807192E1,-2.2736388E2,-1.1640666E2,4.446729E1,7.833575E1,6.998427E1,-2.1343082E2,7.684273E1,-2.4292484E1,-4.9067627E1,6.3992115E1],"categories":[],"categories_nodes":[],"categories_segments":[],"categories_sizes":[],"default_left":[0,1,0,0,1,1,1,1,0,1,0,0,1,1,0,1,0,0,0,0,1,0,1,1,0,0,0,0,1,0,1,0,0,0,0,0,0,0,0,0,0,0,0,0,0,0,0,0,0,0,0,0,0,0,0,0,0,0,0],"id":24,"left_children":[1,3,5,7,9,11,13,15,17,19,21,23,25,27,29,31,33,35,37,39,41,43,45,47,49,-1,-1,51,53,55,57,-1,-1,-1,-1,-1,-1,-1,-1,-1,-1,-1,-1,-1,-1,-1,-1,-1,-1,-1,-1,-1,-1,-1,-1,-1,-1,-1,-1],"loss_changes":[7.373042E6,1.394747E6,1.432168E6,2.7853897E5,8.60013E5,5.597383E5,9.8506E5,1.5582895E5,3.933163E5,3.736055E5,4.24534E5,6.155754E5,1.0938031E4,9.0963E5,4.999234E5,6.476652E5,1.383069E5,2.68085E5,4.0227262E5,3.6272888E5,3.732945E5,5.12691E5,7.245622E4,2.697991E5,1.2565875E4,0E0,0E0,6.45711E5,5.56008E5,1.3325706E5,5.811622E5,0E0,0E0,0E0,0E0,0E0,0E0,0E0,0E0,0E0,0E0,0E0,0E0,0E0,0E0,0E0,0E0,0E0,0E0,0E0,0E0,0E0,0E0,0E0,0E0,0E0,0E0,0E0,0E0],"parents":[2147483647,0,0,1,1,2,2,3,3,4,4,5,5,6,6,7,7,8,8,9,9,10,10,11,11,12,12,13,13,14,14,15,15,16,16,17,17,18,18,19,19,20,20,21,21,22,22,23,23,24,24,27,27,28,28,29,29,30,30],"right_children":[2,4,6,8,10,12,14,16,18,20,22,24,26,28,30,32,34,36,38,40,42,44,46,48,50,-1,-1,52,54,56,58,-1,-1,-1,-1,-1,-1,-1,-1,-1,-1,-1,-1,-1,-1,-1,-1,-1,-1,-1,-1,-1,-1,-1,-1,-1,-1,-1,-1],"split_conditions":[1.075E1,2.508854E2,2.6035E1,2.065E2,1.65E1,5.175E2,5E-1,1.5E0,2.25505E0,3.5E0,1.52265E0,3.785E2,3.007305E2,1.85E1,1.15415E0,5.8603E-1,2.987375E2,1.7684E1,7.65E2,1.355E2,2.997975E2,7.8168335E1,3.015535E2,1.15E1,1.455E2,2.703032E1,6.162778E0,8.325E2,1.16665E0,2.035E2,2.0358548E2,2.009423E0,3.520608E1,-4.677777E-1,6.0531116E-1,4.169105E0,1.2773682E0,-4.3578906E0,1.1111636E1,4.0206003E0,-5.166434E0,1.9899901E0,6.3768044E-2,3.2058957E0,6.3222246E0,-6.245809E0,-2.154484E1,1.563136E0,-5.807192E0,-2.2736387E1,-1.1640666E1,4.446729E0,7.833575E0,6.998427E0,-2.1343082E1,7.684273E0,-2.4292486E0,-4.9067626E0,6.3992114E0],"split_indices":[48,41,60,36,26,54,55,47,15,26,15,54,8,26,62,22,46,40,5,4,46,37,8,47,4,0,0,5,62,54,39,0,0,0,0,0,0,0,0,0,0,0,0,0,0,0,0,0,0,0,0,0,0,0,0,0,0,0,0],"split_type":[0,0,0,0,0,0,0,0,0,0,0,0,0,0,0,0,0,0,0,0,0,0,0,0,0,0,0,0,0,0,0,0,0,0,0,0,0,0,0,0,0,0,0,0,0,0,0,0,0,0,0,0,0,0,0,0,0,0,0],"sum_hessian":[2.9242E4,1.9112E4,1.013E4,8.648E3,1.0464E4,2.22E2,9.908E3,7.182E3,1.466E3,7.899E3,2.565E3,2.16E2,6E0,9.556E3,3.52E2,3.07E2,6.875E3,1.301E3,1.65E2,1.083E3,6.816E3,2.551E3,1.4E1,1.97E2,1.9E1,5E0,1E0,6.871E3,2.685E3,9.6E1,2.56E2,3.02E2,5E0,1.55E3,5.325E3,5.75E2,7.26E2,1.47E2,1.8E1,1.039E3,4.4E1,5.589E3,1.227E3,1.802E3,7.49E2,9E0,5E0,9.9E1,9.8E1,1.4E1,5E0,6.251E3,6.2E2,2.679E3,6E0,8.1E1,1.5E1,1.98E2,5.8E1],"tree_param":{"num_deleted":"0","num_feature":"65","num_nodes":"59","size_leaf_vector":"0"}},{"base_weights":[2.5275148E1,1.35306015E1,4.2566376E1,6.4070563E0,2.116928E1,3.6621666E1,5.984551E1,2.9357371E0,1.5941528E1,-4.7905884E0,2.2863989E1,-1.3906916E0,3.9862007E1,3.4429947E1,6.6995865E1,1.240265E0,2.4931334E1,5.8587696E1,1.2598202E1,1.3457077E2,-5.8657923E0,1.930562E1,3.6182404E1,-3.6403664E1,3.4338795E1,3.3279293E1,5.786972E1,6.932268E0,4.7917797E1,6.844315E1,-4.798116E1,2.4698015E1,-1.7501466E-1,1.1244259E2,1.3175816E1,3.863313E1,1.1894512E2,6.183851E0,3.9931427E1,-3.3531847E0,-7.1149345E1,1.4704974E1,2.9827484E1,2.721743E1,5.7034286E1,-5.188167E1,7.566863E1,9.961481E0,8.897879E1,-1.5929215E0,3.6191418E1,-1.5295802E2,5.9502975E1,-6.880278E0,5.821447E1,2.569076E1,7.0632034E1,4.185215E1,7.3601295E1,7.165029E1,-2.333992E2],"categories":[],"categories_nodes":[],"categories_segments":[],"categories_sizes":[],"default_left":[1,1,1,1,0,0,0,1,0,0,1,1,1,0,1,0,1,0,1,0,0,0,1,1,0,0,0,1,1,0,0,0,0,0,0,0,0,0,0,0,0,0,0,0,0,0,0,0,0,0,0,0,0,0,0,0,0,0,0,0,0],"id":25,"left_children":[1,3,5,7,9,11,13,15,17,19,21,23,25,27,29,31,33,35,37,-1,39,41,43,45,47,49,51,53,55,57,59,-1,-1,-1,-1,-1,-1,-1,-1,-1,-1,-1,-1,-1,-1,-1,-1,-1,-1,-1,-1,-1,-1,-1,-1,-1,-1,-1,-1,-1,-1],"loss_changes":[5.95163E6,9.4972325E5,1.215548E6,2.9895328E5,3.70675E5,1.08681E6,5.48881E5,2.4699734E5,3.4302238E5,7.825761E4,3.7402875E5,8.6944094E5,9.618E5,2.4741869E5,3.96999E5,2.0421308E5,4.861413E5,2.0617594E5,3.9195488E5,0E0,8.407384E4,3.0172E5,3.0988375E5,6.1279006E5,4.5731347E5,6.049025E5,7.58032E5,1.5694319E5,2.2436719E5,3.17463E5,6.8217794E5,0E0,0E0,0E0,0E0,0E0,0E0,0E0,0E0,0E0,0E0,0E0,0E0,0E0,0E0,0E0,0E0,0E0,0E0,0E0,0E0,0E0,0E0,0E0,0E0,0E0,0E0,0E0,0E0,0E0,0E0],"parents":[2147483647,0,0,1,1,2,2,3,3,4,4,5,5,6,6,7,7,8,8,9,9,10,10,11,11,12,12,13,13,14,14,15,15,16,16,17,17,18,18,20,20,21,21,22,22,23,23,24,24,25,25,26,26,27,27,28,28,29,29,30,30],"right_children":[2,4,6,8,10,12,14,16,18,20,22,24,26,28,30,32,34,36,38,-1,40,42,44,46,48,50,52,54,56,58,60,-1,-1,-1,-1,-1,-1,-1,-1,-1,-1,-1,-1,-1,-1,-1,-1,-1,-1,-1,-1,-1,-1,-1,-1,-1,-1,-1,-1,-1,-1],"split_conditions":[1.045E1,2.5E-1,1.85E1,1.65E1,1.5108334E2,2.3975E0,-9.512E-1,7.4792504E-1,3.89355E0,1.1529E0,1.75E1,5.5E0,1.3062E1,1.2515E1,2.9651904E2,1.5E0,-9.177784E-1,7.25E1,3.035365E2,1.3457077E1,1.3356523E2,1.645123E2,7.278E1,8.33E2,6.006597E2,8.466075E1,6.66275E1,7.1501E-1,7.3165E1,7.645E2,-4.264E-1,2.4698017E0,-1.7501466E-2,1.1244259E1,1.3175815E0,3.863313E0,1.1894512E1,6.183851E-1,3.9931428E0,-3.3531848E-1,-7.1149344E0,1.4704975E0,2.9827485E0,2.721743E0,5.7034287E0,-5.188167E0,7.5668635E0,9.961481E-1,8.89788E0,-1.5929215E-1,3.6191418E0,-1.5295802E1,5.950298E0,-6.880278E-1,5.821447E0,2.569076E0,7.0632033E0,4.185215E0,7.36013E0,7.165029E0,-2.333992E1],"split_indices":[48,24,26,26,61,40,27,22,25,62,26,26,2,33,39,50,31,54,8,0,39,53,63,5,61,39,42,38,63,5,27,0,0,0,0,0,0,0,0,0,0,0,0,0,0,0,0,0,0,0,0,0,0,0,0,0,0,0,0,0,0],"split_type":[0,0,0,0,0,0,0,0,0,0,0,0,0,0,0,0,0,0,0,0,0,0,0,0,0,0,0,0,0,0,0,0,0,0,0,0,0,0,0,0,0,0,0,0,0,0,0,0,0,0,0,0,0,0,0,0,0,0,0,0,0],"sum_hessian":[2.9309E4,1.7455E4,1.1854E4,9.033E3,8.422E3,8.822E3,3.032E3,6.623E3,2.41E3,5.16E2,7.906E3,6.93E2,8.129E3,6.67E2,2.365E3,6.15E3,4.73E2,1.74E2,2.236E3,3E0,5.13E2,6.241E3,1.665E3,3.5E2,3.43E2,5.955E3,2.174E3,2.2E2,4.47E2,2.336E3,2.9E1,3.49E2,5.801E3,5.5E1,4.18E2,1.32E2,4.2E1,1.812E3,4.24E2,4.95E2,1.8E1,4.344E3,1.897E3,1.166E3,4.99E2,3.08E2,4.2E1,2.38E2,1.05E2,4.59E2,5.496E3,1.6E1,2.158E3,1.74E2,4.6E1,2.27E2,2.2E2,3.81E2,1.955E3,1.8E1,1.1E1],"tree_param":{"num_deleted":"0","num_feature":"65","num_nodes":"61","size_leaf_vector":"0"}},{"base_weights":[2.3667646E1,1.3013799E1,3.9465492E1,4.73623E0,1.8132786E1,5.5392447E0,4.1650253E1,2.103151E0,2.6357058E1,8.566941E0,2.1929996E1,6.0517223E1,-1.4321499E1,4.4973328E1,1.9360567E1,2.4794276E0,-1.2300024E2,1.695277E1,1.047499E2,2.2177328E1,2.753294E0,