{"learner":{"attributes":{"best_iteration":"95","best_ntree_limit":"96","best_score":"46.35748655851767","scikit_learn":"{\"n_estimators\": 500, \"objective\": \"reg:squarederror\", \"max_depth\": 5, \"max_leaves\": null, \"max_bin\": null, \"grow_policy\": null, \"learning_rate\": null, \"verbosity\": null, \"booster\": null, \"tree_method\": null, \"gamma\": null, \"min_child_weight\": null, \"max_delta_step\": null, \"subsample\": 0.7, \"sampling_method\": null, \"colsample_bytree\": 0.8, \"colsample_bylevel\": null, \"colsample_bynode\": null, \"reg_alpha\": null, \"reg_lambda\": null, \"scale_pos_weight\": null, \"base_score\": null, \"missing\": NaN, \"num_parallel_tree\": null, \"random_state\": null, \"n_jobs\": null, \"monotone_constraints\": null, \"interaction_constraints\": null, \"importance_type\": null, \"gpu_id\": null, \"validate_parameters\": null, \"predictor\": null, \"enable_categorical\": false, \"feature_types\": null, \"max_cat_to_onehot\": null, \"max_cat_threshold\": null, \"eval_metric\": null, \"early_stopping_rounds\": null, \"callbacks\": null, \"kwargs\": {\"eta\": 0.1}, \"evals_result_\": {\"validation_0\": {\"rmse\": [272.657017581326, 246.51774098168957, 222.92530547858712, 201.92958892195233, 182.95545229782562, 166.48271798297935, 151.3136561411436, 138.1095588912729, 126.0948790068604, 115.52484973156017, 106.07019488928226, 98.52792224736012, 91.3473134431318, 84.9134529676415, 79.3520522348402, 74.44846297828563, 70.54229473419807, 67.05035079183699, 64.02545912324653, 61.55323279132741, 59.3937663845886, 57.3714025345242, 55.9815882966994, 54.5979668366091, 53.41876693355403, 52.46357592522911, 51.57856344820498, 50.976244672571795, 50.46703007381051, 49.93592163187939, 49.52367042054065, 49.174386759146515, 48.862777852087696, 48.58717697767902, 48.33421023650975, 48.1644262421326, 48.03689591223308, 47.91677060137472, 47.79237882049225, 47.64182969857147, 47.583551519001176, 47.47952908793503, 47.37958165218235, 47.37058768130886, 47.2498756362346, 47.15579405526303, 47.07328623046999, 47.02332695953316, 47.01790332540818, 46.9000249322143, 46.99665495217432, 46.97833479098896, 46.95953081808114, 46.92990789862707, 46.866942822137666, 46.84410817273821, 46.83448436592921, 46.845568286539894, 46.79850744829335, 46.78879493089892, 46.780808506328796, 46.801708117323585, 46.75601465113498, 46.75464876699399, 46.74330624941511, 46.740825939337284, 46.69943779534362, 46.72593676533869, 46.69989125801454, 46.66946734023483, 46.637944638743384, 46.61832676779152, 46.596701645845684, 46.624711099900296, 46.585950552383885, 46.606644739063455, 46.59765264815452, 46.59050890905887, 46.56606512306188, 46.56676474047192, 46.56658551931484, 46.57713424660234, 46.591957586208224, 46.59483590409814, 46.600220616409494, 46.59456263840182, 46.585068379945646, 46.4542803337844, 46.4322011752081, 46.41336073685124, 46.41104401325713, 46.383238923062905, 46.38369645371869, 46.415007421110474, 46.364745211122774, 46.35748655851767, 46.396278097053184, 46.39341712577165, 46.37497083438612, 46.39499037683812, 46.40066897258194, 46.41256267016903, 46.419515755558486, 46.44228271798317, 46.423098312804484, 46.422616590883116, 46.42248488685862, 46.42555247162813, 46.50374678650288, 46.43997908636217, 46.43876231835227, 46.42165775432119, 46.42945332863695, 46.43841667303591, 46.440690243258764, 46.4441092762271, 46.42830742440429, 46.434304012976966, 46.43092285887441, 46.421217837822375, 46.46973717507777, 46.47204185398077, 46.51691873262298, 46.464109703455655, 46.49247743582311, 46.48935139468678, 46.49373410394493, 46.44981939761304, 46.43913398474839, 46.44525267258499, 46.44393357060212, 46.36437099866012, 46.36017716195585, 46.37656726459944, 46.408100921751604, 46.41849801589801, 46.40710326245457, 46.40462426125107, 46.40431092619783, 46.39405097230437, 46.37583353852645, 46.36336859711923, 46.36232877567064, 46.36205270733303, 46.359912627253834, 46.3612317505893]}}, \"_estimator_type\": \"regressor\"}"},"feature_names":["season","month_sin","wind_speed_max","air_pressure","act_position","power_24h_max","day_cos","quarter_cos","sonic_temperature","rotor_rpm_min","power_1h_max","power_1h_mean","year","hour_sin","quarter","ws_v","power_1h_std","tilt_x_std","wind_speed_nacelle_min","season_cos","wind_speed_std","quarter_sin","ust","rotor_rpm_max","month_cos","tilt_y","hour","ws_w","rotor_rpm","wind_speed_nacelle","power_12h_max","day_sin","hour_cos","battery_v","sonic_wind_speed","wind_speed","power_1h_min","wind_direction","tke","power_12h_std","hs","power_24h_mean","relative_humidity","wind_speed_min","wind_direction_std","hs_flag","air_temperature","day","wind_speed_nacelle_max","tilt_y_std","ust_flag","lmo","ws_w_corrected","power_24h_std","power_12h_min","season_sin","power_24h_min","month","tilt_x","ws_u","logger_temperature","power_12h_mean","air_density","sonic_wind_direction","wind_speed_cube"],"feature_types":["int","float","float","float","float","float","float","float","float","float","float","float","int","float","int","float","float","float","float","float","float","float","float","float","float","float","int","float","float","float","float","float","float","float","float","float","float","float","float","float","float","float","float","float","float","float","float","int","float","float","float","float","float","float","float","float","float","int","float","float","float","float","float","float","float"],"gradient_booster":{"model":{"gbtree_model_param":{"num_parallel_tree":"1","num_trees":"146","size_leaf_vector":"0"},"tree_info":[0,0,0,0,0,0,0,0,0,0,0,0,0,0,0,0,0,0,0,0,0,0,0,0,0,0,0,0,0,0,0,0,0,0,0,0,0,0,0,0,0,0,0,0,0,0,0,0,0,0,0,0,0,0,0,0,0,0,0,0,0,0,0,0,0,0,0,0,0,0,0,0,0,0,0,0,0,0,0,0,0,0,0,0,0,0,0,0,0,0,0,0,0,0,0,0,0,0,0,0,0,0,0,0,0,0,0,0,0,0,0,0,0,0,0,0,0,0,0,0,0,0,0,0,0,0,0,0,0,0,0,0,0,0,0,0,0,0,0,0,0,0,0,0,0,0],"trees":[{"base_weights":[3.5127853E2,2.0000238E2,6.139043E2,9.879927E1,3.010649E2,4.9931088E2,7.234444E2,4.7469376E1,1.5054984E2,2.5361595E2,3.6225122E2,4.55933E2,5.597963E2,6.457209E2,7.6222534E2,1.8292223E1,7.438818E1,1.3041603E2,1.824557E2,2.2556346E2,2.8071335E2,3.4180524E2,4.0414526E2,4.161922E2,4.756387E2,5.356887E2,6.0406537E2,6.0454333E2,6.70737E2,7.147811E2,7.77935E2,5.176582E0,2.9929111E1,6.021859E1,8.7576584E1,1.1255975E2,1.4521626E2,4.1625E2,1.7998622E2,2.137018E2,2.450164E2,2.747588E2,3.3636417E2,3.225141E2,3.574645E2,3.937921E2,4.3935886E2,1.6235E2,4.18281E2,4.627409E2,5.204254E2,4.9339285E2,5.475077E2,5.838895E2,6.412278E2,1.6675E2,6.049289E2,6.570061E2,7.049164E2,7.1542346E2,2.7933334E2,-2.5E-1,7.782193E2],"categories":[],"categories_nodes":[],"categories_segments":[],"categories_sizes":[],"default_left":[0,0,1,0,1,1,0,0,1,0,1,1,1,0,1,0,0,0,0,1,0,0,1,0,0,1,0,1,1,0,0,0,0,0,0,0,0,0,0,0,0,0,0,0,0,0,0,0,0,0,0,0,0,0,0,0,0,0,0,0,0,0,0],"id":0,"left_children":[1,3,5,7,9,11,13,15,17,19,21,23,25,27,29,31,33,35,37,39,41,43,45,47,49,51,53,55,57,59,61,-1,-1,-1,-1,-1,-1,-1,-1,-1,-1,-1,-1,-1,-1,-1,-1,-1,-1,-1,-1,-1,-1,-1,-1,-1,-1,-1,-1,-1,-1,-1,-1],"loss_changes":[1.1689032E9,1.9094451E8,1.3462938E8,2.4779264E7,2.703008E7,1.3542912E7,1.6073728E7,3.679091E6,2.960736E6,3.93888E6,3.354912E6,2.204672E6,2.015744E6,1.48576E6,2.172544E6,3.4325188E5,4.50138E5,7.37372E5,9.61424E5,5.4572E5,7.9368E5,7.1456E5,3.12592E5,4.75568E5,9.39904E5,4.4368E5,1.99168E5,1.7968E4,6.8576E4,5.8336E4,6.06208E5,0E0,0E0,0E0,0E0,0E0,0E0,0E0,0E0,0E0,0E0,0E0,0E0,0E0,0E0,0E0,0E0,0E0,0E0,0E0,0E0,0E0,0E0,0E0,0E0,0E0,0E0,0E0,0E0,0E0,0E0,0E0,0E0],"parents":[2147483647,0,0,1,1,2,2,3,3,4,4,5,5,6,6,7,7,8,8,9,9,10,10,11,11,12,12,13,13,14,14,15,15,16,16,17,17,18,18,19,19,20,20,21,21,22,22,23,23,24,24,25,25,26,26,27,27,28,28,29,29,30,30],"right_children":[2,4,6,8,10,12,14,16,18,20,22,24,26,28,30,32,34,36,38,40,42,44,46,48,50,52,54,56,58,60,62,-1,-1,-1,-1,-1,-1,-1,-1,-1,-1,-1,-1,-1,-1,-1,-1,-1,-1,-1,-1,-1,-1,-1,-1,-1,-1,-1,-1,-1,-1,-1,-1],"split_conditions":[2.7134998E1,2.2075E1,1.1345E1,1.7494999E1,8.955E0,1.0635E1,2.9634998E1,1.3855E1,7.1274996E0,2.3925E1,9.665E0,9.965E0,2.8595001E1,2.8795E1,1.2455E1,2.25E1,5.25E0,1.9075E1,-8.80475E0,8.145E0,2.022E-1,8.25E0,1.0184999E1,2.401E0,2.8105E1,2.7845001E1,2.9075E1,2.9986798E2,1.2135E1,1.188E1,-7.20895E1,5.176582E-1,2.992911E0,6.021859E0,8.757659E0,1.1255976E1,1.4521626E1,4.1625E1,1.7998623E1,2.137018E1,2.450164E1,2.747588E1,3.3636417E1,3.225141E1,3.5746452E1,3.937921E1,4.3935886E1,1.6235E1,4.1828102E1,4.627409E1,5.204254E1,4.9339287E1,5.475077E1,5.8388954E1,6.412278E1,1.6675001E1,6.049289E1,6.5700615E1,7.049164E1,7.154235E1,2.7933334E1,-2.5E-2,7.782193E1],"split_indices":[28,28,34,28,34,34,28,28,34,28,34,34,28,28,34,10,29,28,59,34,17,29,34,43,28,28,28,8,34,44,40,0,0,0,0,0,0,0,0,0,0,0,0,0,0,0,0,0,0,0,0,0,0,0,0,0,0,0,0,0,0,0,0],"split_type":[0,0,0,0,0,0,0,0,0,0,0,0,0,0,0,0,0,0,0,0,0,0,0,0,0,0,0,0,0,0,0,0,0,0,0,0,0,0,0,0,0,0,0,0,0,0,0,0,0,0,0,0,0,0,0,0,0,0,0,0,0,0,0],"sum_hessian":[2.9424E4,1.8671E4,1.0753E4,9.33E3,9.341E3,5.258E3,5.495E3,4.685E3,4.645E3,5.264E3,4.077E3,3.067E3,2.191E3,1.835E3,3.66E3,2.249E3,2.436E3,2.851E3,1.794E3,2.591E3,2.673E3,2.746E3,1.331E3,1.024E3,2.043E3,1.427E3,7.64E2,7.03E2,1.132E3,9.22E2,2.738E3,1.058E3,1.191E3,1.177E3,1.259E3,1.296E3,1.555E3,1.7E1,1.777E3,1.617E3,9.74E2,2.42E3,2.53E2,1.24E3,1.506E3,1.038E3,2.93E2,9E0,1.015E3,1.595E3,4.48E2,3.21E2,1.106E3,5.06E2,2.58E2,1E0,7.02E2,8.22E2,3.1E2,9.2E2,2E0,1E0,2.737E3],"tree_param":{"num_deleted":"0","num_feature":"65","num_nodes":"63","size_leaf_vector":"0"}},{"base_weights":[3.1527368E2,1.8322206E2,5.55868E2,9.0725655E1,2.7596292E2,4.6216373E2,6.588399E2,4.054976E1,1.3409442E2,2.3104358E2,3.3057996E2,4.1919205E2,5.186051E2,5.9391785E2,6.89057E2,1.81537E1,6.955708E1,1.100754E2,1.6088403E2,2.0673079E2,2.5779156E2,3.0893915E2,3.7210605E2,3.7731055E2,4.385477E2,4.8767148E2,5.4421936E2,5.423736E2,6.0872534E2,6.5920215E2,7.058258E2,6.2535954E0,3.413051E1,6.506764E1,1.1623942E2,9.368089E1,1.27982574E2,1.5773175E2,2.6853055E2,1.8791524E2,2.2164934E2,2.431158E2,2.772263E2,2.8770258E2,3.255693E2,3.5879858E2,4.0298297E2,1.4154439E2,3.7860828E2,4.2813342E2,4.7465854E2,4.9213156E2,2.277948E2,5.25363E2,5.744736E2,5.950977E2,6.3975116E2,6.595357E2,1.2478333E2,-2.375E-1,7.0615497E2],"categories":[],"categories_nodes":[],"categories_segments":[],"categories_sizes":[],"default_left":[0,0,1,0,1,1,0,0,0,0,1,0,1,0,1,0,0,1,0,1,0,0,0,1,1,0,0,0,1,0,0,0,0,0,0,0,0,0,0,0,0,0,0,0,0,0,0,0,0,0,0,0,0,0,0,0,0,0,0,0,0],"id":1,"left_children":[1,3,5,7,9,11,13,15,17,19,21,23,25,27,29,31,33,35,37,39,41,43,45,47,49,51,53,-1,55,57,59,-1,-1,-1,-1,-1,-1,-1,-1,-1,-1,-1,-1,-1,-1,-1,-1,-1,-1,-1,-1,-1,-1,-1,-1,-1,-1,-1,-1,-1,-1],"loss_changes":[9.328179E8,1.626176E8,1.0009216E8,2.0654144E7,2.3149568E7,1.3003392E7,9.311232E6,2.8591455E6,3.258792E6,3.327072E6,3.722336E6,2.34752E6,1.598208E6,8.7648E5,1.22432E6,4.7243894E5,3.94407E5,7.77152E5,7.73732E5,7.24104E5,6.37376E5,8.99808E5,4.5448E5,2.48384E5,5.9184E5,1.133888E6,4.27296E5,0E0,1.35136E5,1.368E5,4.99008E5,0E0,0E0,0E0,0E0,0E0,0E0,0E0,0E0,0E0,0E0,0E0,0E0,0E0,0E0,0E0,0E0,0E0,0E0,0E0,0E0,0E0,0E0,0E0,0E0,0E0,0E0,0E0,0E0,0E0,0E0],"parents":[2147483647,0,0,1,1,2,2,3,3,4,4,5,5,6,6,7,7,8,8,9,9,10,10,11,11,12,12,13,13,14,14,15,15,16,16,17,17,18,18,19,19,20,20,21,21,22,22,23,23,24,24,25,25,26,26,28,28,29,29,30,30],"right_children":[2,4,6,8,10,12,14,16,18,20,22,24,26,28,30,32,34,36,38,40,42,44,46,48,50,52,54,-1,56,58,60,-1,-1,-1,-1,-1,-1,-1,-1,-1,-1,-1,-1,-1,-1,-1,-1,-1,-1,-1,-1,-1,-1,-1,-1,-1,-1,-1,-1,-1,-1],"split_conditions":[2.7244999E1,2.2205E1,1.1495E1,1.7235E1,8.975E0,2.8154999E1,2.9775002E1,1.6904999E1,8.0109005E0,9.345249E0,1.0655001E1,1.103425E1,1.0975E1,3.0025002E1,1.2805E1,1.3265E1,7.9498E0,6.5935E0,1.034875E1,8.075E0,2.4974998E1,2.7875E1,1.12655E1,8.035E0,1.0805E1,-7.79705E0,3.0505001E1,5.4237362E1,1.2175E1,1.256E2,-7.20895E1,6.2535954E-1,3.413051E0,6.5067644E0,1.1623942E1,9.36809E0,1.2798258E1,1.5773175E1,2.6853056E1,1.8791525E1,2.2164934E1,2.431158E1,2.772263E1,2.8770258E1,3.255693E1,3.587986E1,4.0298298E1,1.4154439E1,3.786083E1,4.2813343E1,4.7465855E1,4.9213158E1,2.277948E1,5.2536297E1,5.7447357E1,5.9509773E1,6.3975117E1,6.5953575E1,1.2478333E1,-2.375E-2,7.06155E1],"split_indices":[28,28,34,28,34,28,28,23,2,2,2,2,34,23,34,23,2,34,2,34,28,23,2,34,34,59,23,0,34,37,40,0,0,0,0,0,0,0,0,0,0,0,0,0,0,0,0,0,0,0,0,0,0,0,0,0,0,0,0,0,0],"split_type":[0,0,0,0,0,0,0,0,0,0,0,0,0,0,0,0,0,0,0,0,0,0,0,0,0,0,0,0,0,0,0,0,0,0,0,0,0,0,0,0,0,0,0,0,0,0,0,0,0,0,0,0,0,0,0,0,0,0,0,0,0],"sum_hessian":[2.9363E4,1.8959E4,1.0404E4,9.493E3,9.466E3,5.45E3,4.954E3,4.402E3,5.091E3,5.197E3,4.269E3,3.099E3,2.351E3,1.58E3,3.374E3,2.485E3,1.917E3,2.687E3,2.404E3,2.727E3,2.47E3,2.812E3,1.457E3,9.86E2,2.113E3,1.074E3,1.277E3,3.61E2,1.219E3,1.228E3,2.146E3,1.425E3,1.06E3,1.751E3,1.66E2,1.406E3,1.281E3,2.338E3,6.6E1,1.212E3,1.515E3,1.415E3,1.055E3,1.243E3,1.569E3,1.027E3,4.3E2,6E0,9.8E2,1.65E3,4.63E2,1.055E3,1.9E1,7.98E2,4.79E2,8.61E2,3.58E2,1.227E3,1E0,1E0,2.145E3],"tree_param":{"num_deleted":"0","num_feature":"65","num_nodes":"61","size_leaf_vector":"0"}},{"base_weights":[2.84145E2,1.583653E2,4.911656E2,7.78646E1,2.3775592E2,4.056741E2,5.9384174E2,3.4748993E1,1.15919075E2,1.9686166E2,2.8210645E2,3.667857E2,4.6219757E2,5.4150977E2,6.240847E2,1.0688773E1,5.5814293E1,9.1256134E1,1.3502072E2,1.7352069E2,2.137516E2,2.5360706E2,3.064373E2,3.4022302E2,3.993893E2,4.336466E2,4.8709863E2,1.8837448E2,5.448932E2,5.975693E2,6.3657263E2,4.890025E0,2.4482214E1,5.4600853E1,2.1220529E2,7.994567E1,1.047945E2,1.2577176E2,1.6452208E2,1.5652457E2,1.8421852E2,2.0226024E2,2.3241985E2,2.4088055E2,2.7043427E2,2.9625717E2,3.4474078E2,3.1314813E2,3.5617056E2,9.47376E1,4.0047867E2,4.3432022E2,3.1326075E1,4.7463992E2,5.2271857E2,2.7821704E2,1.1278157E2,5.208837E2,5.675379E2,5.9797705E2,8.8991264E1,1.6686224E2,6.367144E2],"categories":[],"categories_nodes":[],"categories_segments":[],"categories_sizes":[],"default_left":[0,0,0,0,1,1,1,0,0,0,0,0,0,0,0,0,0,1,1,1,0,0,1,1,0,1,1,0,0,1,0,0,0,0,0,0,0,0,0,0,0,0,0,0,0,0,0,0,0,0,0,0,0,0,0,0,0,0,0,0,0,0,0],"id":2,"left_children":[1,3,5,7,9,11,13,15,17,19,21,23,25,27,29,31,33,35,37,39,41,43,45,47,49,51,53,55,57,59,61,-1,-1,-1,-1,-1,-1,-1,-1,-1,-1,-1,-1,-1,-1,-1,-1,-1,-1,-1,-1,-1,-1,-1,-1,-1,-1,-1,-1,-1,-1,-1,-1],"loss_changes":[7.594015E8,1.1594618E8,9.651814E7,1.4780688E7,1.6512416E7,1.3058752E7,7.584768E6,2.141291E6,2.24238E6,1.837872E6,2.959456E6,2.95584E6,1.52992E6,2.097024E6,6.68032E5,1.5777005E5,4.15967E5,3.1196E5,7.14664E5,3.35172E5,5.43992E5,3.6808E5,8.17344E5,7.408E5,4.92048E5,2.98048E5,3.288E5,9.766E4,6.95552E5,1.60416E5,3.6032E4,0E0,0E0,0E0,0E0,0E0,0E0,0E0,0E0,0E0,0E0,0E0,0E0,0E0,0E0,0E0,0E0,0E0,0E0,0E0,0E0,0E0,0E0,0E0,0E0,0E0,0E0,0E0,0E0,0E0,0E0,0E0,0E0],"parents":[2147483647,0,0,1,1,2,2,3,3,4,4,5,5,6,6,7,7,8,8,9,9,10,10,11,11,12,12,13,13,14,14,15,15,16,16,17,17,18,18,19,19,20,20,21,21,22,22,23,23,24,24,25,25,26,26,27,27,28,28,29,29,30,30],"right_children":[2,4,6,8,10,12,14,16,18,20,22,24,26,28,30,32,34,36,38,40,42,44,46,48,50,52,54,56,58,60,62,-1,-1,-1,-1,-1,-1,-1,-1,-1,-1,-1,-1,-1,-1,-1,-1,-1,-1,-1,-1,-1,-1,-1,-1,-1,-1,-1,-1,-1,-1,-1,-1],"split_conditions":[2.7005001E1,2.1875E1,2.8895E1,1.7085E1,8.785E0,1.0705E1,1.2225E1,1.5565001E1,7.7626E0,9.039E0,1.0191E1,2.9045E1,2.9685001E1,3.48965E0,1.105E1,1.3175E1,1.6507E0,6.4535E0,7.4814997E0,7.8335E0,2.4564999E1,2.5805E1,1.1085E1,9.905E0,2.2129E0,1.13925E1,1.1605E1,2.44925E0,2.9445E1,2.224125E0,1.17395836E2,4.8900253E-1,2.4482214E0,5.4600854E0,2.122053E1,7.9945674E0,1.047945E1,1.2577176E1,1.6452208E1,1.5652457E1,1.8421852E1,2.0226025E1,2.3241985E1,2.4088057E1,2.7043427E1,2.9625717E1,3.447408E1,3.1314814E1,3.5617058E1,9.473761E0,4.0047867E1,4.3432022E1,3.1326075E0,4.7463993E1,5.227186E1,2.7821705E1,1.1278157E1,5.2088375E1,5.675379E1,5.9797707E1,8.899127E0,1.6686224E1,6.3671444E1],"split_indices":[28,28,28,28,34,34,34,23,2,2,2,23,23,43,29,23,20,34,34,34,28,28,2,34,43,44,34,20,28,20,41,0,0,0,0,0,0,0,0,0,0,0,0,0,0,0,0,0,0,0,0,0,0,0,0,0,0,0,0,0,0,0,0],"split_type":[0,0,0,0,0,0,0,0,0,0,0,0,0,0,0,0,0,0,0,0,0,0,0,0,0,0,0,0,0,0,0,0,0,0,0,0,0,0,0,0,0,0,0,0,0,0,0,0,0,0,0,0,0,0,0,0,0,0,0,0,0,0,0],"sum_hessian":[2.9166E4,1.8144E4,1.1022E4,9.01E3,9.134E3,6.017E3,5.005E3,4.225E3,4.785E3,4.755E3,4.379E3,3.569E3,2.448E3,1.84E3,3.165E3,1.973E3,2.252E3,2.091E3,2.694E3,2.001E3,2.754E3,2.022E3,2.357E3,1.973E3,1.596E3,1.149E3,1.299E3,1.8E1,1.822E3,1.029E3,2.136E3,1.39E3,5.83E2,2.236E3,1.6E1,1.143E3,9.48E2,2.055E3,6.39E2,7.79E2,1.222E3,1.712E3,1.042E3,1.16E3,8.62E2,1.869E3,4.88E2,7.39E2,1.234E3,6E0,1.59E3,1.147E3,2E0,9.73E2,3.26E2,7E0,1.1E1,8.96E2,9.26E2,1.028E3,1E0,1E0,2.135E3],"tree_param":{"num_deleted":"0","num_feature":"65","num_nodes":"63","size_leaf_vector":"0"}},{"base_weights":[2.5560843E2,1.3692813E2,4.3193274E2,6.544681E1,2.0482251E2,3.486812E2,5.245729E2,2.4866117E1,9.4678566E1,1.6622394E2,2.4043733E2,3.0930136E2,3.9238342E2,4.778938E2,5.6036896E2,8.927633E0,4.2632187E1,7.4012924E1,1.1378017E2,1.5419203E2,1.8979172E2,2.1952248E2,2.7148007E2,2.8089108E2,3.2981073E2,3.63856E2,4.209547E2,4.4357144E2,4.985711E2,5.75475E2,5.416369E2,8.144702E0,1.1281132E2,3.4228424E1,6.132214E1,6.3496082E1,8.6243904E1,1.1241089E2,3.5584045E2,1.3978508E2,1.6456241E2,1.8586096E2,2.5943E2,2.0610959E2,2.3153023E2,2.6111325E2,3.1285806E2,1.056345E2,2.82226E2,3.3080545E2,5.4330288E1,3.4661816E2,3.7838574E2,4.0951205E2,4.5285455E2,4.1529507E2,4.5943118E2,4.866175E2,5.216007E2,5.756815E2,1.0969556E2,5.4188165E2,9.702652E1],"categories":[],"categories_nodes":[],"categories_segments":[],"categories_sizes":[],"default_left":[0,0,1,0,1,1,0,0,0,0,1,0,0,0,0,0,0,1,0,0,0,0,0,0,0,0,0,0,1,0,0,0,0,0,0,0,0,0,0,0,0,0,0,0,0,0,0,0,0,0,0,0,0,0,0,0,0,0,0,0,0,0,0],"id":3,"left_children":[1,3,5,7,9,11,13,15,17,19,21,23,25,27,29,31,33,35,37,39,41,43,45,47,49,51,53,55,57,59,61,-1,-1,-1,-1,-1,-1,-1,-1,-1,-1,-1,-1,-1,-1,-1,-1,-1,-1,-1,-1,-1,-1,-1,-1,-1,-1,-1,-1,-1,-1,-1,-1],"loss_changes":[6.119908E8,8.483475E7,9.056154E7,1.0102084E7,1.2285408E7,1.0548736E7,9.034368E6,1.00994925E6,1.945968E6,1.191768E6,2.966592E6,1.810368E6,2.239072E6,1.498496E6,5.7824E5,1.5215144E5,2.6287125E5,3.00795E5,8.12154E5,4.03696E5,3.48968E5,4.01632E5,7.21328E5,2.9212E5,5.00208E5,2.38528E5,3.47488E5,2.21776E5,1.60192E5,1.02784E5,1.02048E5,0E0,0E0,0E0,0E0,0E0,0E0,0E0,0E0,0E0,0E0,0E0,0E0,0E0,0E0,0E0,0E0,0E0,0E0,0E0,0E0,0E0,0E0,0E0,0E0,0E0,0E0,0E0,0E0,0E0,0E0,0E0,0E0],"parents":[2147483647,0,0,1,1,2,2,3,3,4,4,5,5,6,6,7,7,8,8,9,9,10,10,11,11,12,12,13,13,14,14,15,15,16,16,17,17,18,18,19,19,20,20,21,21,22,22,23,23,24,24,25,25,26,26,27,27,28,28,29,29,30,30],"right_children":[2,4,6,8,10,12,14,16,18,20,22,24,26,28,30,32,34,36,38,40,42,44,46,48,50,52,54,56,58,60,62,-1,-1,-1,-1,-1,-1,-1,-1,-1,-1,-1,-1,-1,-1,-1,-1,-1,-1,-1,-1,-1,-1,-1,-1,-1,-1,-1,-1,-1,-1,-1,-1],"split_conditions":[2.6775002E1,2.1455E1,1.1295E1,1.6255001E1,8.575E0,1.0395E1,1.065E1,1.5215E1,7.622375E0,2.3705E1,1.0191E1,1.0806749E1,2.9535E1,3.0525002E1,-1.25295E1,7.665E2,6.4237003E0,6.2005E0,8.4E0,8.706301E0,7.5555E-1,2.7384998E1,1.1103001E1,7.2342E0,2.54495E0,2.9165E1,2.8884998E1,2.9775002E1,1.2155E1,-5.4738E0,3.3165E1,8.1447023E-1,1.1281132E1,3.4228425E0,6.132214E0,6.3496084E0,8.624391E0,1.1241089E1,3.5584045E1,1.3978508E1,1.6456242E1,1.8586096E1,2.5942999E1,2.061096E1,2.3153023E1,2.6111326E1,3.1285807E1,1.056345E1,2.82226E1,3.3080547E1,5.4330287E0,3.4661816E1,3.7838573E1,4.0951206E1,4.5285458E1,4.1529507E1,4.594312E1,4.866175E1,5.2160072E1,5.7568153E1,1.0969556E1,5.4188168E1,9.702652E0],"split_indices":[28,28,34,28,34,34,29,23,2,28,2,2,23,23,59,10,2,34,29,2,49,23,2,35,20,23,28,23,34,58,23,0,0,0,0,0,0,0,0,0,0,0,0,0,0,0,0,0,0,0,0,0,0,0,0,0,0,0,0,0,0,0,0],"split_type":[0,0,0,0,0,0,0,0,0,0,0,0,0,0,0,0,0,0,0,0,0,0,0,0,0,0,0,0,0,0,0,0,0,0,0,0,0,0,0,0,0,0,0,0,0,0,0,0,0,0,0,0,0,0,0,0,0,0,0,0,0,0,0],"sum_hessian":[2.9247E4,1.7482E4,1.1765E4,8.517E3,8.965E3,6.199E3,5.566E3,3.567E3,4.95E3,4.305E3,4.66E3,3.265E3,2.934E3,2.422E3,3.144E3,1.881E3,1.686E3,2.38E3,2.57E3,2.855E3,1.45E3,2.789E3,1.871E3,1.375E3,1.89E3,1.475E3,1.459E3,9.19E2,1.503E3,1.724E3,1.42E3,1.868E3,1.3E1,1.165E3,5.21E2,1.283E3,1.097E3,2.557E3,1.3E1,1.201E3,1.654E3,1.376E3,7.4E1,1.326E3,1.463E3,1.502E3,3.69E2,1.1E1,1.364E3,1.883E3,7E0,6.86E2,7.89E2,1.084E3,3.75E2,3.4E2,5.79E2,1.004E3,4.99E2,1.723E3,1E0,1.419E3,1E0],"tree_param":{"num_deleted":"0","num_feature":"65","num_nodes":"63","size_leaf_vector":"0"}},{"base_weights":[2.3008075E2,1.3342723E2,4.0911066E2,6.484394E1,1.9975304E2,3.4114703E2,4.8522232E2,2.9979105E1,9.885927E1,1.6793336E2,2.4251294E2,3.096218E2,3.833471E2,4.4462195E2,5.059374E2,1.1729456E1,4.9529953E1,8.314975E1,1.19969826E2,1.4950615E2,1.8855434E2,2.1939844E2,2.6323584E2,2.8958676E2,3.348939E2,3.5265005E2,3.9790726E2,4.483209E2,2.6250632E2,4.8865317E2,5.1814594E2,3.6691165E0,2.3888294E1,4.0909576E1,6.197347E1,7.476167E1,9.624636E1,4.3207935E2,1.1881918E2,1.4510814E2,1.9454741E2,1.8604662E2,2.643371E2,2.05952E2,2.2998E2,2.5677927E2,3.061995E2,2.5990314E2,2.9946402E2,3.370898E2,9.9067535E1,3.5358472E2,1.7441E0,3.876252E2,4.310183E2,4.2625388E2,4.645312E2,2.0883447E2,3.9435452E2,4.889316E2,5.846167E1,4.5926426E1,5.186322E2],"categories":[],"categories_nodes":[],"categories_segments":[],"categories_sizes":[],"default_left":[1,0,0,0,1,1,1,0,0,1,1,0,0,0,0,0,0,1,0,0,0,0,0,1,0,1,1,0,1,1,0,0,0,0,0,0,0,0,0,0,0,0,0,0,0,0,0,0,0,0,0,0,0,0,0,0,0,0,0,0,0,0,0],"id":4,"left_children":[1,3,5,7,9,11,13,15,17,19,21,23,25,27,29,31,33,35,37,39,41,43,45,47,49,51,53,55,57,59,61,-1,-1,-1,-1,-1,-1,-1,-1,-1,-1,-1,-1,-1,-1,-1,-1,-1,-1,-1,-1,-1,-1,-1,-1,-1,-1,-1,-1,-1,-1,-1,-1],"loss_changes":[5.0463014E8,8.61512E7,5.2726656E7,1.1042876E7,1.3060544E7,7.071872E6,3.82976E6,1.6410385E6,1.553356E6,2.070864E6,1.909024E6,1.47216E6,8.90816E5,9.85056E5,4.1888E5,2.3326075E5,2.35706E5,2.90074E5,6.70146E5,5.50592E5,4.45488E5,2.29656E5,5.2056E5,4.31152E5,6.72944E5,2.45688E5,3.63008E5,3.75424E5,1.65324E5,1.31488E5,4.0096E5,0E0,0E0,0E0,0E0,0E0,0E0,0E0,0E0,0E0,0E0,0E0,0E0,0E0,0E0,0E0,0E0,0E0,0E0,0E0,0E0,0E0,0E0,0E0,0E0,0E0,0E0,0E0,0E0,0E0,0E0,0E0,0E0],"parents":[2147483647,0,0,1,1,2,2,3,3,4,4,5,5,6,6,7,7,8,8,9,9,10,10,11,11,12,12,13,13,14,14,15,15,16,16,17,17,18,18,19,19,20,20,21,21,22,22,23,23,24,24,25,25,26,26,27,27,28,28,29,29,30,30],"right_children":[2,4,6,8,10,12,14,16,18,20,22,24,26,28,30,32,34,36,38,40,42,44,46,48,50,52,54,56,58,60,62,-1,-1,-1,-1,-1,-1,-1,-1,-1,-1,-1,-1,-1,-1,-1,-1,-1,-1,-1,-1,-1,-1,-1,-1,-1,-1,-1,-1,-1,-1,-1,-1],"split_conditions":[2.7275002E1,2.2115002E1,2.9005001E1,1.7494999E1,9.025E0,1.0815001E1,1.2245E1,1.6685001E1,6.55E0,8.415E0,9.505E0,2.9224998E1,2.9615002E1,1.0775E1,1.125E1,1.3245E1,6.7171E0,6.7405E0,-9.8285E0,1.972E-1,1.1040251E1,2.7825E1,2.8904999E1,9.934999E0,1.44375E1,1.3622499E1,1.1705E1,1.2657E1,5.0274E0,1.903E-1,1.4335416E2,3.6691165E-1,2.3888295E0,4.0909576E0,6.197347E0,7.476167E0,9.624637E0,4.3207935E1,1.1881919E1,1.4510814E1,1.945474E1,1.8604662E1,2.643371E1,2.05952E1,2.2998E1,2.5677927E1,3.061995E1,2.5990314E1,2.9946402E1,3.370898E1,9.906754E0,3.535847E1,1.7441E-1,3.8762524E1,4.3101833E1,4.262539E1,4.645312E1,2.0883448E1,3.943545E1,4.889316E1,5.846167E0,4.592643E0,5.186322E1],"split_indices":[28,28,28,28,34,34,34,23,29,34,34,23,23,44,29,23,2,34,59,17,2,23,23,34,44,44,34,2,38,27,41,0,0,0,0,0,0,0,0,0,0,0,0,0,0,0,0,0,0,0,0,0,0,0,0,0,0,0,0,0,0,0,0],"split_type":[0,0,0,0,0,0,0,0,0,0,0,0,0,0,0,0,0,0,0,0,0,0,0,0,0,0,0,0,0,0,0,0,0,0,0,0,0,0,0,0,0,0,0,0,0,0,0,0,0,0,0,0,0,0,0,0,0,0,0,0,0,0,0],"sum_hessian":[2.9165E4,1.8941E4,1.0224E4,9.313E3,9.628E3,5.404E3,4.82E3,4.6E3,4.713E3,5.523E3,4.105E3,3.098E3,2.306E3,1.636E3,3.184E3,2.38E3,2.22E3,2.705E3,2.008E3,2.921E3,2.602E3,1.946E3,2.159E3,1.735E3,1.363E3,7.5E2,1.556E3,1.602E3,3.4E1,1.335E3,1.849E3,1.432E3,9.48E2,1.314E3,9.06E2,1.653E3,1.052E3,6E0,2.002E3,2.665E3,2.56E2,2.522E3,8E1,8.66E2,1.08E3,1.883E3,2.76E2,4.4E2,1.295E3,1.35E3,1.3E1,7.48E2,2E0,1.197E3,3.59E2,6.9E2,9.12E2,2.6E1,8E0,1.334E3,1E0,2E0,1.847E3],"tree_param":{"num_deleted":"0","num_feature":"65","num_nodes":"63","size_leaf_vector":"0"}},{"base_weights":[2.0777844E2,1.1593624E2,3.572217E2,5.6189743E1,1.71175E2,2.8822174E2,4.2340787E2,2.421759E1,8.405265E1,1.3829932E2,2.0399377E2,1.6100534E2,2.9754367E2,3.7899106E2,4.509333E2,8.982835E0,4.0275883E1,6.53828E1,1.0141699E2,7.94951E1,1.4550034E2,1.88974E2,2.2805202E2,1.0047371E2,2.0145128E2,2.7023242E2,3.345014E2,3.4203067E2,3.9733826E2,4.6425784E2,4.2960965E2,8.49525E0,2.618663E2,2.6157875E1,4.679582E1,5.6042667E1,7.556336E1,9.009999E1,1.13610146E2,6.2754555E1,1.0382879E2,1.3173947E2,1.5833513E2,1.03466545E2,1.9121947E2,2.0159427E2,2.3474672E2,6.026127E1,1.3278796E2,2.0793126E2,4.1338318E1,2.5012103E2,2.843228E2,3.364225E2,7.15259E1,3.4250497E2,-3.0570145E0,-2.1937666E1,3.9792847E2,3.2069772E2,4.3147937E2],"categories":[],"categories_nodes":[],"categories_segments":[],"categories_sizes":[],"default_left":[0,0,1,0,1,0,0,0,0,0,0,0,0,0,0,0,0,0,0,0,0,0,0,0,0,0,1,0,0,0,0,0,0,0,0,0,0,0,0,0,0,0,0,0,0,0,0,0,0,0,0,0,0,0,0,0,0,0,0,0,0],"id":5,"left_children":[1,3,5,7,9,11,13,15,17,19,21,23,25,27,29,31,33,35,37,39,41,43,45,47,49,51,53,55,57,-1,59,-1,-1,-1,-1,-1,-1,-1,-1,-1,-1,-1,-1,-1,-1,-1,-1,-1,-1,-1,-1,-1,-1,-1,-1,-1,-1,-1,-1,-1,-1],"loss_changes":[4.040832E8,6.0181664E7,5.105869E7,7.80437E6,1.019584E7,6.46272E6,6.81984E6,9.9827575E5,1.511228E6,1.994328E6,1.669696E6,9.02753E5,5.071488E6,1.351904E6,8.02112E5,2.5621711E5,1.8167625E5,2.10568E5,3.24252E5,2.0490375E5,7.24288E5,5.4164E5,2.74512E5,1.908115E5,2.2485E5,7.63696E5,1.071712E6,1.21344E5,3.7E5,0E0,1.404E5,0E0,0E0,0E0,0E0,0E0,0E0,0E0,0E0,0E0,0E0,0E0,0E0,0E0,0E0,0E0,0E0,0E0,0E0,0E0,0E0,0E0,0E0,0E0,0E0,0E0,0E0,0E0,0E0,0E0,0E0],"parents":[2147483647,0,0,1,1,2,2,3,3,4,4,5,5,6,6,7,7,8,8,9,9,10,10,11,11,12,12,13,13,14,14,15,15,16,16,17,17,18,18,19,19,20,20,21,21,22,22,23,23,24,24,25,25,26,26,27,27,28,28,30,30],"right_children":[2,4,6,8,10,12,14,16,18,20,22,24,26,28,30,32,34,36,38,40,42,44,46,48,50,52,54,56,58,-1,60,-1,-1,-1,-1,-1,-1,-1,-1,-1,-1,-1,-1,-1,-1,-1,-1,-1,-1,-1,-1,-1,-1,-1,-1,-1,-1,-1,-1,-1,-1],"split_conditions":[2.8625E1,2.4835E1,1.086854E3,1.9775002E1,9.711E0,7.7790747E0,6.9325E2,1.6025002E1,2.657655E2,2.71445E2,6.88784E2,3.367E2,2.9465E1,2.9985E1,-1.22095E1,5.465834E2,1.006332E2,2.019285E2,8.2129E0,4.361E-1,2.6465E1,2.97975E2,2.7945E1,1.9395E-1,1.7285E1,8.0895996E2,1.418E1,1.5493E0,2.75E0,4.6425785E1,4.4097E0,8.49525E-1,2.618663E1,2.6157875E0,4.679582E0,5.6042666E0,7.5563364E0,9.009999E0,1.1361014E1,6.2754555E0,1.0382879E1,1.3173947E1,1.5833513E1,1.0346655E1,1.9121946E1,2.0159428E1,2.3474672E1,6.026127E0,1.3278796E1,2.0793127E1,4.133832E0,2.5012104E1,2.8432281E1,3.364225E1,7.1525903E0,3.42505E1,-3.0570146E-1,-2.1937666E0,3.9792847E1,3.2069775E1,4.3147938E1],"split_indices":[23,23,64,23,2,35,11,23,64,64,64,64,23,23,59,11,64,64,2,49,23,46,23,17,44,64,44,20,18,0,43,0,0,0,0,0,0,0,0,0,0,0,0,0,0,0,0,0,0,0,0,0,0,0,0,0,0,0,0,0,0],"split_type":[0,0,0,0,0,0,0,0,0,0,0,0,0,0,0,0,0,0,0,0,0,0,0,0,0,0,0,0,0,0,0,0,0,0,0,0,0,0,0,0,0,0,0,0,0,0,0,0,0,0,0,0,0,0,0,0,0,0,0,0,0],"sum_hessian":[2.9443E4,1.8237E4,1.1206E4,8.762E3,9.475E3,5.489E3,5.717E3,4.081E3,4.681E3,4.736E3,4.739E3,3.76E2,5.113E3,2.193E3,3.524E3,2.095E3,1.986E3,2.258E3,2.423E3,5.18E2,4.218E3,2.923E3,1.816E3,1.52E2,2.24E2,2.945E3,2.168E3,7.34E2,1.459E3,2.156E3,1.368E3,2.092E3,3E0,6.29E2,1.357E3,1.181E3,1.077E3,1.261E3,1.162E3,3.09E2,2.09E2,2.041E3,2.177E3,7.6E1,2.847E3,3.73E2,1.443E3,6.9E1,8.3E1,2.15E2,9E0,1.221E3,1.724E3,2.152E3,1.6E1,7.33E2,1E0,2E0,1.457E3,2.6E1,1.342E3],"tree_param":{"num_deleted":"0","num_feature":"65","num_nodes":"61","size_leaf_vector":"0"}},{"base_weights":[1.870019E2,1.100137E2,3.3423157E2,5.4268173E1,1.6588026E2,2.7984958E2,3.9434045E2,2.6209986E1,8.371307E1,1.3915977E2,2.004011E2,2.5217181E2,3.12286E2,3.649119E2,4.1427417E2,1.1394028E1,4.5382748E1,7.3543236E1,1.0877459E2,1.2584923E2,1.5864471E2,1.8567332E2,2.2176744E2,2.3196594E2,2.6668176E2,2.873199E2,3.2461588E2,1.0173015E2,3.6703442E2,4.2442847E2,4.0409323E2,3.480793E0,2.2553865E1,4.445893E1,1.2601923E2,6.537842E1,8.492745E1,1.0694276E2,3.2453433E2,1.160719E2,1.3815016E2,1.556687E2,2.0365564E2,1.8297958E2,2.5436569E2,-8.966893E1,2.2254655E2,2.1139023E2,2.3798419E2,1.6842178E2,2.6954987E2,2.7433017E2,3.062785E2,3.1142615E2,3.3631003E2,1.3912233E2,9.990777E0,3.5186737E2,3.8424628E2,4.246653E2,1.7156696E2,1.9057065E2,4.0440424E2],"categories":[],"categories_nodes":[],"categories_segments":[],"categories_sizes":[],"default_left":[0,0,1,0,1,1,1,0,1,0,1,1,0,0,0,0,0,0,0,1,0,0,0,1,0,1,1,0,0,0,0,0,0,0,0,0,0,0,0,0,0,0,0,0,0,0,0,0,0,0,0,0,0,0,0,0,0,0,0,0,0,0,0],"id":6,"left_children":[1,3,5,7,9,11,13,15,17,19,21,23,25,27,29,31,33,35,37,39,41,43,45,47,49,51,53,55,57,59,61,-1,-1,-1,-1,-1,-1,-1,-1,-1,-1,-1,-1,-1,-1,-1,-1,-1,-1,-1,-1,-1,-1,-1,-1,-1,-1,-1,-1,-1,-1,-1,-1],"loss_changes":[3.346501E8,6.0377504E7,3.302912E7,8.017444E6,8.904752E6,4.702784E6,2.672256E6,1.411843E6,1.19907E6,1.396624E6,1.287728E6,7.82224E5,6.60288E5,1.053072E6,1.24352E5,2.477205E5,1.55824E5,3.07874E5,5.0479E5,3.74844E5,2.64732E5,4.17168E5,4.36816E5,9.9652E4,4.2496E5,1.17432E5,1.46848E5,5.692575E4,3.70176E5,1.1744E4,1.92E4,0E0,0E0,0E0,0E0,0E0,0E0,0E0,0E0,0E0,0E0,0E0,0E0,0E0,0E0,0E0,0E0,0E0,0E0,0E0,0E0,0E0,0E0,0E0,0E0,0E0,0E0,0E0,0E0,0E0,0E0,0E0,0E0],"parents":[2147483647,0,0,1,1,2,2,3,3,4,4,5,5,6,6,7,7,8,8,9,9,10,10,11,11,12,12,13,13,14,14,15,15,16,16,17,17,18,18,19,19,20,20,21,21,22,22,23,23,24,24,25,25,26,26,27,27,28,28,29,29,30,30],"right_children":[2,4,6,8,10,12,14,16,18,20,22,24,26,28,30,32,34,36,38,40,42,44,46,48,50,52,54,56,58,60,62,-1,-1,-1,-1,-1,-1,-1,-1,-1,-1,-1,-1,-1,-1,-1,-1,-1,-1,-1,-1,-1,-1,-1,-1,-1,-1,-1,-1,-1,-1,-1,-1],"split_conditions":[2.7345001E1,2.2355E1,2.9025002E1,1.7855E1,9.075E0,1.0805E1,1.2465E1,1.5035E1,7.3945E0,2.4564999E1,9.705E0,2.9064999E1,2.8314999E1,3.349125E0,-1.29235E1,1.4205E1,1.48E0,1.9994999E1,2.4309999E-1,8.255E0,2.444E-1,1.3972E0,3.55E0,9.885E0,5.8454297E2,5.6535E-1,1.1345E1,8E0,2.9755001E1,1.9429E0,1.8415277E2,3.480793E-1,2.2553866E0,4.4458933E0,1.2601924E1,6.537842E0,8.492745E0,1.0694276E1,3.2453434E1,1.160719E1,1.3815017E1,1.5566871E1,2.0365564E1,1.8297958E1,2.543657E1,-8.966893E0,2.2254656E1,2.1139023E1,2.379842E1,1.6842178E1,2.6954987E1,2.7433018E1,3.0627851E1,3.1142614E1,3.3631004E1,1.3912233E1,9.9907774E-1,3.5186737E1,3.842463E1,4.2466534E1,1.7156696E1,1.9057066E1,4.0440426E1],"split_indices":[28,28,28,28,34,34,34,28,34,28,34,23,28,43,59,23,20,28,17,34,17,20,18,34,64,49,34,18,28,20,41,0,0,0,0,0,0,0,0,0,0,0,0,0,0,0,0,0,0,0,0,0,0,0,0,0,0,0,0,0,0,0,0],"split_type":[0,0,0,0,0,0,0,0,0,0,0,0,0,0,0,0,0,0,0,0,0,0,0,0,0,0,0,0,0,0,0,0,0,0,0,0,0,0,0,0,0,0,0,0,0,0,0,0,0,0,0,0,0,0,0,0,0,0,0,0,0,0,0],"sum_hessian":[2.9526E4,1.9389E4,1.0137E4,9.706E3,9.683E3,5.325E3,4.812E3,4.971E3,4.735E3,5.461E3,4.222E3,2.878E3,2.447E3,1.951E3,2.861E3,2.805E3,2.166E3,3.371E3,1.364E3,3.249E3,2.212E3,2.505E3,1.717E3,1.21E3,1.668E3,8.17E2,1.63E3,1.6E1,1.935E3,1.412E3,1.449E3,1.642E3,1.163E3,2.143E3,2.3E1,1.967E3,1.404E3,1.354E3,1E1,1.816E3,1.433E3,2.079E3,1.33E2,2.414E3,9.1E1,4E0,1.713E3,2.82E2,9.28E2,4.9E1,1.619E3,4.94E2,3.23E2,7.79E2,8.51E2,1.1E1,5E0,1.04E3,8.95E2,1.41E3,2E0,3E0,1.446E3],"tree_param":{"num_deleted":"0","num_feature":"65","num_nodes":"63","size_leaf_vector":"0"}},{"base_weights":[1.6832294E2,8.902304E1,2.84182E2,4.1180702E1,1.3243433E2,2.2580934E2,3.428904E2,1.3187964E1,5.876096E1,1.0648988E2,1.5653404E2,2.0436497E2,2.6113562E2,3.0032556E2,3.630454E2,2.0649517E0,2.2773554E1,4.5853367E1,7.356323E1,9.444147E1,1.1995806E2,1.4218765E2,1.7519896E2,1.8603288E2,2.1834341E2,2.4768648E2,2.8107898E2,3.1749222E2,2.8576276E2,3.4751572E2,3.774716E2,1.9867583E2,1.6644797E0,2.2061888E1,3.2185156E2,3.7900074E1,5.4021885E1,6.941921E1,1.1389174E2,1.05966255E2,8.771584E1,1.13282906E2,1.3123795E2,1.283839E2,1.5169913E2,1.79928E2,1.3030753E2,4.884193E1,1.8694214E2,2.1913165E2,6.2535583E1,2.4919008E2,1.0637307E2,1.19732605E2,2.833087E2,3.0902112E2,3.4325586E2,3.0312521E1,2.8696176E2,7.544327E1,3.4859766E2,3.7793423E2,1.1044222E2],"categories":[],"categories_nodes":[],"categories_segments":[],"categories_sizes":[],"default_left":[0,0,1,0,1,1,0,0,0,1,0,0,0,0,0,0,0,0,0,0,0,0,0,0,1,1,0,0,0,0,1,0,0,0,0,0,0,0,0,0,0,0,0,0,0,0,0,0,0,0,0,0,0,0,0,0,0,0,0,0,0,0,0],"id":7,"left_children":[1,3,5,7,9,11,13,15,17,19,21,23,25,27,29,31,33,35,37,39,41,43,45,47,49,51,53,55,57,59,61,-1,-1,-1,-1,-1,-1,-1,-1,-1,-1,-1,-1,-1,-1,-1,-1,-1,-1,-1,-1,-1,-1,-1,-1,-1,-1,-1,-1,-1,-1,-1,-1],"loss_changes":[2.6923603E8,3.613256E7,4.073088E7,4.073483E6,5.686896E6,4.472256E6,4.982592E6,3.4060594E5,9.68176E5,7.02012E5,1.240848E6,9.13168E5,5.34704E5,3.87504E5,7.7008E5,1.1620028E5,3.5813944E5,1.745965E5,3.87672E5,1.70918E5,1.41142E5,3.32132E5,4.11756E5,1.9258E5,2.44936E5,2.61184E5,2.89864E5,8.3584E4,3.1136E5,5.47712E5,2.14528E5,0E0,0E0,0E0,0E0,0E0,0E0,0E0,0E0,0E0,0E0,0E0,0E0,0E0,0E0,0E0,0E0,0E0,0E0,0E0,0E0,0E0,0E0,0E0,0E0,0E0,0E0,0E0,0E0,0E0,0E0,0E0,0E0],"parents":[2147483647,0,0,1,1,2,2,3,3,4,4,5,5,6,6,7,7,8,8,9,9,10,10,11,11,12,12,13,13,14,14,15,15,16,16,17,17,18,18,19,19,20,20,21,21,22,22,23,23,24,24,25,25,26,26,27,27,28,28,29,29,30,30],"right_children":[2,4,6,8,10,12,14,16,18,20,22,24,26,28,30,32,34,36,38,40,42,44,46,48,50,52,54,56,58,60,62,-1,-1,-1,-1,-1,-1,-1,-1,-1,-1,-1,-1,-1,-1,-1,-1,-1,-1,-1,-1,-1,-1,-1,-1,-1,-1,-1,-1,-1,-1,-1,-1],"split_conditions":[2.6744999E1,2.1224998E1,1.22045E1,1.8145E1,9.4876E0,2.7945E1,2.9395E1,1.3325E1,7.6338997E0,4.2786E2,1.0191E1,1.0899E1,2.8485E1,-1.11045E1,7.6675E2,-4.91965E0,5.9007998E0,1.8049649E2,9.29265E0,-7.55945E0,2.4285E1,2.5055E1,-6.5811E0,2.9814502E2,1.7968E0,-8.1009E0,2.98015E2,6.754E-1,1.438125E2,3.2350001E0,1.2095E2,1.9867582E1,1.6644798E-1,2.206189E0,3.2185158E1,3.7900074E0,5.402189E0,6.941921E0,1.1389174E1,1.0596625E1,8.7715845E0,1.1328291E1,1.3123795E1,1.2838389E1,1.5169913E1,1.79928E1,1.3030753E1,4.884193E0,1.8694214E1,2.1913166E1,6.2535586E0,2.4919008E1,1.0637307E1,1.1973261E1,2.833087E1,3.0902113E1,3.432559E1,3.0312521E0,2.8696177E1,7.544327E0,3.4859768E1,3.7793423E1,1.1044223E1],"split_indices":[28,28,2,23,2,28,28,23,2,64,2,2,28,59,11,15,43,64,2,59,28,28,59,46,20,59,46,49,41,43,63,0,0,0,0,0,0,0,0,0,0,0,0,0,0,0,0,0,0,0,0,0,0,0,0,0,0,0,0,0,0,0,0],"split_type":[0,0,0,0,0,0,0,0,0,0,0,0,0,0,0,0,0,0,0,0,0,0,0,0,0,0,0,0,0,0,0,0,0,0,0,0,0,0,0,0,0,0,0,0,0,0,0,0,0,0,0,0,0,0,0,0,0,0,0,0,0,0,0],"sum_hessian":[2.9306E4,1.7399E4,1.1907E4,8.278E3,9.121E3,5.973E3,5.934E3,3.194E3,5.084E3,4.395E3,4.726E3,3.721E3,2.252E3,1.912E3,4.022E3,1.479E3,1.715E3,2.718E3,2.366E3,2.324E3,2.071E3,2.677E3,2.049E3,1.616E3,2.105E3,1.353E3,8.99E2,8.68E2,1.044E3,1.949E3,2.073E3,2E0,1.477E3,1.712E3,3E0,1.38E3,1.338E3,2.148E3,2.18E2,8.51E2,1.473E3,1.308E3,7.63E2,1.098E3,1.579E3,1.851E3,1.98E2,1.1E1,1.605E3,2.094E3,1.1E1,1.338E3,1.5E1,1.3E1,8.86E2,6.63E2,2.05E2,5E0,1.039E3,8E0,1.941E3,2.069E3,4E0],"tree_param":{"num_deleted":"0","num_feature":"65","num_nodes":"63","size_leaf_vector":"0"}},{"base_weights":[1.5145699E2,8.549013E1,2.654823E2,3.8970367E1,1.26061035E2,2.1575162E2,3.130391E2,1.4467862E1,5.663334E1,1.0136777E2,1.5103767E2,1.9174316E2,2.4034038E2,2.8336014E2,3.3195615E2,4.393977E0,2.4337008E1,4.645977E1,7.218614E1,9.053996E1,1.141232E2,1.355528E2,1.7059554E2,1.6990274E2,2.0251346E2,2.2480594E2,2.5681982E2,1.9014647E2,2.8653558E2,-1.21701324E2,3.3212714E2,-1.5796095E0,9.419246E0,2.9202313E2,2.4032984E1,4.5725704E1,1.5051212E2,3.512957E2,7.1309654E1,8.779602E1,1.200044E2,1.11874565E2,1.7437129E2,1.3006534E2,1.4886975E2,1.6198845E2,1.9096625E2,1.7214317E2,8.1794754E1,1.8987263E2,2.1187907E2,1.1388205E2,2.2638835E2,2.507638E2,2.8265866E2,9.241399E1,2.2222835E2,-7.4610794E1,2.867449E2,3.2078516E2,3.4298163E2],"categories":[],"categories_nodes":[],"categories_segments":[],"categories_sizes":[],"default_left":[0,0,1,0,1,1,1,0,0,1,0,1,1,0,0,0,0,0,0,0,0,1,1,0,0,0,1,0,0,0,1,0,0,0,0,0,0,0,0,0,0,0,0,0,0,0,0,0,0,0,0,0,0,0,0,0,0,0,0,0,0],"id":8,"left_children":[1,3,5,7,9,11,13,15,17,19,21,23,25,27,29,31,33,35,37,39,41,43,45,47,49,51,53,55,57,-1,59,-1,-1,-1,-1,-1,-1,-1,-1,-1,-1,-1,-1,-1,-1,-1,-1,-1,-1,-1,-1,-1,-1,-1,-1,-1,-1,-1,-1,-1,-1],"loss_changes":[2.2174522E8,3.524888E7,2.5486592E7,3.765726E6,6.138048E6,3.073872E6,3.005632E6,3.624802E5,7.96802E5,6.82996E5,1.478424E6,5.95768E5,6.09648E5,5.83664E5,3.01504E5,5.4228973E4,1.4288962E5,2.268445E5,4.63734E5,2.09372E5,2.92222E5,1.832E5,3.52516E5,1.61804E5,1.71568E5,2.11176E5,1.25968E5,2.1148575E5,1.78848E5,0E0,3.04256E5,0E0,0E0,0E0,0E0,0E0,0E0,0E0,0E0,0E0,0E0,0E0,0E0,0E0,0E0,0E0,0E0,0E0,0E0,0E0,0E0,0E0,0E0,0E0,0E0,0E0,0E0,0E0,0E0,0E0,0E0],"parents":[2147483647,0,0,1,1,2,2,3,3,4,4,5,5,6,6,7,7,8,8,9,9,10,10,11,11,12,12,13,13,14,14,15,15,16,16,17,17,18,18,19,19,20,20,21,21,22,22,23,23,24,24,25,25,26,26,27,27,28,28,30,30],"right_children":[2,4,6,8,10,12,14,16,18,20,22,24,26,28,30,32,34,36,38,40,42,44,46,48,50,52,54,56,58,-1,60,-1,-1,-1,-1,-1,-1,-1,-1,-1,-1,-1,-1,-1,-1,-1,-1,-1,-1,-1,-1,-1,-1,-1,-1,-1,-1,-1,-1,-1,-1],"split_conditions":[2.7145E1,2.1545E1,3.0244999E1,1.6285E1,8.745E0,1.1541E1,1.2184999E1,1.4875E1,6.3500004E0,8.184999E0,2.8134998E1,1.0005E1,1.1055E1,8.5987E0,-7.5151E1,1.05E1,3.79195E0,9.894751E0,-9.80835E0,1.989E-1,1.0745001E1,9.335E0,9.885E0,-7.7529497E0,2.8994999E1,2.982025E2,1.1705E1,2.9802252E2,1.4835E-1,-1.2170133E1,1.3184999E1,-1.5796095E-1,9.419246E-1,2.9202314E1,2.4032984E0,4.5725703E0,1.5051211E1,3.512957E1,7.1309657E0,8.779602E0,1.2000441E1,1.1187457E1,1.743713E1,1.3006534E1,1.4886975E1,1.6198845E1,1.9096624E1,1.7214317E1,8.179476E0,1.8987265E1,2.1187908E1,1.1388206E1,2.2638836E1,2.507638E1,2.8265867E1,9.241399E0,2.2222836E1,-7.4610796E0,2.867449E1,3.2078518E1,3.4298164E1],"split_indices":[28,28,23,28,34,2,34,23,29,34,23,34,34,35,40,10,25,2,59,17,2,34,34,59,23,46,34,46,17,0,34,0,0,0,0,0,0,0,0,0,0,0,0,0,0,0,0,0,0,0,0,0,0,0,0,0,0,0,0,0,0],"split_type":[0,0,0,0,0,0,0,0,0,0,0,0,0,0,0,0,0,0,0,0,0,0,0,0,0,0,0,0,0,0,0,0,0,0,0,0,0,0,0,0,0,0,0,0,0,0,0,0,0,0,0,0,0,0,0,0,0,0,0,0,0],"sum_hessian":[2.9482E4,1.8678E4,1.0804E4,8.702E3,9.976E3,5.284E3,5.52E3,3.646E3,5.056E3,5.019E3,4.957E3,2.678E3,2.606E3,2.155E3,3.365E3,1.805E3,1.841E3,3.059E3,1.997E3,2.719E3,2.3E3,2.771E3,2.186E3,8.9E2,1.788E3,1.349E3,1.257E3,7.3E1,2.082E3,1E0,3.364E3,8.25E2,9.8E2,1E0,1.84E3,3.039E3,2E1,5E0,1.992E3,2.491E3,2.28E2,2.22E3,8E1,1.97E3,8.01E2,1.543E3,6.43E2,8.67E2,2.3E1,7.7E2,1.018E3,2E1,1.329E3,1.027E3,2.3E2,1.9E1,5.4E1,1E0,2.081E3,1.66E3,1.704E3],"tree_param":{"num_deleted":"0","num_feature":"65","num_nodes":"61","size_leaf_vector":"0"}},{"base_weights":[1.365138E2,8.027195E1,2.436275E2,4.193316E1,1.2339523E2,2.0406097E2,2.889188E2,2.1131E1,6.570321E1,1.011903E2,1.4491678E2,1.7751631E2,2.226938E2,2.6609027E2,3.021396E2,7.5627785E0,3.331351E1,5.3691437E1,7.855544E1,8.9935555E1,1.1147149E2,1.3554222E2,1.6917351E2,1.6469998E2,1.8899973E2,6.503164E1,2.2465189E2,2.5145265E2,2.7814474E2,-1.1561626E2,3.0232016E2,7.206402E0,2.3312932E2,3.1376434E1,7.486537E1,4.2878975E1,5.863634E1,7.7113884E1,1.8410178E2,9.1226204E1,2.0509045E1,1.06006256E2,1.2225738E2,1.3658841E2,3.4074646E1,-5.6967243E1,1.6993361E2,1.6557191E2,1.0507209E1,1.706782E2,1.9358376E2,2.0953157E2,3.840218E1,2.0636635E2,2.3649239E2,2.2448688E2,2.586614E2,2.7887994E2,1.714316E2,3.033728E2,2.4552657E2],"categories":[],"categories_nodes":[],"categories_segments":[],"categories_sizes":[],"default_left":[1,0,1,0,1,0,0,0,0,1,1,1,0,1,0,0,0,1,0,0,0,0,0,0,0,0,1,1,0,0,0,0,0,0,0,0,0,0,0,0,0,0,0,0,0,0,0,0,0,0,0,0,0,0,0,0,0,0,0,0,0],"id":9,"left_children":[1,3,5,7,9,11,13,15,17,19,21,23,25,27,29,31,33,35,37,39,41,43,45,47,49,51,53,55,57,-1,59,-1,-1,-1,-1,-1,-1,-1,-1,-1,-1,-1,-1,-1,-1,-1,-1,-1,-1,-1,-1,-1,-1,-1,-1,-1,-1,-1,-1,-1,-1],"loss_changes":[1.7563014E8,3.1605808E7,1.792928E7,5.004116E6,4.285344E6,2.612048E6,1.331488E6,8.9234125E5,7.25064E5,5.02812E5,1.015584E6,2.95008E5,9.56608E5,2.34256E5,2.57824E5,2.0378811E5,2.2664225E5,1.28211E5,3.32708E5,1.8818E5,1.23326E5,3.45548E5,2.27808E5,1.40098E5,6.4552E4,1.4587178E5,6.23888E5,9.5308E4,2.5624E4,0E0,1.02112E5,0E0,0E0,0E0,0E0,0E0,0E0,0E0,0E0,0E0,0E0,0E0,0E0,0E0,0E0,0E0,0E0,0E0,0E0,0E0,0E0,0E0,0E0,0E0,0E0,0E0,0E0,0E0,0E0,0E0,0E0],"parents":[2147483647,0,0,1,1,2,2,3,3,4,4,5,5,6,6,7,7,8,8,9,9,10,10,11,11,12,12,13,13,14,14,15,15,16,16,17,17,18,18,19,19,20,20,21,21,22,22,23,23,24,24,25,25,26,26,27,27,28,28,30,30],"right_children":[2,4,6,8,10,12,14,16,18,20,22,24,26,28,30,32,34,36,38,40,42,44,46,48,50,52,54,56,58,-1,60,-1,-1,-1,-1,-1,-1,-1,-1,-1,-1,-1,-1,-1,-1,-1,-1,-1,-1,-1,-1,-1,-1,-1,-1,-1,-1,-1,-1,-1,-1],"split_conditions":[2.7345001E1,2.2715E1,1.1625E1,1.8415E1,9.9470005E0,2.9365002E1,1.075E1,1.7115002E1,8.2477E0,8.485E0,9.835E0,1.0305E1,3.233875E0,6.5849996E-1,-6.53395E1,5.400834E2,8.6108E0,6.6955004E0,1.1346001E1,1.39425E1,2.7474998E1,1.6195E1,2.35E0,1.5550001E0,1.6295001E-1,5.28E2,6.265E2,6.695E2,1.1698E0,-1.15616255E1,1.2096667E2,7.206402E-1,2.3312933E1,3.1376436E0,7.4865375E0,4.2878976E0,5.863634E0,7.7113886E0,1.8410177E1,9.122621E0,2.0509045E0,1.0600626E1,1.2225738E1,1.3658841E1,3.4074647E0,-5.6967244E0,1.699336E1,1.6557192E1,1.0507209E0,1.7067822E1,1.9358376E1,2.0953157E1,3.840218E0,2.0636635E1,2.3649239E1,2.2448689E1,2.586614E1,2.7887995E1,1.714316E1,3.033728E1,2.4552656E1],"split_indices":[28,28,34,28,2,23,29,23,2,34,34,34,43,49,40,11,2,34,2,44,23,44,9,20,17,10,10,10,62,0,37,0,0,0,0,0,0,0,0,0,0,0,0,0,0,0,0,0,0,0,0,0,0,0,0,0,0,0,0,0,0],"split_type":[0,0,0,0,0,0,0,0,0,0,0,0,0,0,0,0,0,0,0,0,0,0,0,0,0,0,0,0,0,0,0,0,0,0,0,0,0,0,0,0,0,0,0,0,0,0,0,0,0,0,0,0,0,0,0,0,0,0,0,0,0],"sum_hessian":[2.9156E4,1.9119E4,1.0037E4,1.0122E4,8.997E3,5.36E3,4.677E3,5.399E3,4.723E3,4.431E3,4.566E3,2.215E3,3.145E3,1.723E3,2.954E3,2.555E3,2.844E3,2.444E3,2.279E3,2.12E3,2.311E3,3.298E3,1.268E3,1.054E3,1.161E3,3.9E1,3.106E3,7.88E2,9.35E2,1E0,2.953E3,2.552E3,3E0,2.719E3,1.25E2,7.7E2,1.674E3,2.25E3,2.9E1,2.081E3,3.9E1,1.541E3,7.7E2,3.264E3,3.4E1,4E0,1.264E3,1.048E3,6E0,2.4E2,9.21E2,5E0,3.4E1,1.228E3,1.878E3,1.73E2,6.15E2,9.27E2,8E0,2.895E3,5.8E1],"tree_param":{"num_deleted":"0","num_feature":"65","num_nodes":"61","size_leaf_vector":"0"}},{"base_weights":[1.22996155E2,6.322358E1,2.0488155E2,2.7032555E1,9.2837166E1,1.616738E2,2.4822417E2,8.695306E0,3.9274208E1,7.639234E1,1.1452204E2,1.4393892E2,1.839419E2,2.1651941E2,2.6499835E2,-4.6454138E-1,1.491801E1,3.1507317E1,4.8912098E1,6.2541073E1,8.450848E1,1.0840652E2,1.4347885E2,1.3340329E2,1.5790335E2,1.7579109E2,2.0620769E2,1.9084535E2,2.2122917E2,2.4981416E2,2.7420093E2,1.0349021E2,-1.0557761E0,1.4301142E1,2.9109265E2,3.115345E1,2.4753987E2,4.9411903E1,-1.0316111E2,6.370615E1,-2.6662394E1,8.255749E1,1.2753506E2,1.0101622E2,1.15669716E2,1.4025497E2,3.3178134E2,1.3370839E2,-5.028827E1,4.9542255E1,1.5980826E2,1.697655E2,1.8563524E2,2.0739514E2,-6.0866196E1,8.5259674E1,1.937955E2,2.2160085E2,-1.2397995E0,-1.18485306E2,2.5013211E2,-1.0983544E2,2.7439862E2],"categories":[],"categories_nodes":[],"categories_segments":[],"categories_sizes":[],"default_left":[0,0,1,0,1,1,0,0,0,1,0,1,0,0,0,0,0,1,0,0,1,1,0,0,0,0,0,0,0,0,0,0,0,0,0,0,0,0,0,0,0,0,0,0,0,0,0,0,0,0,0,0,0,0,0,0,0,0,0,0,0,0,0],"id":10,"left_children":[1,3,5,7,9,11,13,15,17,19,21,23,25,27,29,31,33,35,37,39,41,43,45,47,49,51,53,55,57,59,61,-1,-1,-1,-1,-1,-1,-1,-1,-1,-1,-1,-1,-1,-1,-1,-1,-1,-1,-1,-1,-1,-1,-1,-1,-1,-1,-1,-1,-1,-1,-1,-1],"loss_changes":[1.4337635E8,1.8148584E7,2.31088E7,1.7108565E6,3.312664E6,2.41928E6,3.223424E6,1.7402494E5,3.406275E5,5.90534E5,6.95444E5,4.86808E5,4.61376E5,2.16552E5,4.94624E5,7.607588E4,3.0555788E5,1.8600475E5,1.59999E5,2.056065E5,2.69762E5,1.66472E5,3.76589E5,1.17356E5,2.97376E5,8.7952E4,2.43814E5,8.9073E4,1.49272E5,2.0904E5,2.19872E5,0E0,0E0,0E0,0E0,0E0,0E0,0E0,0E0,0E0,0E0,0E0,0E0,0E0,0E0,0E0,0E0,0E0,0E0,0E0,0E0,0E0,0E0,0E0,0E0,0E0,0E0,0E0,0E0,0E0,0E0,0E0,0E0],"parents":[2147483647,0,0,1,1,2,2,3,3,4,4,5,5,6,6,7,7,8,8,9,9,10,10,11,11,12,12,13,13,14,14,15,15,16,16,17,17,18,18,19,19,20,20,21,21,22,22,23,23,24,24,25,25,26,26,27,27,28,28,29,29,30,30],"right_children":[2,4,6,8,10,12,14,16,18,20,22,24,26,28,30,32,34,36,38,40,42,44,46,48,50,52,54,56,58,60,62,-1,-1,-1,-1,-1,-1,-1,-1,-1,-1,-1,-1,-1,-1,-1,-1,-1,-1,-1,-1,-1,-1,-1,-1,-1,-1,-1,-1,-1,-1,-1,-1],"split_conditions":[2.6575E1,2.0675E1,1.1125E1,1.8015E1,8.595E0,1.0315001E1,2.9355E1,1.2715E1,2.1160825E2,7.7185E0,2.8255001E1,2.8744999E1,2.9744999E1,2.8235E1,1.095E1,-1.1496501E0,5.9007998E0,7.0597496E0,3.1255001E1,1.76025E1,8.04545E-1,9.889E0,3.2010002E1,2.704E1,2.77675E0,9.55E0,2.2615E0,4.86E2,1.59E1,1.288E1,-7.20895E1,1.0349021E1,-1.0557761E-1,1.4301142E0,2.9109266E1,3.115345E0,2.4753988E1,4.9411902E0,-1.0316112E1,6.370615E0,-2.6662395E0,8.255749E0,1.2753506E1,1.0101623E1,1.1566972E1,1.4025497E1,3.3178135E1,1.3370839E1,-5.028827E0,4.9542255E0,1.5980826E1,1.6976551E1,1.8563524E1,2.0739515E1,-6.08662E0,8.525968E0,1.937955E1,2.2160086E1,-1.2397995E-1,-1.1848531E1,2.5013212E1,-1.0983544E1,2.7439863E1],"split_indices":[28,28,34,23,34,34,28,23,64,34,23,23,23,28,29,27,43,38,23,44,22,2,23,9,43,29,20,10,48,9,40,0,0,0,0,0,0,0,0,0,0,0,0,0,0,0,0,0,0,0,0,0,0,0,0,0,0,0,0,0,0,0,0],"split_type":[0,0,0,0,0,0,0,0,0,0,0,0,0,0,0,0,0,0,0,0,0,0,0,0,0,0,0,0,0,0,0,0,0,0,0,0,0,0,0,0,0,0,0,0,0,0,0,0,0,0,0,0,0,0,0,0,0,0,0,0,0,0,0],"sum_hessian":[2.9295E4,1.6935E4,1.236E4,7.622E3,9.313E3,6.192E3,6.168E3,3.052E3,4.57E3,5.299E3,4.014E3,3.451E3,2.741E3,2.139E3,4.029E3,1.235E3,1.817E3,2.533E3,2.037E3,1.961E3,3.338E3,3.318E3,6.96E2,1.973E3,1.478E3,2.013E3,7.28E2,3.38E2,1.801E3,1.531E3,2.498E3,6E0,1.229E3,1.814E3,3E0,2.53E3,3E0,2.031E3,6E0,1.936E3,2.5E1,3.196E3,1.42E2,1.652E3,1.666E3,6.86E2,1E1,1.97E3,3E0,2.6E1,1.452E3,1.26E3,7.53E2,7.25E2,3E0,1E1,3.28E2,1.798E3,3E0,1E0,1.53E3,1E0,2.497E3],"tree_param":{"num_deleted":"0","num_feature":"65","num_nodes":"63","size_leaf_vector":"0"}},{"base_weights":[1.1078192E2,6.507742E1,1.9805557E2,3.3684917E1,9.965227E1,1.6632127E2,2.3422021E2,1.7985777E1,5.410622E1,8.6111565E1,1.2367143E2,1.5071347E2,1.8841887E2,2.1746219E2,2.4641588E2,5.953528E0,2.808471E1,4.6539734E1,6.732303E1,7.8478584E1,9.937237E1,1.18239685E2,1.4794809E2,1.3995158E2,1.6553146E2,7.651543E1,1.8997507E2,2.1852315E2,-1.3822452E1,2.3981158E2,2.537217E2,-1.4381467E-1,1.0936541E1,1.2317249E2,2.7549713E1,4.031329E1,5.323433E1,6.6645645E1,3.1890622E2,7.922327E1,4.4335995E0,1.0092315E2,3.7080574E0,2.2295755E1,1.1873312E2,1.4912773E2,-1.3532993E2,3.0293566E1,1.406603E2,6.230504E1,1.6699562E2,-4.6300636E1,1.1275595E2,1.831241E2,2.0882442E2,5.5962654E1,2.1948839E2,2.0945547E1,-7.121084E1,2.4001102E2,6.4284615E1,2.5440637E2,1.5235368E2],"categories":[],"categories_nodes":[],"categories_segments":[],"categories_sizes":[],"default_left":[0,0,1,0,1,1,1,0,0,0,1,1,0,0,1,0,0,1,0,0,0,0,1,0,0,0,0,1,0,0,1,0,0,0,0,0,0,0,0,0,0,0,0,0,0,0,0,0,0,0,0,0,0,0,0,0,0,0,0,0,0,0,0],"id":11,"left_children":[1,3,5,7,9,11,13,15,17,19,21,23,25,27,29,31,33,35,37,39,41,43,45,47,49,51,53,55,57,59,61,-1,-1,-1,-1,-1,-1,-1,-1,-1,-1,-1,-1,-1,-1,-1,-1,-1,-1,-1,-1,-1,-1,-1,-1,-1,-1,-1,-1,-1,-1,-1,-1],"loss_changes":[1.165119E8,2.0807936E7,1.148352E7,3.221347E6,2.956808E6,1.817136E6,9.04928E5,6.90512E5,4.33688E5,5.83116E5,4.15948E5,4.77728E5,3.70496E5,4.89864E5,6.9776E4,7.8845805E4,1.5379975E5,1.137755E5,2.49371E5,2.04218E5,3.15474E5,1.24748E5,2.19679E5,1.37652E5,1.88492E5,1.4765008E5,2.4328E5,2.97608E5,2.1444344E4,3.4976E4,4.924E4,0E0,0E0,0E0,0E0,0E0,0E0,0E0,0E0,0E0,0E0,0E0,0E0,0E0,0E0,0E0,0E0,0E0,0E0,0E0,0E0,0E0,0E0,0E0,0E0,0E0,0E0,0E0,0E0,0E0,0E0,0E0,0E0],"parents":[2147483647,0,0,1,1,2,2,3,3,4,4,5,5,6,6,7,7,8,8,9,9,10,10,11,11,12,12,13,13,14,14,15,15,16,16,17,17,18,18,19,19,20,20,21,21,22,22,23,23,24,24,25,25,26,26,27,27,28,28,29,29,30,30],"right_children":[2,4,6,8,10,12,14,16,18,20,22,24,26,28,30,32,34,36,38,40,42,44,46,48,50,52,54,56,58,60,62,-1,-1,-1,-1,-1,-1,-1,-1,-1,-1,-1,-1,-1,-1,-1,-1,-1,-1,-1,-1,-1,-1,-1,-1,-1,-1,-1,-1,-1,-1,-1,-1],"split_conditions":[2.7375E1,2.2705E1,1.2663E1,1.8735E1,9.285E0,2.8345001E1,1.2565001E1,1.4665E1,8.4896E0,2.5105E1,1.0145E1,1.1547E1,2.9806E2,2.44925E0,1.3555E1,1.2605E1,4.31E0,7.0955E0,7.6447E0,-3.8829E0,1.4987499E1,2.9747E2,2.813E-1,3.4055E-1,6.22708E2,1.21E2,2.9105E1,-5E-1,1.2338333E2,1.535E2,3.91E2,-1.4381467E-2,1.093654E0,1.2317249E1,2.7549713E0,4.031329E0,5.323433E0,6.6645646E0,3.1890623E1,7.9223266E0,4.4335994E-1,1.0092315E1,3.7080574E-1,2.2295756E0,1.1873313E1,1.4912773E1,-1.3532992E1,3.0293567E0,1.406603E1,6.230504E0,1.6699562E1,-4.6300635E0,1.1275596E1,1.831241E1,2.0882442E1,5.5962653E0,2.194884E1,2.0945547E0,-7.1210837E0,2.4001102E1,6.4284616E0,2.5440638E1,1.5235369E1],"split_indices":[28,28,2,28,34,28,34,28,2,28,34,2,46,20,34,23,9,34,43,59,44,46,27,49,64,4,28,7,37,4,56,0,0,0,0,0,0,0,0,0,0,0,0,0,0,0,0,0,0,0,0,0,0,0,0,0,0,0,0,0,0,0,0],"split_type":[0,0,0,0,0,0,0,0,0,0,0,0,0,0,0,0,0,0,0,0,0,0,0,0,0,0,0,0,0,0,0,0,0,0,0,0,0,0,0,0,0,0,0,0,0,0,0,0,0,0,0,0,0,0,0,0,0,0,0,0,0,0,0],"sum_hessian":[2.9212E4,1.9173E4,1.0039E4,1.005E4,9.123E3,5.35E3,4.689E3,5.683E3,4.367E3,5.837E3,3.286E3,3.14E3,2.21E3,1.983E3,2.706E3,2.594E3,3.089E3,2.78E3,1.587E3,3.709E3,2.128E3,2.69E3,5.96E2,1.825E3,1.315E3,3.1E1,2.179E3,1.974E3,9E0,1.439E3,1.267E3,1.167E3,1.427E3,1.6E1,3.073E3,1.444E3,1.336E3,1.584E3,3E0,3.672E3,3.7E1,2.094E3,3.4E1,1.4E1,2.676E3,5.94E2,2E0,1.2E1,1.813E3,1.9E1,1.296E3,7E0,2.4E1,1.606E3,5.73E2,1.2E1,1.962E3,6E0,3E0,1.437E3,2E0,1.257E3,1E1],"tree_param":{"num_deleted":"0","num_feature":"65","num_nodes":"63","size_leaf_vector":"0"}},{"base_weights":[9.9217186E1,5.7768642E1,1.7546065E2,2.5947912E1,8.5233986E1,1.4518256E2,2.086286E2,1.0775605E1,3.9302563E1,6.893732E1,1.0271196E2,4.550432E1,1.4867635E2,1.9238066E2,2.2038858E2,3.2220805E0,1.9018713E1,4.3887196E1,2.2402418E1,6.146907E1,8.062497E1,9.411511E1,1.12523155E2,-8.454673E0,7.10406E1,1.3463509E2,1.6427057E2,1.9299922E2,-5.277983E1,1.25396996E2,2.2125423E2,2.805835E0,2.9990228E2,1.1764155E1,2.2955639E1,3.933994E1,6.1863293E1,8.759142E0,2.6425646E1,5.355535E1,6.67953E1,7.986164E1,1.7271928E2,8.8224495E1,9.991169E1,1.1752824E2,1.0367896E2,1.0781907E2,-1.8685282E1,1.0025845E2,6.44621E0,1.4619861E2,1.2424429E2,1.6503477E2,-3.9690666E1,1.8454382E2,2.0791243E2,-7.227808E1,2.2355713E1,1.2822945E1,1.7804665E2,-6.2272305E1,2.214777E2],"categories":[],"categories_nodes":[],"categories_segments":[],"categories_sizes":[],"default_left":[0,0,1,0,0,0,0,0,0,0,1,0,1,1,0,0,0,0,0,0,0,0,0,0,0,0,0,1,1,0,0,0,0,0,0,0,0,0,0,0,0,0,0,0,0,0,0,0,0,0,0,0,0,0,0,0,0,0,0,0,0,0,0],"id":12,"left_children":[1,3,5,7,9,11,13,15,17,19,21,23,25,27,29,31,33,35,37,39,41,43,45,47,49,51,53,55,57,59,61,-1,-1,-1,-1,-1,-1,-1,-1,-1,-1,-1,-1,-1,-1,-1,-1,-1,-1,-1,-1,-1,-1,-1,-1,-1,-1,-1,-1,-1,-1,-1,-1],"loss_changes":[9.247251E7,1.6568212E7,1.0319648E7,1.7796005E6,2.891368E6,1.870672E6,8.96912E5,2.560949E5,3.610085E5,4.54954E5,4.03376E5,2.5413644E5,1.11824E6,3.24408E5,2.06208E5,2.6441888E5,5.5908812E4,2.978855E5,5.4603625E4,1.32104E5,1.30388E5,8.0716E4,8.9052E4,7.3387695E4,2.3526731E5,3.11784E5,3.90444E5,2.22272E5,1.0405898E4,1.636724E5,1.92336E5,0E0,0E0,0E0,0E0,0E0,0E0,0E0,0E0,0E0,0E0,0E0,0E0,0E0,0E0,0E0,0E0,0E0,0E0,0E0,0E0,0E0,0E0,0E0,0E0,0E0,0E0,0E0,0E0,0E0,0E0,0E0,0E0],"parents":[2147483647,0,0,1,1,2,2,3,3,4,4,5,5,6,6,7,7,8,8,9,9,10,10,11,11,12,12,13,13,14,14,15,15,16,16,17,17,18,18,19,19,20,20,21,21,22,22,23,23,24,24,25,25,26,26,27,27,28,28,29,29,30,30],"right_children":[2,4,6,8,10,12,14,16,18,20,22,24,26,28,30,32,34,36,38,40,42,44,46,48,50,52,54,56,58,60,62,-1,-1,-1,-1,-1,-1,-1,-1,-1,-1,-1,-1,-1,-1,-1,-1,-1,-1,-1,-1,-1,-1,-1,-1,-1,-1,-1,-1,-1,-1,-1,-1],"split_conditions":[2.8785E1,2.1705E1,2.8935001E1,1.9765E1,2.5305E1,6.8963003E0,3.0255001E1,1.3665E1,-3.6629E0,9.361E0,1.045225E1,8.0782E-1,1.1782249E1,1.498E1,4.167975E0,5.465834E2,1.065362E2,8.405001E0,9.05945E1,4.0318475E2,1.1751249E1,2.6165E1,-9.058201E0,1.00595E0,4.93E2,-1.00130005E1,1.3771667E2,1.3111E1,2.5E0,3.216E1,1.4335416E2,2.805835E-1,2.9990229E1,1.1764156E0,2.295564E0,3.933994E0,6.1863294E0,8.759142E-1,2.6425645E0,5.355535E0,6.6795306E0,7.986164E0,1.7271929E1,8.82245E0,9.991169E0,1.1752824E1,1.0367896E1,1.0781907E1,-1.8685282E0,1.0025846E1,6.44621E-1,1.4619861E1,1.242443E1,1.6503477E1,-3.9690666E0,1.8454382E1,2.0791243E1,-7.2278085E0,2.2355714E0,1.2822945E0,1.7804665E1,-6.2272305E0,2.2147772E1],"split_indices":[23,28,28,23,28,35,28,28,59,2,2,22,2,44,43,11,64,2,64,64,2,28,59,51,11,59,37,2,0,23,41,0,0,0,0,0,0,0,0,0,0,0,0,0,0,0,0,0,0,0,0,0,0,0,0,0,0,0,0,0,0,0,0],"split_type":[0,0,0,0,0,0,0,0,0,0,0,0,0,0,0,0,0,0,0,0,0,0,0,0,0,0,0,0,0,0,0,0,0,0,0,0,0,0,0,0,0,0,0,0,0,0,0,0,0,0,0,0,0,0,0,0,0,0,0,0,0,0,0],"sum_hessian":[2.9264E4,1.8959E4,1.0305E4,8.784E3,1.0175E4,5.39E3,4.915E3,4.113E3,4.671E3,5.268E3,4.907E3,1.83E2,5.207E3,2.071E3,2.844E3,2.147E3,1.966E3,3.673E3,9.98E2,3.218E3,2.05E3,2.621E3,2.286E3,5.9E1,1.24E2,2.745E3,2.462E3,2.066E3,5E0,2.7E1,2.817E3,2.145E3,2E0,6.93E2,1.273E3,2.934E3,7.39E2,2.28E2,7.7E2,1.299E3,1.919E3,2.035E3,1.5E1,1.308E3,1.313E3,1.452E3,8.34E2,4E0,5.5E1,8.5E1,3.9E1,1.293E3,1.452E3,2.453E3,9E0,1.327E3,7.39E2,4E0,1E0,9E0,1.8E1,2E0,2.815E3],"tree_param":{"num_deleted":"0","num_feature":"65","num_nodes":"63","size_leaf_vector":"0"}},{"base_weights":[8.942008E1,4.7916824E1,1.5272958E2,2.0567978E1,6.953588E1,1.1927326E2,1.8264847E2,5.9582253E0,2.936011E1,5.610356E1,8.477817E1,1.020925E2,1.3095016E2,1.6482315E2,1.9801733E2,5.689665E0,2.0186061E2,2.906877E1,3.0806955E2,4.639231E1,6.2267666E1,8.262576E1,1.3364674E2,1.03153114E2,-8.850787E0,1.2024358E2,1.4325334E2,1.5809944E2,1.818511E2,1.9409715E2,2.1071935E2,6.88212E1,5.1464624E0,2.7094772E2,-2.7003791E0,2.0924208E1,3.4839893E1,3.990637E1,5.1853878E1,6.3270096E1,-1.8982063E1,7.671635E1,9.270215E1,1.4298361E2,-3.4683273E1,9.917058E1,1.3446455E2,-3.4224846E1,2.5020569E1,1.1268354E2,1.251907E2,-4.8720465E0,1.4404343E2,1.6481305E2,1.4303795E2,1.8407182E2,4.4184223E1,1.9499893E2,1.4651111E2,2.110647E2,5.276121E1],"categories":[],"categories_nodes":[],"categories_segments":[],"categories_sizes":[],"default_left":[1,0,1,0,1,1,0,0,0,0,1,0,0,1,1,0,0,0,0,1,0,1,0,0,0,0,0,0,0,1,0,0,0,0,0,0,0,0,0,0,0,0,0,0,0,0,0,0,0,0,0,0,0,0,0,0,0,0,0,0,0],"id":13,"left_children":[1,3,5,7,9,11,13,15,17,19,21,23,25,27,29,31,33,35,-1,37,39,41,43,45,47,49,51,53,55,57,59,-1,-1,-1,-1,-1,-1,-1,-1,-1,-1,-1,-1,-1,-1,-1,-1,-1,-1,-1,-1,-1,-1,-1,-1,-1,-1,-1,-1,-1,-1],"loss_changes":[7.712181E7,1.0482724E7,1.1612544E7,1.005595E6,2.02278E6,1.088024E6,1.647792E6,1.5368753E5,3.879475E5,3.124E5,4.767E5,2.62846E5,4.12856E5,2.97088E5,1.22864E5,1.0046781E5,5.7261766E4,2.2883475E5,0E0,7.0514E4,2.63378E5,2.57508E5,3.0986425E5,2.61624E5,1.9764309E4,5.142E4,1.7789E5,1.83516E5,2.3614E5,7.9832E4,3.054E4,0E0,0E0,0E0,0E0,0E0,0E0,0E0,0E0,0E0,0E0,0E0,0E0,0E0,0E0,0E0,0E0,0E0,0E0,0E0,0E0,0E0,0E0,0E0,0E0,0E0,0E0,0E0,0E0,0E0,0E0],"parents":[2147483647,0,0,1,1,2,2,3,3,4,4,5,5,6,6,7,7,8,8,9,9,10,10,11,11,12,12,13,13,14,14,15,15,16,16,17,17,19,19,20,20,21,21,22,22,23,23,24,24,25,25,26,26,27,27,28,28,29,29,30,30],"right_children":[2,4,6,8,10,12,14,16,18,20,22,24,26,28,30,32,34,36,-1,38,40,42,44,46,48,50,52,54,56,58,60,-1,-1,-1,-1,-1,-1,-1,-1,-1,-1,-1,-1,-1,-1,-1,-1,-1,-1,-1,-1,-1,-1,-1,-1,-1,-1,-1,-1,-1,-1],"split_conditions":[2.6814999E1,2.0875E1,1.1125E1,1.5305E1,8.615E0,1.0145E1,2.9925E1,2.14885E0,7.7862997E0,8.7618E0,1.1509E1,2.1865E0,2.9375E1,1.2933001E1,7.9525E2,2.3397498E0,1.395125E1,7.2263002E0,3.0806955E1,7.5325003E0,1.69325E1,9.305E0,1.4907499E1,7.5425E-1,3.2129997E1,7.2045E-1,2.4775E2,1.2675E1,1.05275E1,1.2095E2,-5.48065E0,6.8821197E0,5.1464623E-1,2.7094772E1,-2.7003792E-1,2.0924208E0,3.4839895E0,3.9906368E0,5.185388E0,6.3270097E0,-1.8982064E0,7.6716347E0,9.270215E0,1.4298362E1,-3.4683273E0,9.917058E0,1.3446456E1,-3.4224846E0,2.5020568E0,1.1268354E1,1.251907E1,-4.8720464E-1,1.4404343E1,1.6481306E1,1.4303795E1,1.8407183E1,4.418422E0,1.9499893E1,1.4651111E1,2.110647E1,5.276121E0],"split_indices":[28,28,34,28,34,34,28,20,43,2,2,20,23,2,11,44,2,2,0,34,44,34,44,49,23,20,11,33,44,37,58,0,0,0,0,0,0,0,0,0,0,0,0,0,0,0,0,0,0,0,0,0,0,0,0,0,0,0,0,0,0],"split_type":[0,0,0,0,0,0,0,0,0,0,0,0,0,0,0,0,0,0,0,0,0,0,0,0,0,0,0,0,0,0,0,0,0,0,0,0,0,0,0,0,0,0,0,0,0,0,0,0,0,0,0,0,0,0,0,0,0,0,0,0,0],"sum_hessian":[2.9353E4,1.7731E4,1.1622E4,7.829E3,9.902E3,5.489E3,6.133E3,2.942E3,4.887E3,5.266E3,4.636E3,2.225E3,3.264E3,2.845E3,3.288E3,2.939E3,3E0,4.883E3,4E0,2.048E3,3.218E3,4.443E3,1.93E2,2.204E3,2.1E1,1.751E3,1.513E3,2.047E3,7.98E2,2.525E3,7.63E2,2.4E1,2.915E3,2E0,1E0,2.027E3,2.856E3,9.4E2,1.108E3,3.179E3,3.9E1,2.806E3,1.637E3,1.83E2,1E1,1.959E3,2.45E2,1.2E1,9E0,7.02E2,1.049E3,8E0,1.505E3,1.409E3,6.38E2,7.85E2,1.3E1,2.475E3,5E1,7.61E2,2E0],"tree_param":{"num_deleted":"0","num_feature":"65","num_nodes":"61","size_leaf_vector":"0"}},{"base_weights":[8.0870995E1,4.881062E1,1.4676556E2,2.6235834E1,7.606784E1,1.2232715E2,1.7103621E2,1.0983976E1,3.949699E1,6.3265724E1,8.9063835E1,1.0871896E2,1.3480411E2,1.8262582E2,1.6038814E2,3.475661E0,1.9024065E1,3.2661026E1,5.0872E1,6.407652E1,8.651534E0,9.818009E1,8.165704E1,4.121755E0,1.0991729E2,-8.8275444E1,1.3519855E2,-1.2370032E2,1.8281328E2,3.1093493E1,1.614648E2,1.1233705E2,3.2221305E0,1.2957523E1,2.2422518E1,3.639114E1,1.6356277E1,5.028346E1,2.540727E2,5.7448643E1,7.078374E1,-2.453258E1,4.358464E1,-1.8954543E2,9.856684E1,8.040255E1,1.5163684E2,3.9098568E1,-5.9248684E1,1.148815E2,9.497995E1,-2.4207886E1,-9.8240364E1,1.2430423E2,1.4339699E2,1.8015735E2,2.0157973E2,-2.8840687E1,8.344203E1,3.8468037E1,1.6214389E2],"categories":[],"categories_nodes":[],"categories_segments":[],"categories_sizes":[],"default_left":[0,0,1,0,1,1,0,0,0,0,0,0,0,0,0,0,0,0,0,0,1,0,0,0,0,0,0,0,1,0,0,0,0,0,0,0,0,0,0,0,0,0,0,0,0,0,0,0,0,0,0,0,0,0,0,0,0,0,0,0,0],"id":14,"left_children":[1,3,5,7,9,11,13,15,17,19,21,23,25,27,29,31,33,35,37,39,41,43,45,47,49,51,53,-1,55,57,59,-1,-1,-1,-1,-1,-1,-1,-1,-1,-1,-1,-1,-1,-1,-1,-1,-1,-1,-1,-1,-1,-1,-1,-1,-1,-1,-1,-1,-1,-1],"loss_changes":[6.188368E7,1.2125464E7,5.666064E6,2.180304E6,1.479772E6,7.97104E5,5.64064E5,3.0273738E5,4.46775E5,1.98752E5,2.90972E5,2.8683E5,2.31036E5,1.54392E5,3.4494E5,7.125922E4,4.96435E4,2.1865575E5,2.45903E5,1.9309E5,7.873726E4,2.39014E5,2.02803E5,6.2161938E4,1.57118E5,8.139453E2,2.04216E5,0E0,7.8024E4,7.143079E4,2.01992E5,0E0,0E0,0E0,0E0,0E0,0E0,0E0,0E0,0E0,0E0,0E0,0E0,0E0,0E0,0E0,0E0,0E0,0E0,0E0,0E0,0E0,0E0,0E0,0E0,0E0,0E0,0E0,0E0,0E0,0E0],"parents":[2147483647,0,0,1,1,2,2,3,3,4,4,5,5,6,6,7,7,8,8,9,9,10,10,11,11,12,12,13,13,14,14,15,15,16,16,17,17,18,18,19,19,20,20,21,21,22,22,23,23,24,24,25,25,26,26,28,28,29,29,30,30],"right_children":[2,4,6,8,10,12,14,16,18,20,22,24,26,28,30,32,34,36,38,40,42,44,46,48,50,52,54,-1,56,58,60,-1,-1,-1,-1,-1,-1,-1,-1,-1,-1,-1,-1,-1,-1,-1,-1,-1,-1,-1,-1,-1,-1,-1,-1,-1,-1,-1,-1,-1,-1],"split_conditions":[2.7505001E1,2.3205E1,2.9005001E1,2.1134998E1,1.01189995E1,1.1771E1,-1.2209E1,1.4735E1,8.5431E0,1.21225006E2,-9.238001E0,3.7576E0,2.973625E2,-7.0427E1,3.48965E0,-1.1465001E0,1.389704E2,1.2856667E2,7.6342E0,2.7145E1,5.7905E-1,3.25E0,1.2798E1,1.1424E1,3.2245003E1,1.21380005E1,2.9775002E1,-1.2370032E1,8.23E2,1.0066E3,2.9769E2,1.12337055E1,3.2221305E-1,1.2957524E0,2.2422519E0,3.6391141E0,1.6356277E0,5.028346E0,2.540727E1,5.7448645E0,7.078374E0,-2.453258E0,4.3584642E0,-1.8954542E1,9.856685E0,8.040256E0,1.5163684E1,3.9098568E0,-5.9248686E0,1.1488151E1,9.497995E0,-2.4207885E0,-9.824037E0,1.2430423E1,1.4339699E1,1.8015736E1,2.0157972E1,-2.8840687E0,8.344203E0,3.8468037E0,1.621439E1],"split_indices":[28,28,28,23,2,2,59,28,2,37,59,43,46,40,43,27,64,37,43,23,49,18,2,2,60,2,23,0,5,3,46,0,0,0,0,0,0,0,0,0,0,0,0,0,0,0,0,0,0,0,0,0,0,0,0,0,0,0,0,0,0],"split_type":[0,0,0,0,0,0,0,0,0,0,0,0,0,0,0,0,0,0,0,0,0,0,0,0,0,0,0,0,0,0,0,0,0,0,0,0,0,0,0,0,0,0,0,0,0,0,0,0,0,0,0,0,0,0,0,0,0,0,0,0,0],"sum_hessian":[2.9295E4,1.9708E4,9.587E3,1.0781E4,8.927E3,4.78E3,4.807E3,5.015E3,5.766E3,4.5E3,4.427E3,2.291E3,2.489E3,2.294E3,2.513E3,2.594E3,2.421E3,3.604E3,2.162E3,4.434E3,6.6E1,1.979E3,2.448E3,2.6E1,2.265E3,4E0,2.485E3,1E0,2.293E3,2.1E1,2.492E3,5E0,2.589E3,8.71E2,1.55E3,2.932E3,6.72E2,2.157E3,5E0,2.235E3,2.199E3,3.4E1,3.2E1,2E0,1.977E3,2.407E3,4.1E1,1.7E1,9E0,1.695E3,5.7E2,1E0,3E0,1.074E3,1.411E3,2.018E3,2.75E2,1E1,1.1E1,1.4E1,2.478E3],"tree_param":{"num_deleted":"0","num_feature":"65","num_nodes":"61","size_leaf_vector":"0"}},{"base_weights":[7.207521E1,4.175821E1,1.2823126E2,2.3071417E1,6.59009E1,1.0164853E2,1.4895784E2,9.399576E0,3.4644264E1,5.5924934E1,7.665179E1,1.0439253E2,3.040168E1,1.3655138E2,1.6201141E2,1.8264267E0,1.5676453E1,3.7999855E1,1.4914969E1,-9.595527E1,5.6159557E1,7.191536E1,8.391617E1,9.768085E1,1.2089944E2,-3.1269972E0,8.493464E1,1.3774037E2,3.8993706E1,-7.371673E1,1.6220633E2,1.1968154E2,1.6134443E0,1.1583571E1,1.9912817E1,3.6279793E1,8.676468E1,-2.6267681E1,1.6308113E1,-1.224348E2,-1.9837637E1,5.545408E1,9.792786E1,7.767253E1,6.615112E1,-1.6744484E1,8.437888E1,3.012711E1,9.915013E1,-4.318103E0,1.2232587E2,3.2228275E1,-3.5854122E1,9.149329E0,1.100058E2,1.22789856E2,1.4522556E2,-7.48496E1,8.39301E1,6.940216E0,-1.17515305E2,7.267225E1,1.6272769E2],"categories":[],"categories_nodes":[],"categories_segments":[],"categories_sizes":[],"default_left":[1,1,0,1,0,1,0,1,0,0,1,1,1,1,0,0,0,0,0,0,1,0,0,0,0,0,0,1,0,0,0,0,0,0,0,0,0,0,0,0,0,0,0,0,0,0,0,0,0,0,0,0,0,0,0,0,0,0,0,0,0,0,0],"id":15,"left_children":[1,3,5,7,9,11,13,15,17,19,21,23,25,27,29,31,33,35,37,39,41,43,45,47,49,51,53,55,57,59,61,-1,-1,-1,-1,-1,-1,-1,-1,-1,-1,-1,-1,-1,-1,-1,-1,-1,-1,-1,-1,-1,-1,-1,-1,-1,-1,-1,-1,-1,-1,-1,-1],"loss_changes":[4.975141E7,8.561748E6,5.63008E6,1.6928095E6,8.83856E5,8.7502E5,9.09888E5,2.3322922E5,3.830825E5,1.58583E5,1.3101E5,4.67356E5,3.074398E5,3.37636E5,1.40568E5,5.565677E4,4.6289688E4,4.122175E5,4.8851516E4,1.1680086E4,1.2107E5,7.5105E4,7.4353E4,3.02718E5,2.2308E5,1.2264853E5,1.2059516E5,3.09048E5,1.9556334E5,1.141356E4,1.18744E5,0E0,0E0,0E0,0E0,0E0,0E0,0E0,0E0,0E0,0E0,0E0,0E0,0E0,0E0,0E0,0E0,0E0,0E0,0E0,0E0,0E0,0E0,0E0,0E0,0E0,0E0,0E0,0E0,0E0,0E0,0E0,0E0],"parents":[2147483647,0,0,1,1,2,2,3,3,4,4,5,5,6,6,7,7,8,8,9,9,10,10,11,11,12,12,13,13,14,14,15,15,16,16,17,17,18,18,19,19,20,20,21,21,22,22,23,23,24,24,25,25,26,26,27,27,28,28,29,29,30,30],"right_children":[2,4,6,8,10,12,14,16,18,20,22,24,26,28,30,32,34,36,38,40,42,44,46,48,50,52,54,56,58,60,62,-1,-1,-1,-1,-1,-1,-1,-1,-1,-1,-1,-1,-1,-1,-1,-1,-1,-1,-1,-1,-1,-1,-1,-1,-1,-1,-1,-1,-1,-1,-1,-1],"split_conditions":[2.8785E1,2.3224998E1,2.8595001E1,2.0974998E1,2.5835E1,1.4265E1,3.0255001E1,1.2265E1,1.3658334E2,3.65E0,1.5134999E-1,1.1953251E1,8.8575E-1,1.08675E1,1.4335416E2,-4.87915E0,1.6605E1,1.357175E0,1.1985E1,1.0067E3,1.1033751E1,1.6897999E1,6.9536E0,2.981525E2,2.7649999E0,7.95E0,1.4153E0,6.0445E-1,1.00625E3,1.4474E1,4.0838003E0,1.1968154E1,1.6134444E-1,1.1583571E0,1.9912817E0,3.6279793E0,8.676468E0,-2.626768E0,1.6308113E0,-1.224348E1,-1.9837637E0,5.545408E0,9.792786E0,7.7672534E0,6.6151123E0,-1.6744484E0,8.437888E0,3.012711E0,9.915013E0,-4.318103E-1,1.2232587E1,3.2228277E0,-3.5854123E0,9.149329E-1,1.100058E1,1.2278986E1,1.4522555E1,-7.48496E0,8.39301E0,6.9402164E-1,-1.1751531E1,7.267225E0,1.627277E1],"split_indices":[23,28,28,23,28,44,28,9,37,18,17,2,22,44,41,15,28,20,9,3,2,40,35,46,9,29,20,49,3,2,43,0,0,0,0,0,0,0,0,0,0,0,0,0,0,0,0,0,0,0,0,0,0,0,0,0,0,0,0,0,0,0,0],"split_type":[0,0,0,0,0,0,0,0,0,0,0,0,0,0,0,0,0,0,0,0,0,0,0,0,0,0,0,0,0,0,0,0,0,0,0,0,0,0,0,0,0,0,0,0,0,0,0,0,0,0,0,0,0,0,0,0,0,0,0,0,0,0,0],"sum_hessian":[2.9225E4,1.898E4,1.0245E4,1.07E4,8.28E3,4.491E3,5.754E3,4.906E3,5.794E3,4.298E3,3.982E3,4.324E3,1.67E2,2.956E3,2.798E3,2.224E3,2.682E3,4.951E3,8.43E2,6E0,4.292E3,2.417E3,1.565E3,3.079E3,1.245E3,1.04E2,6.3E1,2.92E3,3.6E1,2E0,2.796E3,3E0,2.221E3,1.366E3,1.316E3,4.784E3,1.67E2,2.7E1,8.16E2,4E0,2E0,4.223E3,6.9E1,1.203E3,1.214E3,7E0,1.558E3,6.6E1,3.013E3,1.4E1,1.231E3,5E1,5.4E1,1.6E1,4.7E1,9.8E2,1.94E3,1E1,2.6E1,1E0,1E0,1.7E1,2.779E3],"tree_param":{"num_deleted":"0","num_feature":"65","num_nodes":"63","size_leaf_vector":"0"}},{"base_weights":[6.52784E1,3.7991386E1,1.16236755E2,2.1732283E1,6.11348E1,9.4401695E1,1.3616785E2,1.0579506E1,3.3551773E1,5.1943962E1,7.0310005E1,9.781538E1,3.881857E1,1.2519138E2,1.4713017E2,-8.625091E-1,1.4162053E1,3.608799E1,1.3449102E1,5.16822E1,2.1364854E2,6.5465164E1,7.819466E1,1.0848355E2,8.697714E1,-1.9755836E1,5.9752518E1,1.2635672E2,-2.7047846E1,1.4502223E2,1.6729558E2,-4.3499603E0,5.8459706E0,7.8581944E0,1.9504055E1,3.3108475E1,4.8011917E1,1.0854157E1,4.413666E1,4.4120903E1,5.4333145E1,2.3148346E2,6.223697E1,6.564377E1,-1.8400235E2,7.3880875E1,8.739255E1,1.1718077E2,9.583539E1,7.254003E1,9.055837E1,-4.8064312E1,1.9785686E1,6.6879845E1,-4.378897E1,-1.6540788E2,1.2664105E2,2.0380354E1,-9.254993E1,1.4547136E2,7.740784E1,2.8674927E1,1.6832271E2],"categories":[],"categories_nodes":[],"categories_segments":[],"categories_sizes":[],"default_left":[0,0,1,0,0,1,0,0,0,1,1,0,0,0,1,0,0,0,1,1,0,1,0,0,1,1,0,0,0,0,0,0,0,0,0,0,0,0,0,0,0,0,0,0,0,0,0,0,0,0,0,0,0,0,0,0,0,0,0,0,0,0,0],"id":16,"left_children":[1,3,5,7,9,11,13,15,17,19,21,23,25,27,29,31,33,35,37,39,41,43,45,47,49,51,53,55,57,59,61,-1,-1,-1,-1,-1,-1,-1,-1,-1,-1,-1,-1,-1,-1,-1,-1,-1,-1,-1,-1,-1,-1,-1,-1,-1,-1,-1,-1,-1,-1,-1,-1],"loss_changes":[4.045221E7,7.12939E6,4.402656E6,1.4670665E6,6.55708E5,9.15508E5,6.1956E5,2.3485288E5,2.75036E5,1.54459E5,1.44242E5,5.18272E5,3.4696712E5,4.74624E5,8.8256E4,3.2007074E4,1.4677175E5,1.688715E5,4.7857883E4,7.5876E4,1.795625E3,1.2026E5,5.2386E4,2.41338E5,1.10746E5,8.4903E4,1.5642706E5,2.39624E5,6.7125766E4,6.174E4,2.9915E4,0E0,0E0,0E0,0E0,0E0,0E0,0E0,0E0,0E0,0E0,0E0,0E0,0E0,0E0,0E0,0E0,0E0,0E0,0E0,0E0,0E0,0E0,0E0,0E0,0E0,0E0,0E0,0E0,0E0,0E0,0E0,0E0],"parents":[2147483647,0,0,1,1,2,2,3,3,4,4,5,5,6,6,7,7,8,8,9,9,10,10,11,11,12,12,13,13,14,14,15,15,16,16,17,17,18,18,19,19,20,20,21,21,22,22,23,23,24,24,25,25,26,26,27,27,28,28,29,29,30,30],"right_children":[2,4,6,8,10,12,14,16,18,20,22,24,26,28,30,32,34,36,38,40,42,44,46,48,50,52,54,56,58,60,62,-1,-1,-1,-1,-1,-1,-1,-1,-1,-1,-1,-1,-1,-1,-1,-1,-1,-1,-1,-1,-1,-1,-1,-1,-1,-1,-1,-1,-1,-1,-1,-1],"split_conditions":[2.8825E1,2.3485E1,1.2424999E1,2.2015E1,2.7825E1,-7.73965E0,3.0335E1,2.2416668E1,-3.66265E0,1.1712E1,1.45E1,-1.02375E1,8.06405E-1,1.498E1,8.225E2,1.2365E1,6.5446253E0,9.061E0,4.3935E-1,4.75518E2,1.272E1,4.805E2,1.539E-1,2.8595001E1,-7.865661E-1,5.5E0,5.1757E0,9.3138885E1,1.33335E1,1.00125E1,1.2285E1,-4.3499604E-1,5.8459705E-1,7.858195E-1,1.9504055E0,3.3108475E0,4.801192E0,1.0854157E0,4.4136662E0,4.4120903E0,5.433315E0,2.3148346E1,6.223697E0,6.564377E0,-1.8400236E1,7.3880877E0,8.739255E0,1.1718078E1,9.583539E0,7.254003E0,9.055838E0,-4.8064313E0,1.9785687E0,6.6879845E0,-4.378897E0,-1.6540789E1,1.2664105E1,2.0380354E0,-9.2549925E0,1.4547136E1,7.7407837E0,2.8674927E0,1.6832272E1],"split_indices":[23,28,2,23,23,59,28,11,59,2,26,59,22,44,5,23,2,2,27,64,2,36,17,60,32,26,15,61,2,44,33,0,0,0,0,0,0,0,0,0,0,0,0,0,0,0,0,0,0,0,0,0,0,0,0,0,0,0,0,0,0,0,0],"split_type":[0,0,0,0,0,0,0,0,0,0,0,0,0,0,0,0,0,0,0,0,0,0,0,0,0,0,0,0,0,0,0,0,0,0,0,0,0,0,0,0,0,0,0,0,0,0,0,0,0,0,0,0,0,0,0,0,0,0,0,0,0,0,0],"sum_hessian":[2.9094E4,1.8949E4,1.0145E4,1.1131E4,7.818E3,4.844E3,5.301E3,5.728E3,5.403E3,3.909E3,3.909E3,4.563E3,2.81E2,2.655E3,2.646E3,1.366E3,4.362E3,4.797E3,6.06E2,3.904E3,5E0,2.427E3,1.482E3,2.295E3,2.268E3,7.4E1,2.07E2,2.635E3,2E1,2.403E3,2.43E2,8.99E2,4.67E2,2.002E3,2.36E3,3.841E3,9.56E2,5.6E2,4.6E1,1.018E3,2.886E3,4E0,1E0,2.426E3,1E0,1.015E3,4.67E2,1.355E3,9.4E2,4.55E2,1.813E3,4.3E1,3.1E1,1.94E2,1.3E1,2E0,2.633E3,1.2E1,8E0,2.386E3,1.7E1,2E0,2.41E2],"tree_param":{"num_deleted":"0","num_feature":"65","num_nodes":"63","size_leaf_vector":"0"}},{"base_weights":[5.851259E1,3.1070469E1,9.989326E1,1.3118045E1,4.536465E1,7.930658E1,1.2023587E2,3.3938E0,1.9021711E1,3.5774788E1,5.468961E1,6.599978E1,8.803412E1,1.04175064E2,1.2755525E2,3.1164515E0,2.7582056E2,1.8915699E1,2.6786035E2,4.163547E1,3.1563498E1,6.430095E1,5.1128716E1,7.0006874E1,2.6792011E1,8.404875E1,1.0274474E2,1.0681042E2,4.125491E1,-6.9084973E0,1.2822545E2,-3.0107498E0,6.4633355E0,1.4333893E1,2.4377724E1,4.1329536E1,1.8595322E2,6.695644E-1,3.2474216E1,5.7212124E1,6.874704E1,5.123476E1,-1.6753732E2,6.860575E1,1.5556169E2,1.5767544E1,1.06748985E2,8.298829E1,1.5623462E2,9.0761826E1,1.0968369E2,1.1071229E2,8.540103E1,4.841972E1,-2.4805293E2,-3.4247902E1,5.266287E1,1.332034E2,1.181365E2],"categories":[],"categories_nodes":[],"categories_segments":[],"categories_sizes":[],"default_left":[0,0,0,0,0,1,1,0,1,0,0,1,0,1,0,0,0,0,0,0,1,1,0,0,0,1,1,0,0,0,1,0,0,0,0,0,0,0,0,0,0,0,0,0,0,0,0,0,0,0,0,0,0,0,0,0,0,0,0],"id":17,"left_children":[1,3,5,7,9,11,13,15,17,19,21,23,25,27,29,31,-1,33,-1,35,37,39,41,43,45,47,49,51,53,55,57,-1,-1,-1,-1,-1,-1,-1,-1,-1,-1,-1,-1,-1,-1,-1,-1,-1,-1,-1,-1,-1,-1,-1,-1,-1,-1,-1,-1],"loss_changes":[3.3370256E7,4.534312E6,4.897808E6,4.4973238E5,8.77808E5,6.70912E5,6.79352E5,2.2286511E5,1.23534375E5,1.18463E5,1.67358E5,3.6136E5,1.97498E5,3.02354E5,3.65228E5,6.069977E4,0E0,1.21627125E5,0E0,8.17665E4,7.954575E4,3.84265E4,9.3057E4,2.40701E5,1.8871717E5,1.9923E5,5.1991E4,1.38824E5,1.6954616E5,3.6005156E4,1.86304E5,0E0,0E0,0E0,0E0,0E0,0E0,0E0,0E0,0E0,0E0,0E0,0E0,0E0,0E0,0E0,0E0,0E0,0E0,0E0,0E0,0E0,0E0,0E0,0E0,0E0,0E0,0E0,0E0],"parents":[2147483647,0,0,1,1,2,2,3,3,4,4,5,5,6,6,7,7,8,8,9,9,10,10,11,11,12,12,13,13,14,14,15,15,17,17,19,19,20,20,21,21,22,22,23,23,24,24,25,25,26,26,27,27,28,28,29,29,30,30],"right_children":[2,4,6,8,10,12,14,16,18,20,22,24,26,28,30,32,-1,34,-1,36,38,40,42,44,46,48,50,52,54,56,58,-1,-1,-1,-1,-1,-1,-1,-1,-1,-1,-1,-1,-1,-1,-1,-1,-1,-1,-1,-1,-1,-1,-1,-1,-1,-1,-1,-1],"split_conditions":[2.8535E1,2.0884998E1,2.8595001E1,1.7884998E1,2.4474998E1,8.0257996E2,6.6255E-1,5.465834E2,7.0868998E0,-7.57895E0,-9.13825E0,1.2596667E2,4.965E2,1.04565E0,3.4756498E0,1.2375E1,2.7582056E1,2.13814E2,2.6786036E1,3.225E-1,2.97325E2,-3.7940952E-1,2.6825E1,3.1974998E1,3.239E1,3.1135998E0,4.9883E-1,2.99E1,2.4793E2,3.2605E1,1.355E2,-3.0107498E-1,6.463336E-1,1.4333893E0,2.4377725E0,4.1329536E0,1.8595322E1,6.6956446E-2,3.2474217E0,5.7212124E0,6.874704E0,5.123476E0,-1.6753733E1,6.860575E0,1.55561695E1,1.5767545E0,1.0674899E1,8.298829E0,1.5623462E1,9.076182E0,1.09683695E1,1.1071229E1,8.540103E0,4.841972E0,-2.4805294E1,-3.4247901E0,5.266287E0,1.332034E1,1.181365E1],"split_indices":[23,28,28,23,28,64,49,11,38,59,59,37,36,38,43,23,0,64,0,17,46,32,9,23,60,38,38,60,40,23,4,0,0,0,0,0,0,0,0,0,0,0,0,0,0,0,0,0,0,0,0,0,0,0,0,0,0,0,0],"split_type":[0,0,0,0,0,0,0,0,0,0,0,0,0,0,0,0,0,0,0,0,0,0,0,0,0,0,0,0,0,0,0,0,0,0,0,0,0,0,0,0,0,0,0,0,0,0,0,0,0,0,0,0,0,0,0,0,0,0,0],"sum_hessian":[2.9388E4,1.7671E4,1.1717E4,7.834E3,9.837E3,5.826E3,5.891E3,2.96E3,4.874E3,4.852E3,4.985E3,2.311E3,3.515E3,1.849E3,4.042E3,2.958E3,2E0,4.873E3,1E0,2.025E3,2.827E3,1.343E3,3.642E3,2.096E3,2.15E2,2.771E3,7.44E2,1.774E3,7.5E1,2E1,4.022E3,1.045E3,1.913E3,2.652E3,2.221E3,2.022E3,3E0,8.1E1,2.746E3,5.23E2,8.2E2,3.641E3,1E0,2.064E3,3.2E1,1.9E2,2.5E1,2.733E3,3.8E1,2.78E2,4.66E2,1.497E3,2.77E2,7.4E1,1E0,1.4E1,6E0,2.685E3,1.337E3],"tree_param":{"num_deleted":"0","num_feature":"65","num_nodes":"59","size_leaf_vector":"0"}},{"base_weights":[5.286014E1,2.8852905E1,9.2050964E1,1.24123E1,4.2240116E1,7.4759834E1,1.118755E2,2.5765934E0,1.7634153E1,3.2369263E1,5.048945E1,7.64171E1,1.3919366E1,9.880618E1,1.1898679E2,2.405049E0,1.6348412E2,1.2509268E1,2.3322388E1,3.4308006E1,8.258937E0,4.624458E1,5.9543633E1,6.409148E1,8.175077E1,4.0825405E1,-3.3638138E1,-1.1162831E2,9.932744E1,-7.198746E1,1.1912226E2,-3.0039308E0,5.5035777E0,2.562712E2,-1.1045047E1,1.2248931E1,1.3195831E2,2.297636E1,1.2931914E2,3.4668182E1,-7.647797E1,-3.1303192E1,1.3471606E1,-7.832701E1,4.639979E1,-4.9432278E1,6.0202885E1,6.784131E1,2.2327326E1,7.943655E1,1.0637763E2,4.8072487E1,-8.313998E1,-1.3091052E1,-9.166705E1,1.1176097E2,-1.9541588E2,9.962375E1,-1.1423756E2,1.1427557E2,1.2557689E2],"categories":[],"categories_nodes":[],"categories_segments":[],"categories_sizes":[],"default_left":[0,0,1,0,1,0,1,0,1,0,1,0,0,0,0,0,0,0,0,0,0,0,0,1,0,0,0,0,1,0,1,0,0,0,0,0,0,0,0,0,0,0,0,0,0,0,0,0,0,0,0,0,0,0,0,0,0,0,0,0,0],"id":18,"left_children":[1,3,5,7,9,11,13,15,17,19,21,23,25,27,29,31,33,35,37,39,41,43,45,47,49,51,53,55,57,-1,59,-1,-1,-1,-1,-1,-1,-1,-1,-1,-1,-1,-1,-1,-1,-1,-1,-1,-1,-1,-1,-1,-1,-1,-1,-1,-1,-1,-1,-1,-1],"loss_changes":[2.7575E7,4.000342E6,3.808248E6,4.19057E5,8.14192E5,5.98866E5,4.70136E5,7.77503E4,1.5508612E5,2.13055E5,2.06941E5,3.75532E5,2.0482714E5,2.12146E5,9.5316E4,4.743023E4,5.141268E4,8.564184E4,8.9639875E4,1.71199E5,7.07442E4,7.55415E4,1.278385E5,2.73176E5,2.21742E5,9.563225E4,6.7954836E4,1.15426086E5,1.27124E5,0E0,9.048E4,0E0,0E0,0E0,0E0,0E0,0E0,0E0,0E0,0E0,0E0,0E0,0E0,0E0,0E0,0E0,0E0,0E0,0E0,0E0,0E0,0E0,0E0,0E0,0E0,0E0,0E0,0E0,0E0,0E0,0E0],"parents":[2147483647,0,0,1,1,2,2,3,3,4,4,5,5,6,6,7,7,8,8,9,9,10,10,11,11,12,12,13,13,14,14,15,15,16,16,17,17,18,18,19,19,20,20,21,21,22,22,23,23,24,24,25,25,26,26,27,27,28,28,30,30],"right_children":[2,4,6,8,10,12,14,16,18,20,22,24,26,28,30,32,34,36,38,40,42,44,46,48,50,52,54,56,58,-1,60,-1,-1,-1,-1,-1,-1,-1,-1,-1,-1,-1,-1,-1,-1,-1,-1,-1,-1,-1,-1,-1,-1,-1,-1,-1,-1,-1,-1,-1,-1],"split_conditions":[2.8625E1,2.4285E1,1.1434999E1,1.7525002E1,8.595E0,1.2823334E2,7.755E2,8.17E2,6.5955E0,-3.6445E0,1.0455E1,1.7245E-1,-5.6120996E0,3.005E0,3.1E0,1.0083334E1,1.3704E1,9.748E0,1.0681E1,1.967E1,7.65E-2,2.1999998E0,4.05E0,8.8096E-1,9.939E-1,2.173625E0,2.9839752E2,5.81E2,1.35425E1,-7.1987457E0,1.3345E1,-3.0039307E-1,5.5035776E-1,2.5627121E1,-1.1045047E0,1.2248931E0,1.3195831E1,2.297636E0,1.2931914E1,3.4668183E0,-7.6477966E0,-3.1303194E0,1.3471607E0,-7.832701E0,4.6399794E0,-4.943228E0,6.0202885E0,6.784131E0,2.2327325E0,7.9436545E0,1.0637763E1,4.8072486E0,-8.313998E0,-1.3091053E0,-9.166705E0,1.1176097E1,-1.9541588E1,9.962375E0,-1.1423756E1,1.1427558E1,1.2557689E1],"split_indices":[23,23,34,23,34,37,10,10,34,59,2,17,58,9,18,11,2,2,2,44,17,18,18,51,49,20,46,10,44,0,34,0,0,0,0,0,0,0,0,0,0,0,0,0,0,0,0,0,0,0,0,0,0,0,0,0,0,0,0,0,0],"split_type":[0,0,0,0,0,0,0,0,0,0,0,0,0,0,0,0,0,0,0,0,0,0,0,0,0,0,0,0,0,0,0,0,0,0,0,0,0,0,0,0,0,0,0,0,0,0,0,0,0,0,0,0,0,0,0,0,0,0,0,0,0],"sum_hessian":[2.931E4,1.8177E4,1.1133E4,8.159E3,1.0018E4,5.949E3,5.184E3,2.83E3,5.329E3,4.563E3,5.455E3,5.791E3,1.58E2,1.832E3,3.352E3,2.828E3,2E0,2.805E3,2.524E3,4.223E3,3.4E2,3.718E3,1.737E3,1.753E3,4.038E3,1.01E2,5.7E1,4E0,1.828E3,2E0,3.35E3,1.03E3,1.798E3,1E0,1E0,2.8E3,5E0,2.517E3,7E0,4.21E3,1.3E1,3.9E1,3.01E2,4E0,3.714E3,1E1,1.727E3,1.608E3,1.45E2,3.695E3,3.43E2,9.6E1,5E0,4.3E1,1.4E1,1E0,3E0,1.826E3,2E0,1.924E3,1.426E3],"tree_param":{"num_deleted":"0","num_feature":"65","num_nodes":"61","size_leaf_vector":"0"}},{"base_weights":[4.7456432E1,2.3451988E1,7.8723816E1,9.51225E0,3.3952137E1,6.160775E1,9.752894E1,2.2331197E0,1.4210114E1,2.6342716E1,4.1306442E1,5.183503E1,7.105413E1,9.817773E1,-3.2108837E1,1.965243E0,1.0887344E2,1.3045692E1,3.563856E1,2.6641447E1,-5.6795547E1,4.087036E1,1.6957643E2,1.6141253E1,5.3995872E1,6.557868E1,7.98521E1,8.784049E1,1.0483597E2,-9.903504E1,2.8832447E1,-5.6417475E0,4.190513E0,2.9258423E2,-2.3127714E1,1.2905872E1,2.0043823E2,9.390279E0,5.768761E1,2.1878687E1,2.9982729E1,-6.5995626E0,-8.357522E1,2.1337746E2,4.0754005E1,2.4129288E2,9.833547E0,-5.390812E0,6.03342E1,2.3433067E1,5.506024E1,1.8983879E2,6.52505E1,6.1746387E1,8.489002E1,-1.2793076E2,8.8532646E1,-5.341345E0,1.05138374E2,1.6138184E1,-1.1799539E2,9.7382996E1,-2.8891235E1],"categories":[],"categories_nodes":[],"categories_segments":[],"categories_sizes":[],"default_left":[1,1,1,1,1,1,0,1,0,0,1,0,0,1,0,1,0,1,1,1,0,0,1,0,0,0,1,0,0,0,0,0,0,0,0,0,0,0,0,0,0,0,0,0,0,0,0,0,0,0,0,0,0,0,0,0,0,0,0,0,0,0,0],"id":19,"left_children":[1,3,5,7,9,11,13,15,17,19,21,23,25,27,29,31,33,35,37,39,41,43,45,47,49,51,53,55,57,59,61,-1,-1,-1,-1,-1,-1,-1,-1,-1,-1,-1,-1,-1,-1,-1,-1,-1,-1,-1,-1,-1,-1,-1,-1,-1,-1,-1,-1,-1,-1,-1,-1],"loss_changes":[2.2035228E7,2.431018E6,4.098152E6,2.4406181E5,5.29096E5,6.12808E5,5.1402E5,7.980069E4,1.0777569E5,1.1722375E5,2.624585E5,2.52573E5,1.58214E5,4.06784E5,1.2929104E5,4.733631E4,1.7651703E5,1.05258125E5,1.2851944E5,7.32315E4,2.2300387E4,8.7671E4,1.8092628E5,1.8017112E5,9.9489E4,7.3127E4,1.13064E5,3.65874E5,1.22872E5,3.466011E4,7.0082336E4,0E0,0E0,0E0,0E0,0E0,0E0,0E0,0E0,0E0,0E0,0E0,0E0,0E0,0E0,0E0,0E0,0E0,0E0,0E0,0E0,0E0,0E0,0E0,0E0,0E0,0E0,0E0,0E0,0E0,0E0,0E0,0E0],"parents":[2147483647,0,0,1,1,2,2,3,3,4,4,5,5,6,6,7,7,8,8,9,9,10,10,11,11,12,12,13,13,14,14,15,15,16,16,17,17,18,18,19,19,20,20,21,21,22,22,23,23,24,24,25,25,26,26,27,27,28,28,29,29,30,30],"right_children":[2,4,6,8,10,12,14,16,18,20,22,24,26,28,30,32,34,36,38,40,42,44,46,48,50,52,54,56,58,60,62,-1,-1,-1,-1,-1,-1,-1,-1,-1,-1,-1,-1,-1,-1,-1,-1,-1,-1,-1,-1,-1,-1,-1,-1,-1,-1,-1,-1,-1,-1,-1,-1],"split_conditions":[2.8325E1,2.0244999E1,1.2201E1,1.5105E1,8.395E0,8.26224E2,1.49575E1,3.708473E2,8.7851E0,1.751E1,1.172425E1,-6.05685E-1,5.254166E2,6.934166E2,2.8795E-1,1.25E0,3.2575E0,7.0868998E0,-5E-1,7.6324997E0,7.3E0,2.0380001E1,6.123234E-17,1.2445E1,4.3500004E0,5.1499996E0,-6.035534E-1,1.46E0,3.1897998E0,1.25E1,3.194E1,-5.641748E-1,4.1905132E-1,2.9258423E1,-2.3127716E0,1.2905873E0,2.0043823E1,9.390279E-1,5.768761E0,2.1878688E0,2.998273E0,-6.599563E-1,-8.357522E0,2.1337746E1,4.075401E0,2.4129288E1,9.833547E-1,-5.390812E-1,6.03342E0,2.3433068E0,5.5060244E0,1.898388E1,6.5250506E0,6.1746387E0,8.489002E0,-1.27930765E1,8.853265E0,-5.341345E-1,1.0513838E1,1.6138184E0,-1.179954E1,9.738299E0,-2.8891237E0],"split_indices":[23,28,2,28,34,64,44,16,2,44,2,40,11,11,17,18,44,38,21,34,29,28,55,33,18,18,32,9,43,54,23,0,0,0,0,0,0,0,0,0,0,0,0,0,0,0,0,0,0,0,0,0,0,0,0,0,0,0,0,0,0,0,0],"split_type":[0,0,0,0,0,0,0,0,0,0,0,0,0,0,0,0,0,0,0,0,0,0,0,0,0,0,0,0,0,0,0,0,0,0,0,0,0,0,0,0,0,0,0,0,0,0,0,0,0,0,0,0,0,0,0,0,0,0,0,0,0,0,0],"sum_hessian":[2.936E4,1.661E4,1.275E4,7.137E3,9.473E3,6.677E3,6.073E3,2.8E3,4.337E3,4.658E3,4.815E3,3.285E3,3.392E3,6.043E3,3E1,2.794E3,6E0,4.115E3,2.22E2,4.642E3,1.6E1,4.8E3,1.5E1,1.88E2,3.097E3,2.096E3,1.296E3,2.373E3,3.67E3,1.4E1,1.6E1,6.32E2,2.162E3,2E0,4E0,4.113E3,2E0,1.02E2,1.2E2,1.917E3,2.725E3,6E0,1E1,2E0,4.798E3,1E1,5E0,1.27E2,6.1E1,1.05E2,2.992E3,4E0,2.092E3,2.85E2,1.011E3,7E0,2.366E3,1E1,3.66E3,2E0,1.2E1,7E0,9E0],"tree_param":{"num_deleted":"0","num_feature":"65","num_nodes":"63","size_leaf_vector":"0"}},{"base_weights":[4.25378E1,2.110266E1,7.068548E1,8.222929E0,3.0964706E1,5.521294E1,8.720454E1,1.5434402E0,1.2100721E1,2.4300365E1,3.766067E1,4.527656E1,6.2086994E1,8.107694E1,9.775307E1,1.4457531E0,1.3059784E2,1.1983365E1,1.8707568E2,2.4756742E1,-3.279785E1,3.716602E1,1.5785759E2,2.3483105E1,4.956846E1,-7.091587E1,6.2656673E1,1.673465E1,8.17578E1,3.772663E1,9.87663E1,-1.9774399E0,4.753939E0,1.2157704E1,-7.783492E1,2.4271202E2,3.7901505E1,-1.2869862E2,2.4849445E1,-2.7187603E0,-7.873787E1,3.1759487E1,4.047076E1,2.2115016E2,4.318654E1,-7.6553553E-1,4.7088516E1,4.733308E1,8.257319E1,1.083588E2,-1.5464355E2,6.3099148E1,-9.790545E1,5.973373E1,-1.7347816E2,7.753009E1,9.180246E1,-1.8685835E2,5.4916584E1,9.7098145E1,1.1876188E2],"categories":[],"categories_nodes":[],"categories_segments":[],"categories_sizes":[],"default_left":[0,0,0,0,1,1,0,0,1,0,0,0,0,0,0,0,0,0,0,0,0,0,0,1,1,0,1,0,1,1,0,0,0,0,0,0,0,0,0,0,0,0,0,0,0,0,0,0,0,0,0,0,0,0,0,0,0,0,0,0,0],"id":20,"left_children":[1,3,5,7,9,11,13,15,17,19,21,23,25,27,29,31,-1,33,35,37,39,41,43,45,47,49,51,53,55,57,59,-1,-1,-1,-1,-1,-1,-1,-1,-1,-1,-1,-1,-1,-1,-1,-1,-1,-1,-1,-1,-1,-1,-1,-1,-1,-1,-1,-1,-1,-1],"loss_changes":[1.7727928E7,2.118829E6,3.241968E6,1.8740588E5,4.20694E5,4.45394E5,3.89076E5,3.333306E4,9.176531E4,1.242765E5,2.74229E5,2.50165E5,2.98123E5,1.69088E5,1.33242E5,3.0110078E4,0E0,7.260119E4,1.5699359E4,7.007325E4,5.229562E4,8.25655E4,1.2834794E5,2.5418123E5,1.616505E5,2.7193128E5,2.8041E5,3.5387953E5,1.56378E5,1.6082525E5,6.2318E4,0E0,0E0,0E0,0E0,0E0,0E0,0E0,0E0,0E0,0E0,0E0,0E0,0E0,0E0,0E0,0E0,0E0,0E0,0E0,0E0,0E0,0E0,0E0,0E0,0E0,0E0,0E0,0E0,0E0,0E0],"parents":[2147483647,0,0,1,1,2,2,3,3,4,4,5,5,6,6,7,7,8,8,9,9,10,10,11,11,12,12,13,13,14,14,15,15,17,17,18,18,19,19,20,20,21,21,22,22,23,23,24,24,25,25,26,26,27,27,28,28,29,29,30,30],"right_children":[2,4,6,8,10,12,14,16,18,20,22,24,26,28,30,32,-1,34,36,38,40,42,44,46,48,50,52,54,56,58,60,-1,-1,-1,-1,-1,-1,-1,-1,-1,-1,-1,-1,-1,-1,-1,-1,-1,-1,-1,-1,-1,-1,-1,-1,-1,-1,-1,-1,-1,-1],"split_conditions":[2.8365002E1,2.0265E1,2.8535E1,1.4665E1,4.79931E2,1.0065001E1,3.0595001E1,2.3154001E0,7.0868998E0,1.6185001E1,1.1695E1,1.2365E1,3.565E0,2.2868402E2,2.980025E2,1.2865E1,1.3059784E1,1.1755E1,6.44055E0,3.955E0,2.2805E1,1.1675E-1,9.38315E0,9.455E0,3.7879E0,1.5E1,1.3622499E1,1.460875E0,1.85E1,1.4528125E2,8.275E2,-1.97744E-1,4.7539392E-1,1.2157705E0,-7.7834926E0,2.4271202E1,3.7901504E0,-1.2869863E1,2.4849446E0,-2.7187604E-1,-7.873787E0,3.1759489E0,4.047076E0,2.2115017E1,4.318654E0,-7.655355E-2,4.708852E0,4.7333083E0,8.257319E0,1.083588E1,-1.5464355E1,6.309915E0,-9.790545E0,5.973373E0,-1.7347816E1,7.7530093E0,9.180246E0,-1.8685835E1,5.4916587E0,9.709815E0,1.1876188E1],"split_indices":[23,28,28,28,64,34,28,20,38,44,2,33,9,41,46,23,0,2,2,9,28,17,35,34,38,36,44,20,26,41,10,0,0,0,0,0,0,0,0,0,0,0,0,0,0,0,0,0,0,0,0,0,0,0,0,0,0,0,0,0,0],"split_type":[0,0,0,0,0,0,0,0,0,0,0,0,0,0,0,0,0,0,0,0,0,0,0,0,0,0,0,0,0,0,0,0,0,0,0,0,0,0,0,0,0,0,0,0,0,0,0,0,0,0,0,0,0,0,0,0,0,0,0,0,0],"sum_hessian":[2.9384E4,1.6682E4,1.2702E4,7.235E3,9.447E3,6.561E3,6.141E3,2.658E3,4.577E3,4.737E3,4.71E3,2.686E3,3.875E3,3.89E3,2.251E3,2.657E3,1E0,4.575E3,2E0,4.7E3,3.7E1,4.692E3,1.8E1,4.43E2,2.243E3,1.6E1,3.859E3,4.1E1,3.849E3,3.8E1,2.213E3,1.306E3,1.351E3,4.567E3,8E0,1E0,1E0,2E0,4.698E3,2.3E1,1.4E1,1.784E3,2.908E3,1.1E1,7E0,2.19E2,2.24E2,2.103E3,1.4E2,5E0,1.1E1,3.849E3,1E1,3.4E1,7E0,2.715E3,1.134E3,2E0,3.6E1,2.048E3,1.65E2],"tree_param":{"num_deleted":"0","num_feature":"65","num_nodes":"61","size_leaf_vector":"0"}},{"base_weights":[3.831842E1,2.3954552E1,7.273259E1,1.343109E1,3.8926865E1,6.252318E1,8.40544E1,6.0535436E0,2.0351362E1,3.3596806E1,4.653188E1,6.2818798E1,-9.312078E1,8.4395485E1,-1.4075384E1,-3.6083072E-1,9.342635E0,2.0465706E1,-2.2483685E2,3.4271206E1,-1.3169424E1,4.6752014E1,-1.5804944E2,6.560794E1,4.5745583E1,-1.1310754E2,-1.5444751E1,8.298506E1,1.0424831E2,9.4784996E1,-4.9189228E1,8.455767E-3,-6.126303E1,8.3616E0,4.198139E1,1.9919716E1,7.059492E1,3.3906773E1,1.269331E2,-3.2473766E1,5.1196026E1,4.641693E1,2.0761357E2,-2.2289384E2,1.8241898E1,5.706198E1,7.274906E1,4.098839E1,7.993459E1,-2.7727978E1,4.560852E0,7.940367E1,9.005164E1,-7.0106406E0,1.0511774E2,-6.689929E1,2.6240713E1],"categories":[],"categories_nodes":[],"categories_segments":[],"categories_sizes":[],"default_left":[1,1,1,0,1,1,0,0,1,0,0,0,0,1,0,0,0,1,0,1,0,1,0,0,1,0,0,0,0,0,1,0,0,0,0,0,0,0,0,0,0,0,0,0,0,0,0,0,0,0,0,0,0,0,0,0,0],"id":21,"left_children":[1,3,5,7,9,11,13,15,17,19,21,23,25,27,29,31,33,35,-1,37,39,41,43,45,47,-1,49,51,53,-1,55,-1,-1,-1,-1,-1,-1,-1,-1,-1,-1,-1,-1,-1,-1,-1,-1,-1,-1,-1,-1,-1,-1,-1,-1,-1,-1],"loss_changes":[1.4464056E7,3.252787E6,9.90776E5,6.1901625E5,3.43877E5,2.14512E5,1.3785E5,1.2386656E5,1.8001925E5,1.585895E5,1.654185E5,2.12574E5,1.22255E4,1.05284E5,6.1999996E4,4.477882E4,1.2391775E5,1.69793E5,0E0,1.62618E5,9.112488E4,1.793425E5,4.979203E4,2.33185E5,1.0065275E5,0E0,8.636634E2,8.9122E4,2.64675E4,0E0,1.7785912E4,0E0,0E0,0E0,0E0,0E0,0E0,0E0,0E0,0E0,0E0,0E0,0E0,0E0,0E0,0E0,0E0,0E0,0E0,0E0,0E0,0E0,0E0,0E0,0E0,0E0,0E0],"parents":[2147483647,0,0,1,1,2,2,3,3,4,4,5,5,6,6,7,7,8,8,9,9,10,10,11,11,12,12,13,13,14,14,15,15,16,16,17,17,19,19,20,20,21,21,22,22,23,23,24,24,26,26,27,27,28,28,30,30],"right_children":[2,4,6,8,10,12,14,16,18,20,22,24,26,28,30,32,34,36,-1,38,40,42,44,46,48,-1,50,52,54,-1,56,-1,-1,-1,-1,-1,-1,-1,-1,-1,-1,-1,-1,-1,-1,-1,-1,-1,-1,-1,-1,-1,-1,-1,-1,-1,-1],"split_conditions":[2.7775002E1,2.4005001E1,1.2866751E1,1.8925E1,9.545E0,1.9477E0,2.4194999E0,5.95E1,9.25E0,1.49625E1,1.54E1,3.3245003E1,5.975E2,8.205E2,-5.6620502E0,2.175E1,9.6317005E0,1.1146999E1,-2.2483686E1,4.7861004E0,1.2434999E1,2.1207252E0,1.4271E1,5.4815E-1,1.3302E0,-1.1310754E1,1.2194E1,1.1841E1,2.325E2,9.478499E0,8.7678995E0,8.4557675E-4,-6.126303E0,8.3616E-1,4.198139E0,1.9919716E0,7.0594916E0,3.3906772E0,1.269331E1,-3.2473767E0,5.1196027E0,4.641693E0,2.0761358E1,-2.2289385E1,1.8241898E0,5.706198E0,7.274906E0,4.0988393E0,7.993459E0,-2.7727978E0,4.560852E-1,7.940367E0,9.005164E0,-7.0106405E-1,1.0511774E1,-6.6899295E0,2.6240714E0],"split_indices":[28,28,2,28,34,20,20,10,29,44,48,60,36,10,58,23,2,2,0,51,33,20,2,49,20,0,2,35,36,0,40,0,0,0,0,0,0,0,0,0,0,0,0,0,0,0,0,0,0,0,0,0,0,0,0,0,0],"split_type":[0,0,0,0,0,0,0,0,0,0,0,0,0,0,0,0,0,0,0,0,0,0,0,0,0,0,0,0,0,0,0,0,0,0,0,0,0,0,0,0,0,0,0,0,0,0,0,0,0,0,0,0,0,0,0,0,0],"sum_hessian":[2.9263E4,2.0647E4,8.616E3,1.2126E4,8.521E3,4.534E3,4.082E3,5.87E3,6.256E3,5.013E3,3.508E3,4.526E3,8E0,4.068E3,1.4E1,1.99E3,3.88E3,6.254E3,2E0,4.942E3,7.1E1,3.505E3,3E0,3.888E3,6.38E2,6E0,2E0,3.803E3,2.65E2,3E0,1.1E1,1.979E3,1.1E1,3.768E3,1.12E2,6.188E3,6.6E1,4.924E3,1.8E1,5.5E1,1.6E1,3.499E3,6E0,2E0,1E0,1.774E3,2.114E3,5.62E2,7.6E1,1E0,1E0,2.532E3,1.271E3,2E0,2.63E2,9E0,2E0],"tree_param":{"num_deleted":"0","num_feature":"65","num_nodes":"57","size_leaf_vector":"0"}},{"base_weights":[3.4794567E1,1.7228083E1,5.7691055E1,6.494258E0,2.5354029E1,4.5967896E1,7.252528E1,-1.4507105E0,9.159135E0,2.0271152E1,3.1195541E1,4.075993E1,5.5732403E1,6.658679E1,7.9004776E1,-1.6909716E0,1.4310947E2,8.461681E0,3.7413406E1,2.0554144E1,-3.7590633E1,3.077291E1,1.27070305E2,3.365897E-1,4.2320847E1,5.528389E1,2.0609604E2,6.6905785E1,-5.8845676E1,7.9551384E1,9.174317E0,3.903508E1,-2.450603E0,2.2682825E2,-1.2164038E1,8.363424E0,1.7716444E2,5.6932297E1,-1.5874612E0,1.5969571E1,2.393998E1,1.3187489E1,-5.8070316E1,1.3675194E2,3.0499352E1,6.0454784E1,2.3263194E2,1.3571331E1,-8.2946014E1,4.2126698E1,2.4904346E2,5.5743984E1,-1.1463327E2,-1.4446568E2,6.7026985E1,-8.78922E0,-7.406629E1,2.8702364E1,8.006075E1,-7.462326E1,7.2928276E1],"categories":[],"categories_nodes":[],"categories_segments":[],"categories_sizes":[],"default_left":[0,0,0,0,1,1,1,0,0,0,1,0,0,1,0,1,1,1,0,0,1,0,1,0,0,0,0,0,0,0,0,0,0,0,0,0,0,0,0,0,0,0,0,0,0,0,0,0,0,0,0,0,0,0,0,0,0,0,0,0,0],"id":22,"left_children":[1,3,5,7,9,11,13,15,17,19,21,23,25,27,29,31,33,35,37,39,41,43,45,47,49,51,-1,53,55,57,59,-1,-1,-1,-1,-1,-1,-1,-1,-1,-1,-1,-1,-1,-1,-1,-1,-1,-1,-1,-1,-1,-1,-1,-1,-1,-1,-1,-1,-1,-1],"loss_changes":[1.1819176E7,1.4504325E6,2.215336E6,1.517556E5,2.803995E5,3.6026E5,2.11372E5,6.2794688E4,1.0544572E5,8.36925E4,1.744575E5,2.93578E5,1.55656E5,1.21732E5,1.01834E5,5.5750945E4,4.1757074E4,8.536084E4,9.829209E4,7.78515E4,2.6763797E4,1.229275E5,1.1954509E5,1.9291261E5,1.693145E5,1.995675E5,0E0,8.4923E4,5.444135E3,6.6756E4,1.2297555E5,0E0,0E0,0E0,0E0,0E0,0E0,0E0,0E0,0E0,0E0,0E0,0E0,0E0,0E0,0E0,0E0,0E0,0E0,0E0,0E0,0E0,0E0,0E0,0E0,0E0,0E0,0E0,0E0,0E0,0E0],"parents":[2147483647,0,0,1,1,2,2,3,3,4,4,5,5,6,6,7,7,8,8,9,9,10,10,11,11,12,12,13,13,14,14,15,15,16,16,17,17,18,18,19,19,20,20,21,21,22,22,23,23,24,24,25,25,27,27,28,28,29,29,30,30],"right_children":[2,4,6,8,10,12,14,16,18,20,22,24,26,28,30,32,34,36,38,40,42,44,46,48,50,52,-1,54,56,58,60,-1,-1,-1,-1,-1,-1,-1,-1,-1,-1,-1,-1,-1,-1,-1,-1,-1,-1,-1,-1,-1,-1,-1,-1,-1,-1,-1,-1,-1,-1],"split_conditions":[2.8325E1,2.0244999E1,5.115E2,1.2015E1,8.495E0,9.22938E2,7.935E2,4.1685455E2,1.3081E0,1.72925E1,1.1719E1,2.9796E2,2.3971E0,2.4197998E0,2.06185E0,1.5E0,2E0,7.0868998E0,3.9043E0,8.6392E0,3.2177E-1,6.95E0,1.42369995E1,7.25275E2,2.780442E2,1.3622499E1,2.0609604E1,5.645E0,5.5871498E-2,3.0005001E1,4.64325E0,3.903508E0,-2.4506031E-1,2.2682825E1,-1.2164038E0,8.3634245E-1,1.7716444E1,5.6932297E0,-1.5874612E-1,1.5969571E0,2.393998E0,1.3187488E0,-5.8070316E0,1.3675194E1,3.049935E0,6.0454783E0,2.3263195E1,1.3571332E0,-8.294601E0,4.21267E0,2.4904346E1,5.5743985E0,-1.1463327E1,-1.44465685E1,6.7026987E0,-8.78922E-1,-7.406629E0,2.8702364E0,8.006076E0,-7.462326E0,7.2928276E0],"split_indices":[23,28,36,9,34,64,10,16,20,44,2,46,20,20,20,57,0,51,15,2,22,29,40,64,16,44,0,9,52,23,51,0,0,0,0,0,0,0,0,0,0,0,0,0,0,0,0,0,0,0,0,0,0,0,0,0,0,0,0,0,0],"split_type":[0,0,0,0,0,0,0,0,0,0,0,0,0,0,0,0,0,0,0,0,0,0,0,0,0,0,0,0,0,0,0,0,0,0,0,0,0,0,0,0,0,0,0,0,0,0,0,0,0,0,0,0,0,0,0,0,0,0,0,0,0],"sum_hessian":[2.9387E4,1.663E4,1.2757E4,7.166E3,9.464E3,7.128E3,5.629E3,1.8E3,5.366E3,5.063E3,4.401E3,4.652E3,2.476E3,2.943E3,2.686E3,1.798E3,2E0,5.238E3,1.28E2,5.039E3,2.4E1,4.383E3,1.8E1,1.73E2,4.479E3,2.47E3,6E0,2.936E3,7E0,2.665E3,2.1E1,3.2E1,1.766E3,1E0,1E0,5.236E3,2E0,8.5E1,4.3E1,2.143E3,2.896E3,7E0,1.7E1,1E1,4.373E3,1.2E1,6E0,1.5E2,2.3E1,4.476E3,3E0,2.464E3,6E0,1E0,2.935E3,2E0,5E0,2.7E1,2.638E3,9E0,1.2E1],"tree_param":{"num_deleted":"0","num_feature":"65","num_nodes":"61","size_leaf_vector":"0"}},{"base_weights":[3.1122335E1,1.7996244E1,5.5672653E1,9.818046E0,2.8289268E1,4.5906765E1,6.7216866E1,4.110308E0,1.5069781E1,2.8995367E1,-4.214925E0,4.717012E1,-9.249806E0,5.861688E1,7.100251E1,-3.276538E0,5.674596E0,1.626169E1,8.646419E-1,2.2550306E1,3.2032005E1,3.66289E0,-2.8104828E1,-2.5964947E1,4.788329E1,3.2733643E1,-3.767522E1,6.246335E1,4.362938E1,-1.1645509E2,7.121164E1,-2.3760629E0,-1.4179719E1,-2.484842E0,7.014924E0,1.609144E1,1.384168E2,1.8304179E0,-3.6176838E1,-2.1094477E1,2.354882E1,2.5590586E1,3.7338352E1,-4.1984734E1,6.8192134E0,-1.9579355E1,-6.508772E1,-7.33463E1,2.670113E0,3.4413387E1,5.093956E1,-4.1981194E1,5.1980705E1,-4.993626E1,7.093981E0,4.9050865E1,6.642061E1,4.6270767E1,-1.3069449E1,2.8397906E2,7.0861534E1],"categories":[],"categories_nodes":[],"categories_segments":[],"categories_sizes":[],"default_left":[1,1,1,1,1,1,0,0,0,0,1,0,0,0,0,0,0,0,0,0,1,0,0,0,1,0,0,1,1,0,0,0,0,0,0,0,0,0,0,0,0,0,0,0,0,0,0,0,0,0,0,0,0,0,0,0,0,0,0,0,0],"id":23,"left_children":[1,3,5,7,9,11,13,15,17,19,21,23,25,27,29,31,33,35,37,39,41,43,45,47,49,51,53,55,57,-1,59,-1,-1,-1,-1,-1,-1,-1,-1,-1,-1,-1,-1,-1,-1,-1,-1,-1,-1,-1,-1,-1,-1,-1,-1,-1,-1,-1,-1,-1,-1],"loss_changes":[9.461856E6,1.6105605E6,1.150244E6,3.1962706E5,1.94564E5,3.86825E5,1.48396E5,5.908853E4,9.4022E4,1.61563E5,3.4167188E4,2.83989E5,1.5040788E5,8.01745E4,1.35662E5,8.743639E3,4.6157797E4,1.04337125E5,1.5484714E4,1.16375875E5,1.916175E5,2.002508E4,1.291398E4,7.210453E4,2.19276E5,7.552231E4,4.1523016E4,5.73555E4,4.5084562E4,0E0,2.21676E5,0E0,0E0,0E0,0E0,0E0,0E0,0E0,0E0,0E0,0E0,0E0,0E0,0E0,0E0,0E0,0E0,0E0,0E0,0E0,0E0,0E0,0E0,0E0,0E0,0E0,0E0,0E0,0E0,0E0,0E0],"parents":[2147483647,0,0,1,1,2,2,3,3,4,4,5,5,6,6,7,7,8,8,9,9,10,10,11,11,12,12,13,13,14,14,15,15,16,16,17,17,18,18,19,19,20,20,21,21,22,22,23,23,24,24,25,25,26,26,27,27,28,28,30,30],"right_children":[2,4,6,8,10,12,14,16,18,20,22,24,26,28,30,32,34,36,38,40,42,44,46,48,50,52,54,56,58,-1,60,-1,-1,-1,-1,-1,-1,-1,-1,-1,-1,-1,-1,-1,-1,-1,-1,-1,-1,-1,-1,-1,-1,-1,-1,-1,-1,-1,-1,-1,-1],"split_conditions":[2.8825E1,2.6215E1,1.1882109E3,2.1175E1,1.3515E2,1.50425E1,6.8325E-1,4.22959E1,1.445E2,1.1995E-1,3.94245E0,1.302E-1,4.375E2,2.8665E1,1.9585E1,1.6215E1,2.0412415E-1,1.0722E1,9.570499E0,2.6744999E1,-6.035534E-1,7.71E-2,4.95E0,1.084892E2,-7.865661E-1,4.24E2,1.00765E3,-9.85665E-2,1.2588994E2,-1.164551E1,2.5529999E1,-2.3760629E-1,-1.417972E0,-2.4848421E-1,7.014924E-1,1.6091441E0,1.384168E1,1.830418E-1,-3.617684E0,-2.1094477E0,2.354882E0,2.5590587E0,3.7338352E0,-4.1984735E0,6.8192136E-1,-1.9579356E0,-6.5087724E0,-7.33463E0,2.670113E-1,3.4413388E0,5.093956E0,-4.1981196E0,5.1980705E0,-4.993626E0,7.093981E-1,4.9050865E0,6.6420608E0,4.6270766E0,-1.306945E0,2.8397907E1,7.0861535E0],"split_indices":[23,23,64,23,63,44,49,64,37,17,25,17,10,60,28,23,16,2,2,60,32,17,18,53,32,5,3,52,16,0,28,0,0,0,0,0,0,0,0,0,0,0,0,0,0,0,0,0,0,0,0,0,0,0,0,0,0,0,0,0,0],"split_type":[0,0,0,0,0,0,0,0,0,0,0,0,0,0,0,0,0,0,0,0,0,0,0,0,0,0,0,0,0,0,0,0,0,0,0,0,0,0,0,0,0,0,0,0,0,0,0,0,0,0,0,0,0,0,0,0,0,0,0,0,0],"sum_hessian":[2.9364E4,1.9135E4,1.0229E4,1.0664E4,8.471E3,5.544E3,4.685E3,5.111E3,5.553E3,8.291E3,1.8E2,5.42E3,1.24E2,1.437E3,3.248E3,8.93E2,4.218E3,5.123E3,4.3E2,2.658E3,5.633E3,1.36E2,4.4E1,5.2E1,5.368E3,5E1,7.4E1,1.141E3,2.96E2,3E0,3.245E3,8.26E2,6.7E1,5.95E2,3.623E3,5.117E3,6E0,4.2E2,1E1,5.9E1,2.599E3,2.547E3,3.086E3,8E0,1.28E2,3.7E1,7E0,1.9E1,3.3E1,9.95E2,4.373E3,1E1,4E1,5.8E1,1.6E1,2.63E2,8.78E2,2.83E2,1.3E1,4E0,3.241E3],"tree_param":{"num_deleted":"0","num_feature":"65","num_nodes":"61","size_leaf_vector":"0"}},{"base_weights":[2.8304409E1,1.6313015E1,5.156465E1,8.648111E0,2.5712954E1,4.0881615E1,6.000716E1,4.5120625E0,1.4543051E1,-3.20754E0,2.6522875E1,-1.4877278E1,4.1945415E1,6.0668835E1,-9.814069E0,1.2799352E0,7.6731873E0,1.4357832E1,1.7384877E2,9.084506E0,-2.3385489E1,2.0892933E1,3.0093077E1,-3.0864521E1,1.3886119E2,-1.856269E1,4.261656E1,3.895275E1,6.2055832E1,-2.746657E1,4.132265E1,1.1154943E0,1.2790842E2,-1.8672152E0,9.476405E0,1.5728717E1,3.1633058E0,2.704443E2,1.930364E1,2.4960667E1,-6.2844963E0,-5.24773E1,8.221343E0,2.0594168E1,1.07672554E2,-7.518173E1,3.035323E1,-1.8249254E1,-1.3581314E2,-2.088565E1,1.6466583E2,1.0539148E1,-6.765126E1,4.1999973E1,1.05115814E2,3.3543854E1,7.3717E1,2.5594019E1,6.2814E1,-4.1997242E1,2.7249887E1,-6.595776E0,7.8085945E1],"categories":[],"categories_nodes":[],"categories_segments":[],"categories_sizes":[],"default_left":[0,0,1,0,1,0,1,1,1,0,0,0,0,1,1,0,0,0,0,0,1,0,0,0,0,1,1,1,0,0,0,0,0,0,0,0,0,0,0,0,0,0,0,0,0,0,0,0,0,0,0,0,0,0,0,0,0,0,0,0,0,0,0],"id":24,"left_children":[1,3,5,7,9,11,13,15,17,19,21,23,25,27,29,31,33,35,37,39,41,43,45,47,49,51,53,55,57,59,61,-1,-1,-1,-1,-1,-1,-1,-1,-1,-1,-1,-1,-1,-1,-1,-1,-1,-1,-1,-1,-1,-1,-1,-1,-1,-1,-1,-1,-1,-1,-1,-1],"loss_changes":[8.155696E6,1.3901195E6,8.94684E5,2.5913688E5,2.03095E5,2.6126E5,2.57182E5,6.3837195E4,1.2683025E5,5.899515E4,1.688345E5,2.082878E5,1.759005E5,1.63304E5,4.8977613E4,6.4220953E4,5.4363312E4,6.715219E4,6.94213E4,3.6268977E4,8.318642E4,8.2692375E4,1.435195E5,9.8142086E4,3.6416844E4,6.9284234E4,1.599425E5,6.0143375E4,1.41312E5,3.29471E4,2.517799E4,0E0,0E0,0E0,0E0,0E0,0E0,0E0,0E0,0E0,0E0,0E0,0E0,0E0,0E0,0E0,0E0,0E0,0E0,0E0,0E0,0E0,0E0,0E0,0E0,0E0,0E0,0E0,0E0,0E0,0E0,0E0,0E0],"parents":[2147483647,0,0,1,1,2,2,3,3,4,4,5,5,6,6,7,7,8,8,9,9,10,10,11,11,12,12,13,13,14,14,15,15,16,16,17,17,18,18,19,19,20,20,21,21,22,22,23,23,24,24,25,25,26,26,27,27,28,28,29,29,30,30],"right_children":[2,4,6,8,10,12,14,16,18,20,22,24,26,28,30,32,34,36,38,40,42,44,46,48,50,52,54,56,58,60,62,-1,-1,-1,-1,-1,-1,-1,-1,-1,-1,-1,-1,-1,-1,-1,-1,-1,-1,-1,-1,-1,-1,-1,-1,-1,-1,-1,-1,-1,-1,-1,-1],"split_conditions":[2.8884998E1,2.6215E1,6.905E2,2.2435001E1,2.9760248E2,2.9785248E2,1.49625E1,5.6145E0,5.57325E0,7.1175674E1,3.5195E-1,1.02775E0,1.3104999E-1,-7.865661E-1,9.63465E-1,1.8622999E0,4E0,1.302E2,1.325E2,1.4666666E2,7.8E2,-5.47795E0,2.815E0,1.395E1,5.655E2,9.87015E-1,8.8575E1,8.01665E-1,2.6175E1,1.16885E0,2.4335E1,1.1154943E-1,1.2790842E1,-1.8672152E-1,9.4764054E-1,1.5728717E0,3.1633058E-1,2.7044432E1,1.930364E0,2.4960668E0,-6.284496E-1,-5.24773E0,8.221343E-1,2.0594168E0,1.0767256E1,-7.518173E0,3.035323E0,-1.8249254E0,-1.3581314E1,-2.088565E0,1.6466583E1,1.0539149E0,-6.765126E0,4.1999974E0,1.0511581E1,3.3543854E0,7.3717003E0,2.559402E0,6.2814E0,-4.199724E0,2.7249887E0,-6.595776E-1,7.8085947E0],"split_indices":[23,23,10,23,46,46,44,34,38,16,49,49,17,32,22,20,10,37,4,37,5,58,9,48,5,38,42,22,60,62,28,0,0,0,0,0,0,0,0,0,0,0,0,0,0,0,0,0,0,0,0,0,0,0,0,0,0,0,0,0,0,0,0],"split_type":[0,0,0,0,0,0,0,0,0,0,0,0,0,0,0,0,0,0,0,0,0,0,0,0,0,0,0,0,0,0,0,0,0,0,0,0,0,0,0,0,0,0,0,0,0,0,0,0,0,0,0,0,0,0,0,0,0,0,0,0,0,0,0],"sum_hessian":[2.9242E4,1.9296E4,9.946E3,1.063E4,8.666E3,4.393E3,5.553E3,6.248E3,4.382E3,2.36E2,8.43E3,8.2E1,4.311E3,5.501E3,5.2E1,3.09E3,3.158E3,4.378E3,4E0,1.47E2,8.9E1,3.274E3,5.156E3,7.5E1,7E0,4.7E1,4.264E3,3.32E2,5.169E3,3.9E1,1.3E1,3.087E3,3E0,5.02E2,2.656E3,3.9E3,4.78E2,2E0,2E0,7.2E1,7.5E1,4.6E1,4.3E1,3.264E3,1E1,1.2E1,5.144E3,6.8E1,7E0,1E0,6E0,3E1,1.7E1,4.224E3,4E1,2.89E2,4.3E1,1.06E2,5.063E3,3.1E1,8E0,6E0,7E0],"tree_param":{"num_deleted":"0","num_feature":"65","num_nodes":"63","size_leaf_vector":"0"}},{"base_weights":[2.54E1,1.4773542E1,4.5707855E1,6.514501E0,2.2201227E1,3.7506836E1,5.394387E1,1.6872216E0,9.694013E0,1.8497606E1,2.7017115E1,-3.1091094E0,3.9597076E1,5.4456383E1,-3.313586E1,1.5733063E0,2.0697333E2,1.0243735E1,-1.6338892E1,-3.8283892E0,1.923485E1,-2.6059763E1,2.7707027E1,-4.859853E0,2.1466226E2,-4.3445423E1,3.9988453E1,4.014111E1,5.677789E1,4.0940178E1,-5.336071E1,-2.193345E0,3.9451983E0,1.0101302E1,8.5734406E1,-3.632451E1,4.2839937E0,7.3619E1,-5.0839596E0,1.5239552E2,1.9063156E1,-3.3492165E1,1.1888749E2,2.4373055E1,3.5917408E1,8.0078964E1,-5.8800836E0,-1.0354508E2,2.0274687E1,2.080425E2,3.973361E1,-7.219905E1,4.3042988E1,-7.177908E1,5.70046E1,-3.9070484E1,8.075854E1,7.4892456E1,-6.842429E1],"categories":[],"categories_nodes":[],"categories_segments":[],"categories_sizes":[],"default_left":[0,1,0,0,0,0,1,1,1,0,0,0,0,0,0,1,0,0,0,0,0,0,1,0,0,0,0,0,0,1,1,0,0,0,0,0,0,0,0,0,0,0,0,0,0,0,0,0,0,0,0,0,0,0,0,0,0,0,0],"id":25,"left_children":[1,3,5,7,9,11,13,15,17,19,21,23,25,27,29,31,-1,33,35,37,39,41,43,45,-1,47,49,51,53,55,57,-1,-1,-1,-1,-1,-1,-1,-1,-1,-1,-1,-1,-1,-1,-1,-1,-1,-1,-1,-1,-1,-1,-1,-1,-1,-1,-1,-1],"loss_changes":[6.32444E6,1.1803275E6,6.78006E5,1.398535E5,1.80199E5,4.286845E5,2.25887E5,8.432888E4,7.879128E4,9.43875E4,1.619165E5,9.559616E4,1.57773E5,1.6362E5,4.7129902E4,3.2341121E4,0E0,5.69925E4,4.7141977E4,1.8266555E4,1.2391575E5,6.5388242E4,1.180885E5,2.1875203E4,0E0,9.017916E4,1.964065E5,2.3130575E5,1.29213E5,2.5456531E4,5.1491312E4,0E0,0E0,0E0,0E0,0E0,0E0,0E0,0E0,0E0,0E0,0E0,0E0,0E0,0E0,0E0,0E0,0E0,0E0,0E0,0E0,0E0,0E0,0E0,0E0,0E0,0E0,0E0,0E0],"parents":[2147483647,0,0,1,1,2,2,3,3,4,4,5,5,6,6,7,7,8,8,9,9,10,10,11,11,12,12,13,13,14,14,15,15,17,17,18,18,19,19,20,20,21,21,22,22,23,23,25,25,26,26,27,27,28,28,29,29,30,30],"right_children":[2,4,6,8,10,12,14,16,18,20,22,24,26,28,30,32,-1,34,36,38,40,42,44,46,-1,48,50,52,54,56,58,-1,-1,-1,-1,-1,-1,-1,-1,-1,-1,-1,-1,-1,-1,-1,-1,-1,-1,-1,-1,-1,-1,-1,-1,-1,-1,-1,-1],"split_conditions":[1.1167E1,7.7384996E0,3.1535E1,6.9279003E0,2.7805E1,9.875E0,1.498E1,7.0868998E0,3.86E2,2E1,2.98155E2,9.03E1,3.772E-1,2.2694999E-1,3.8363E0,4.2675E0,2.0697332E1,-5.47845E0,9.0977E-1,3.13705E-1,1.12E2,3.2165E1,1.65E1,2.2505002E0,2.1466227E1,2.9883252E2,7E0,9.238899E0,2.9697498E2,2.5E0,-8.794264E-1,-2.1933451E-1,3.9451984E-1,1.0101303E0,8.573441E0,-3.6324508E0,4.2839938E-1,7.3619003E0,-5.0839597E-1,1.52395525E1,1.9063157E0,-3.3492165E0,1.1888749E1,2.4373055E0,3.5917408E0,8.007896E0,-5.8800834E-1,-1.0354508E1,2.0274687E0,2.080425E1,3.9733608E0,-7.2199054E0,4.304299E0,-7.1779084E0,5.70046E0,-3.9070485E0,8.075854E0,7.489246E0,-6.8424296E0],"split_indices":[2,34,23,2,23,23,44,38,11,10,46,42,49,17,25,34,0,58,22,38,10,23,26,44,0,46,29,35,46,0,31,0,0,0,0,0,0,0,0,0,0,0,0,0,0,0,0,0,0,0,0,0,0,0,0,0,0,0,0],"split_type":[0,0,0,0,0,0,0,0,0,0,0,0,0,0,0,0,0,0,0,0,0,0,0,0,0,0,0,0,0,0,0,0,0,0,0,0,0,0,0,0,0,0,0,0,0,0,0,0,0,0,0,0,0,0,0,0,0,0,0],"sum_hessian":[2.9309E4,1.9242E4,1.0067E4,9.112E3,1.013E4,5.047E3,5.02E3,3.619E3,5.493E3,5.729E3,4.401E3,2.47E2,4.8E3,4.991E3,2.9E1,3.618E3,1E0,5.38E3,1.13E2,1.83E2,5.546E3,5.6E1,4.345E3,2.46E2,1E0,2.2E1,4.778E3,6.99E2,4.292E3,6E0,2.3E1,1.398E3,2.22E3,5.371E3,9E0,5.7E1,5.6E1,2E0,1.81E2,6E0,5.54E3,5.4E1,2E0,3.093E3,1.252E3,2E0,2.44E2,1.1E1,1.1E1,6E0,4.772E3,1.7E1,6.82E2,7E0,4.285E3,2E0,4E0,2E0,2.1E1],"tree_param":{"num_deleted":"0","num_feature":"65","num_nodes":"59","size_leaf_vector":"0"}},{"base_weights":[2.294302E1,1.3963477E1,4.3166767E1,2.0023802E1,4.8571553E0,3.315921E1,4.8779842E1,1.5533297E1,2.5113985E1,-2.6028483E0,6.426612E0,-1.0367746E0,3.563589E1,4.9121517E1,-4.320446E1,1.5693728E1,-8.069382E1,1.8793673E1,2.8671036E1,-1.9617898E0,-5.5318214E1,5.6540623E0,2.1266718E1,-2.8953886E0,2.0392915E2,3.381041E1,7.080365E1,5.2040325E1,4.1065773E1,-7.902957E1,2.936819E1,1.1995374E1,1.9874392E1,-1.0399037E2,1.609379E1,1.5261826E1,2.5324808E1,2.4877264E1,3.526744E1,-2.1752076E0,1.4851833E2,-1.8871641E1,-9.3961655E1,5.8588676E0,-3.8062447E1,4.5418247E1,4.9788585E0,-4.537662E0,1.7838124E2,-1.941937E1,3.5080624E1,2.2178706E2,6.402098E1,-1.2466856E2,5.215316E1,3.902424E1,7.011444E1,-9.198652E1,5.1183838E1,-9.473111E0,4.3894142E1],"categories":[],"categories_nodes":[],"categories_segments":[],"categories_sizes":[],"default_left":[1,1,0,1,0,0,0,0,1,0,1,0,0,0,0,1,1,0,0,1,0,1,1,0,0,0,0,0,1,1,0,0,0,0,0,0,0,0,0,0,0,0,0,0,0,0,0,0,0,0,0,0,0,0,0,0,0,0,0,0,0],"id":26,"left_children":[1,3,5,7,9,11,13,15,17,19,21,23,25,27,29,31,33,35,37,39,41,43,45,47,-1,49,51,53,55,57,59,-1,-1,-1,-1,-1,-1,-1,-1,-1,-1,-1,-1,-1,-1,-1,-1,-1,-1,-1,-1,-1,-1,-1,-1,-1,-1,-1,-1,-1,-1],"loss_changes":[5.349335E6,1.1258885E6,5.072E5,2.796145E5,9.5484984E4,2.75965E5,1.84439E5,1.0178225E5,1.2850575E5,4.781085E4,7.711759E4,8.478097E4,1.9263925E5,1.33769E5,5.9519277E4,1.0027725E5,2.6476594E4,4.7362188E4,9.09905E4,