{"learner":{"attributes":{"best_iteration":"28","best_ntree_limit":"29","best_score":"174.89136920296465","scikit_learn":"{\"n_estimators\": 500, \"objective\": \"reg:squarederror\", \"max_depth\": 5, \"max_leaves\": null, \"max_bin\": null, \"grow_policy\": null, \"learning_rate\": null, \"verbosity\": null, \"booster\": null, \"tree_method\": null, \"gamma\": null, \"min_child_weight\": null, \"max_delta_step\": null, \"subsample\": 0.7, \"sampling_method\": null, \"colsample_bytree\": 0.8, \"colsample_bylevel\": null, \"colsample_bynode\": null, \"reg_alpha\": null, \"reg_lambda\": null, \"scale_pos_weight\": null, \"base_score\": null, \"missing\": NaN, \"num_parallel_tree\": null, \"random_state\": null, \"n_jobs\": null, \"monotone_constraints\": null, \"interaction_constraints\": null, \"importance_type\": null, \"gpu_id\": null, \"validate_parameters\": null, \"predictor\": null, \"enable_categorical\": false, \"feature_types\": null, \"max_cat_to_onehot\": null, \"max_cat_threshold\": null, \"eval_metric\": null, \"early_stopping_rounds\": null, \"callbacks\": null, \"kwargs\": {\"eta\": 0.1}, \"evals_result_\": {\"validation_0\": {\"rmse\": [283.25818823718606, 273.1980942164815, 256.6621231122575, 240.62784650206183, 227.49077071117537, 217.07429363255685, 207.14837232141326, 199.22667373010682, 193.69469362737354, 188.97011718201432, 185.03977047517876, 183.0621878014286, 180.46234032110902, 179.885026356268, 180.18650115101443, 179.3277703613838, 178.88044309939914, 178.41557195726736, 178.16007311481115, 177.24699906181473, 176.88503136798508, 176.54615329751624, 176.35203750466442, 175.88466947643585, 175.88743636441058, 175.55412139278548, 175.70936807930963, 174.91144055636866, 174.89136920296465, 174.9332619446683, 176.42234545662697, 176.60165779091267, 176.74541348979994, 176.88348810300886, 176.9559314660626, 177.0986104967844, 177.13861404709542, 176.73793129797454, 176.4578131706284, 176.41191674542554, 176.34646709920426, 176.46223315499827, 176.59450440079027, 176.66589932548487, 176.61619230539497, 176.71472967449617, 177.0602764399548, 177.18053520874113, 177.4239203289777, 177.40015959255484, 177.45009506029655, 177.58188281896966, 177.72671820893387, 177.76629014092862, 177.6784418095848, 177.81822903756438, 177.83286171623956, 177.79042001574814, 177.84236056315305, 177.89236882753386, 177.57834670983323, 177.7310297051088, 177.82712285370766, 177.87148475240878, 177.60126050065915, 177.58286393609657, 177.53874289818572, 177.56374643584928, 177.4372060873042, 177.5710797395553, 177.54865214441068, 177.3745335975718, 177.34199283873298, 177.43331433496436, 177.57622925803994, 177.59547836761328, 177.88794261096007, 177.84070991045002, 177.84394831992861]}}, \"_estimator_type\": \"regressor\"}"},"feature_names":["season","month_sin","wind_speed_max","air_pressure","act_position","power_24h_max","day_cos","quarter_cos","sonic_temperature","rotor_rpm_min","power_1h_max","power_1h_mean","year","hour_sin","quarter","ws_v","power_1h_std","tilt_x_std","wind_speed_nacelle_min","season_cos","wind_speed_std","quarter_sin","ust","rotor_rpm_max","month_cos","tilt_y","hour","ws_w","rotor_rpm","wind_speed_nacelle","power_12h_max","day_sin","hour_cos","battery_v","sonic_wind_speed","wind_speed","power_1h_min","wind_direction","tke","power_12h_std","hs","power_24h_mean","relative_humidity","wind_speed_min","wind_direction_std","hs_flag","air_temperature","day","wind_speed_nacelle_max","tilt_y_std","ust_flag","lmo","ws_w_corrected","power_24h_std","power_12h_min","season_sin","power_24h_min","month","tilt_x","ws_u","logger_temperature","power_12h_mean","air_density","sonic_wind_direction","wind_speed_cube"],"feature_types":["int","float","float","float","float","float","float","float","float","float","float","float","int","float","int","float","float","float","float","float","float","float","float","float","float","float","int","float","float","float","float","float","float","float","float","float","float","float","float","float","float","float","float","float","float","float","float","int","float","float","float","float","float","float","float","float","float","int","float","float","float","float","float","float","float"],"gradient_booster":{"model":{"gbtree_model_param":{"num_parallel_tree":"1","num_trees":"79","size_leaf_vector":"0"},"tree_info":[0,0,0,0,0,0,0,0,0,0,0,0,0,0,0,0,0,0,0,0,0,0,0,0,0,0,0,0,0,0,0,0,0,0,0,0,0,0,0,0,0,0,0,0,0,0,0,0,0,0,0,0,0,0,0,0,0,0,0,0,0,0,0,0,0,0,0,0,0,0,0,0,0,0,0,0,0,0,0],"trees":[{"base_weights":[3.498886E2,2.3481061E2,4.812038E2,3.0925006E2,1.4653337E2,4.1759274E2,6.259202E2,2.6437177E2,3.4665775E2,7.047557E1,1.764143E2,4.7768225E2,3.6501355E2,6.593463E2,4.592777E2,2.5506464E2,3.716189E2,3.2176337E2,4.0175885E2,1.0536431E2,5.5477097E1,2.309358E2,1.5954787E2,4.2315884E2,5.2302264E2,3.0766077E2,4.1059323E2,6.817625E2,5.2728766E2,2.8467755E2,5.0096295E2,1.939313E2,2.6872784E2,6.682375E2,3.2596082E2,2.9623566E2,3.6856177E2,3.741307E2,4.892851E2,7.096168E1,1.3318806E2,5.135626E1,1.7735869E2,2.9155627E2,1.9230067E2,1.0461743E2,1.7124654E2,6.554398E2,4.0987265E2,4.4663498E2,5.5460126E2,2.9668292E2,3.7788907E2,4.447996E2,3.396343E2,6.879796E2,1.388E2,5.572089E2,3.4306082E2,3.719709E2,2.701389E1,4.3551047E2,5.922457E2],"categories":[],"categories_nodes":[],"categories_segments":[],"categories_sizes":[],"default_left":[0,1,0,1,1,0,1,1,1,0,0,1,1,1,1,1,0,1,1,0,1,1,0,1,1,1,1,1,1,1,1,0,0,0,0,0,0,0,0,0,0,0,0,0,0,0,0,0,0,0,0,0,0,0,0,0,0,0,0,0,0,0,0],"id":0,"left_children":[1,3,5,7,9,11,13,15,17,19,21,23,25,27,29,31,33,35,37,39,41,43,45,47,49,51,53,55,57,59,61,-1,-1,-1,-1,-1,-1,-1,-1,-1,-1,-1,-1,-1,-1,-1,-1,-1,-1,-1,-1,-1,-1,-1,-1,-1,-1,-1,-1,-1,-1,-1,-1],"loss_changes":[4.4454246E8,1.0301907E8,1.2624179E8,1.4191552E7,1.6298576E7,2.9995264E7,2.305856E7,3.770112E6,6.23136E6,1.054316E6,4.700848E6,1.0786944E7,1.3197888E7,9.974784E6,4.98128E6,2.926496E6,3.939892E6,3.712512E6,3.296704E6,5.725325E5,7.035905E5,2.789556E6,2.512704E6,5.986944E6,5.606784E6,1.631024E6,6.734976E6,9.96736E6,2.625632E6,3.093892E6,3.129712E6,0E0,0E0,0E0,0E0,0E0,0E0,0E0,0E0,0E0,0E0,0E0,0E0,0E0,0E0,0E0,0E0,0E0,0E0,0E0,0E0,0E0,0E0,0E0,0E0,0E0,0E0,0E0,0E0,0E0,0E0,0E0,0E0],"parents":[2147483647,0,0,1,1,2,2,3,3,4,4,5,5,6,6,7,7,8,8,9,9,10,10,11,11,12,12,13,13,14,14,15,15,16,16,17,17,18,18,19,19,20,20,21,21,22,22,23,23,24,24,25,25,26,26,27,27,28,28,29,29,30,30],"right_children":[2,4,6,8,10,12,14,16,18,20,22,24,26,28,30,32,34,36,38,40,42,44,46,48,50,52,54,56,58,60,62,-1,-1,-1,-1,-1,-1,-1,-1,-1,-1,-1,-1,-1,-1,-1,-1,-1,-1,-1,-1,-1,-1,-1,-1,-1,-1,-1,-1,-1,-1,-1,-1],"split_conditions":[8.3962E0,5E-1,7.565E2,2.595E2,8.519444E1,2.8425E1,2.8244999E1,9.529146E-1,1.2940952E-1,-4.965E2,-7.4774E0,1.5E0,1.5E0,7.865661E-1,-9.177784E-1,4.275E2,4.4971687E1,2.5E0,2.5E0,3.25E1,-5E-1,-4.3982893E-1,2.335E2,-9.9359244E-1,-6.8808264E-1,2.05E1,1.825E2,3.68E2,5.5E0,3.02937E2,6.0575696E2,1.9393131E1,2.6872786E1,6.682375E1,3.259608E1,2.9623566E1,3.685618E1,3.741307E1,4.892851E1,7.096168E0,1.3318807E1,5.135626E0,1.7735868E1,2.9155628E1,1.9230068E1,1.0461743E1,1.7124655E1,6.554398E1,4.0987267E1,4.4663498E1,5.5460125E1,2.9668293E1,3.7788906E1,4.447996E1,3.3963432E1,6.8797966E1,1.388E1,5.5720894E1,3.4306084E1,3.719709E1,2.701389E0,4.355105E1,5.9224575E1],"split_indices":[35,55,10,10,41,60,60,31,32,4,59,0,0,13,31,5,39,0,0,36,7,31,30,31,31,26,54,56,26,8,41,0,0,0,0,0,0,0,0,0,0,0,0,0,0,0,0,0,0,0,0,0,0,0,0,0,0,0,0,0,0,0,0],"split_type":[0,0,0,0,0,0,0,0,0,0,0,0,0,0,0,0,0,0,0,0,0,0,0,0,0,0,0,0,0,0,0,0,0,0,0,0,0,0,0,0,0,0,0,0,0,0,0,0,0,0,0,0,0,0,0,0,0,0,0,0,0,0,0],"sum_hessian":[2.9424E4,1.5683E4,1.3741E4,8.507E3,7.176E3,9.548E3,4.193E3,3.871E3,4.636E3,2.025E3,5.151E3,4.452E3,5.096E3,3.49E3,7.03E2,3.565E3,3.06E2,3.198E3,1.438E3,6.07E2,1.418E3,1.214E3,3.937E3,2.026E3,2.426E3,2.26E3,2.836E3,2.98E3,5.1E2,1.37E2,5.66E2,6.54E2,2.911E3,3.9E1,2.67E2,2.074E3,1.124E3,1.097E3,3.41E2,2.73E2,3.34E2,1.373E3,4.5E1,4.7E2,7.44E2,6.93E2,3.244E3,1.07E2,1.919E3,7.14E2,1.712E3,1.959E3,3.01E2,1.91E3,9.26E2,2.946E3,3.4E1,4.37E2,7.3E1,1.02E2,3.5E1,3.33E2,2.33E2],"tree_param":{"num_deleted":"0","num_feature":"65","num_nodes":"63","size_leaf_vector":"0"}},{"base_weights":[3.1475833E2,2.0811176E2,4.3386057E2,1.055379E2,2.4966757E2,3.7057507E2,5.5522626E2,1.461044E2,6.2569504E1,2.2616199E2,3.356531E2,4.0388428E2,3.2127048E2,5.9067267E2,4.2922858E2,2.1207875E2,1.2308629E2,4.8037945E1,1.02279785E2,2.642965E2,1.9516528E2,6.378905E2,3.2547592E2,3.5279868E2,4.4432303E2,2.6746307E2,3.5520206E2,3.7801025E2,6.043749E2,4.7173236E2,3.0392197E2,3.3455072E2,1.8565189E2,9.751214E1,1.6875926E2,1.1034404E1,5.2984978E1,1.7852852E2,5.8961193E1,2.0587216E2,2.7790363E2,1.778463E2,2.4758597E2,6.554368E2,3.2394336E2,1.12233154E2,3.3721643E2,3.851733E2,2.6042285E2,4.72033E2,3.7240018E2,2.249716E2,2.956767E2,3.1058044E2,3.934822E2,2.0233546E2,5.052045E2,6.329296E2,5.121524E2,4.9800848E2,3.616878E2,5.1519253E1,3.780526E2],"categories":[],"categories_nodes":[],"categories_segments":[],"categories_sizes":[],"default_left":[0,1,1,0,1,1,0,0,1,0,0,1,1,1,1,0,1,1,0,1,1,0,0,1,1,1,0,1,1,0,1,0,0,0,0,0,0,0,0,0,0,0,0,0,0,0,0,0,0,0,0,0,0,0,0,0,0,0,0,0,0,0,0],"id":1,"left_children":[1,3,5,7,9,11,13,15,17,19,21,23,25,27,29,31,33,35,37,39,41,43,45,47,49,51,53,55,57,59,61,-1,-1,-1,-1,-1,-1,-1,-1,-1,-1,-1,-1,-1,-1,-1,-1,-1,-1,-1,-1,-1,-1,-1,-1,-1,-1,-1,-1,-1,-1,-1,-1],"loss_changes":[3.7288653E8,6.601747E7,1.0633318E8,7.780668E6,2.2209152E7,1.4848128E7,2.09696E7,3.463652E6,1.248445E6,1.0187296E7,7.06696E6,1.1079296E7,6.627488E6,1.0570752E7,5.43296E6,1.857164E6,1.976232E6,2.90843E5,1.9085095E6,3.028128E6,4.297424E6,2.06334E5,5.695328E6,7.10112E6,5.86688E6,1.645424E6,3.7296E6,4.970054E6,8.840064E6,2.07528E6,4.99501E6,0E0,0E0,0E0,0E0,0E0,0E0,0E0,0E0,0E0,0E0,0E0,0E0,0E0,0E0,0E0,0E0,0E0,0E0,0E0,0E0,0E0,0E0,0E0,0E0,0E0,0E0,0E0,0E0,0E0,0E0,0E0,0E0],"parents":[2147483647,0,0,1,1,2,2,3,3,4,4,5,5,6,6,7,7,8,8,9,9,10,10,11,11,12,12,13,13,14,14,15,15,16,16,17,17,18,18,19,19,20,20,21,21,22,22,23,23,24,24,25,25,26,26,27,27,28,28,29,29,30,30],"right_children":[2,4,6,8,10,12,14,16,18,20,22,24,26,28,30,32,34,36,38,40,42,44,46,48,50,52,54,56,58,60,62,-1,-1,-1,-1,-1,-1,-1,-1,-1,-1,-1,-1,-1,-1,-1,-1,-1,-1,-1,-1,-1,-1,-1,-1,-1,-1,-1,-1,-1,-1,-1,-1],"split_conditions":[3.3075E2,-5E-1,1.225E1,-5.425E2,2.5E0,1.2775E1,1.2635E1,-7.51495E0,1.0369792E2,-7.1401E0,1.5492361E2,2.5E0,1.5E0,2.5E0,4.381346E-1,1.7825E1,1.7148E0,8.95E1,5E-1,-9.142429E-1,6.830127E-1,2.0244737E0,5E-1,5E-1,6.035534E-1,6.830127E-1,1.904726E2,6.830127E-1,6.035534E-1,3.86805E0,6.0896546E-1,3.3455074E1,1.856519E1,9.751214E0,1.6875927E1,1.1034404E0,5.2984977E0,1.7852852E1,5.8961196E0,2.0587217E1,2.7790363E1,1.778463E1,2.4758596E1,6.5543686E1,3.2394337E1,1.1223315E1,3.3721645E1,3.851733E1,2.6042286E1,4.72033E1,3.7240017E1,2.249716E1,2.956767E1,3.1058044E1,3.934822E1,2.0233547E1,5.052045E1,6.3292965E1,5.121524E1,4.980085E1,3.616878E1,5.1519256E0,3.7805264E1],"split_indices":[11,7,48,4,0,33,33,59,41,59,41,14,0,14,6,40,40,5,54,6,24,39,4,0,13,24,53,24,13,38,6,0,0,0,0,0,0,0,0,0,0,0,0,0,0,0,0,0,0,0,0,0,0,0,0,0,0,0,0,0,0,0,0],"split_type":[0,0,0,0,0,0,0,0,0,0,0,0,0,0,0,0,0,0,0,0,0,0,0,0,0,0,0,0,0,0,0,0,0,0,0,0,0,0,0,0,0,0,0,0,0,0,0,0,0,0,0,0,0,0,0,0,0,0,0,0,0,0,0],"sum_hessian":[2.9363E4,1.5493E4,1.387E4,4.468E3,1.1025E4,9.119E3,4.751E3,2.297E3,2.171E3,8.661E3,2.364E3,5.438E3,3.681E3,3.705E3,1.046E3,5.92E2,1.705E3,1.591E3,5.8E2,3.88E3,4.781E3,7.5E1,2.289E3,2.407E3,3.031E3,1.427E3,2.254E3,2.26E2,3.479E3,7.79E2,2.67E2,1.03E2,4.89E2,1.095E3,6.1E2,1.88E2,1.403E3,2.09E2,3.71E2,7.36E2,3.144E3,3.597E3,1.184E3,7E1,5E0,1.2E2,2.169E3,1.78E3,6.27E2,2.184E3,8.47E2,5.73E2,8.54E2,1.045E3,1.209E3,9.6E1,1.3E2,2.652E3,8.27E2,6.26E2,1.53E2,6.1E1,2.06E2],"tree_param":{"num_deleted":"0","num_feature":"65","num_nodes":"63","size_leaf_vector":"0"}},{"base_weights":[2.8270093E2,2.0183063E2,4.0769098E2,2.6025952E2,1.2051409E2,4.7350858E2,3.170612E2,2.187739E2,2.9219153E2,5.2809223E1,1.4280153E2,4.1901538E2,5.6600085E2,3.6334796E2,2.8343213E2,2.690066E2,2.0225722E2,3.281852E2,2.6806732E2,7.8450424E1,4.261783E1,1.1424933E2,1.6620312E2,4.489333E2,3.646647E2,5.7347675E2,3.6301437E2,3.3696872E2,4.431834E2,2.5981485E2,3.533111E2,1.9300166E2,3.184792E2,1.7290723E2,2.3403688E2,3.5496237E2,2.8650818E2,2.3877498E2,2.997747E2,2.4007137E1,9.053518E1,4.0416237E1,1.3564551E2,6.938535E1,1.2637766E2,1.913581E2,1.2758491E2,4.6163245E2,3.3568674E2,2.8897034E2,4.1291736E2,5.4444525E2,6.078301E2,4.7047348E2,2.4510033E2,3.8842484E2,2.9607172E2,4.5355212E2,-5.898555E1,1.9878893E2,2.8670248E2,2.9840067E2,4.3205414E2],"categories":[],"categories_nodes":[],"categories_segments":[],"categories_sizes":[],"default_left":[0,1,0,1,1,0,1,1,0,0,0,1,1,1,1,0,1,1,0,1,1,0,1,1,0,0,0,1,1,1,1,0,0,0,0,0,0,0,0,0,0,0,0,0,0,0,0,0,0,0,0,0,0,0,0,0,0,0,0,0,0,0,0],"id":2,"left_children":[1,3,5,7,9,11,13,15,17,19,21,23,25,27,29,31,33,35,37,39,41,43,45,47,49,51,53,55,57,59,61,-1,-1,-1,-1,-1,-1,-1,-1,-1,-1,-1,-1,-1,-1,-1,-1,-1,-1,-1,-1,-1,-1,-1,-1,-1,-1,-1,-1,-1,-1,-1,-1],"loss_changes":[2.9473715E8,8.411776E7,6.819136E7,1.3587328E7,1.1169384E7,3.3204608E7,7.404416E6,3.667504E6,4.965632E6,4.764395E5,3.70404E6,6.631552E6,3.52032E6,4.117408E6,4.525872E6,4.101032E6,3.112192E6,2.49968E6,3.169888E6,3.4061025E5,2.640465E5,1.358614E6,2.948184E6,3.715072E6,5.319184E6,2.03072E6,1.025072E6,3.098416E6,2.630184E6,3.380592E6,2.915032E6,0E0,0E0,0E0,0E0,0E0,0E0,0E0,0E0,0E0,0E0,0E0,0E0,0E0,0E0,0E0,0E0,0E0,0E0,0E0,0E0,0E0,0E0,0E0,0E0,0E0,0E0,0E0,0E0,0E0,0E0,0E0,0E0],"parents":[2147483647,0,0,1,1,2,2,3,3,4,4,5,5,6,6,7,7,8,8,9,9,10,10,11,11,12,12,13,13,14,14,15,15,16,16,17,17,18,18,19,19,20,20,21,21,22,22,23,23,24,24,25,25,26,26,27,27,28,28,29,29,30,30],"right_children":[2,4,6,8,10,12,14,16,18,20,22,24,26,28,30,32,34,36,38,40,42,44,46,48,50,52,54,56,58,60,62,-1,-1,-1,-1,-1,-1,-1,-1,-1,-1,-1,-1,-1,-1,-1,-1,-1,-1,-1,-1,-1,-1,-1,-1,-1,-1,-1,-1,-1,-1,-1,-1],"split_conditions":[7.2433997E2,5E-1,2.8244999E1,2.785E2,7.984722E1,1.10529995E1,-3.4552336E-1,-5E-1,2.8515E1,-4.965E2,6.158675E0,-2.5E-1,2.5E-1,5.205E2,5.7119794E2,1.065E2,-5.058416E-2,7.865661E-1,7.975E2,-6.480305E-1,9.330127E-1,2.335E2,2.493665E-1,9.159756E-1,2.989075E2,7.605E2,1.15975E0,-6.830127E-1,3.0058002E2,-7.867185E-1,1.2940952E-1,1.9300167E1,3.184792E1,1.7290724E1,2.3403688E1,3.549624E1,2.8650818E1,2.3877499E1,2.9977468E1,2.4007137E0,9.053518E0,4.0416236E0,1.3564551E1,6.938535E0,1.2637767E1,1.9135809E1,1.2758491E1,4.6163246E1,3.3568676E1,2.8897034E1,4.1291737E1,5.4444527E1,6.078301E1,4.7047348E1,2.4510033E1,3.8842484E1,2.9607172E1,4.5355213E1,-5.8985553E0,1.9878893E1,2.8670248E1,2.9840067E1,4.3205414E1],"split_indices":[64,55,60,10,41,35,6,55,60,4,35,1,1,36,41,4,31,13,5,31,1,30,6,13,46,36,62,1,46,31,13,0,0,0,0,0,0,0,0,0,0,0,0,0,0,0,0,0,0,0,0,0,0,0,0,0,0,0,0,0,0,0,0],"split_type":[0,0,0,0,0,0,0,0,0,0,0,0,0,0,0,0,0,0,0,0,0,0,0,0,0,0,0,0,0,0,0,0,0,0,0,0,0,0,0,0,0,0,0,0,0,0,0,0,0,0,0,0,0,0,0,0,0,0,0,0,0,0,0],"sum_hessian":[2.9166E4,1.771E4,1.1456E4,1.0304E4,7.406E3,6.634E3,4.822E3,4.485E3,5.819E3,1.835E3,5.571E3,4.178E3,2.456E3,2.025E3,2.797E3,1.106E3,3.379E3,2.33E3,3.489E3,5.2E2,1.315E3,2.512E3,3.059E3,2.69E3,1.488E3,2.367E3,8.9E1,1.526E3,4.99E2,2.094E3,7.03E2,4.38E2,6.68E2,1.76E3,1.619E3,1.414E3,9.16E2,1.818E3,1.671E3,9.5E1,4.25E2,1.286E3,2.9E1,5.36E2,1.976E3,1.85E3,1.209E3,2.416E3,2.74E2,5.82E2,9.06E2,1.292E3,1.075E3,4.5E1,4.4E1,6.72E2,8.54E2,4.89E2,1E1,6.43E2,1.451E3,4.17E2,2.86E2],"tree_param":{"num_deleted":"0","num_feature":"65","num_nodes":"63","size_leaf_vector":"0"}},{"base_weights":[2.5542412E2,1.7428748E2,3.58177E2,2.2678691E2,1.0920745E2,3.1330066E2,4.6593018E2,2.0292744E2,2.759233E2,4.5268696E1,1.3029468E2,2.8500467E2,3.659526E2,3.588687E2,4.952568E2,1.785812E2,2.2341118E2,2.1220337E2,3.035622E2,2.709684E1,5.449093E1,1.0730093E2,1.724044E2,2.3483072E2,3.2153537E2,3.863738E2,1.8889145E2,1.764509E2,3.8871796E2,3.6660812E2,5.2011597E2,1.700026E2,2.4998822E2,2.0781458E2,2.6937213E2,2.6541293E2,7.110368E1,3.2609808E2,2.1995053E2,1.2912811E1,6.956453E1,6.58321E1,3.236859E1,9.981985E1,1.9974615E2,1.2019209E2,2.0061809E2,7.611021E1,2.412667E2,2.9408115E2,3.6255225E2,2.6484473E2,3.9514426E2,1.6016602E2,6.053066E2,2.3034296E2,-6.673495E1,4.0261407E2,1.1199729E2,4.7957065E2,2.9954984E2,5.230152E2,-1.22164116E2],"categories":[],"categories_nodes":[],"categories_segments":[],"categories_sizes":[],"default_left":[1,1,1,1,1,1,1,0,1,1,1,1,1,1,1,1,1,1,0,1,0,1,1,1,1,0,0,1,1,0,1,0,0,0,0,0,0,0,0,0,0,0,0,0,0,0,0,0,0,0,0,0,0,0,0,0,0,0,0,0,0,0,0],"id":3,"left_children":[1,3,5,7,9,11,13,15,17,19,21,23,25,27,29,31,33,35,37,39,41,43,45,47,49,51,53,55,57,59,61,-1,-1,-1,-1,-1,-1,-1,-1,-1,-1,-1,-1,-1,-1,-1,-1,-1,-1,-1,-1,-1,-1,-1,-1,-1,-1,-1,-1,-1,-1,-1,-1],"loss_changes":[2.4377894E8,5.5820576E7,6.225216E7,1.0549248E7,9.836624E6,1.347264E7,1.1728192E7,2.998688E6,5.138016E6,3.0218775E5,5.29628E6,1.0797152E7,1.1432512E7,4.390888E6,9.320448E6,1.665968E6,2.313168E6,6.715672E6,3.806096E6,3.6774784E5,2.99192E5,2.437284E6,2.829288E6,2.538512E6,3.755872E6,2.9352E6,3.862373E6,1.5487485E6,2.658176E6,3.530256E6,4.700544E6,0E0,0E0,0E0,0E0,0E0,0E0,0E0,0E0,0E0,0E0,0E0,0E0,0E0,0E0,0E0,0E0,0E0,0E0,0E0,0E0,0E0,0E0,0E0,0E0,0E0,0E0,0E0,0E0,0E0,0E0,0E0,0E0],"parents":[2147483647,0,0,1,1,2,2,3,3,4,4,5,5,6,6,7,7,8,8,9,9,10,10,11,11,12,12,13,13,14,14,15,15,16,16,17,17,18,18,19,19,20,20,21,21,22,22,23,23,24,24,25,25,26,26,27,27,28,28,29,29,30,30],"right_children":[2,4,6,8,10,12,14,16,18,20,22,24,26,28,30,32,34,36,38,40,42,44,46,48,50,52,54,56,58,60,62,-1,-1,-1,-1,-1,-1,-1,-1,-1,-1,-1,-1,-1,-1,-1,-1,-1,-1,-1,-1,-1,-1,-1,-1,-1,-1,-1,-1,-1,-1,-1,-1],"split_conditions":[1.025E1,5E-1,1.28096E3,1.2940952E-1,7.7447914E1,3.7940952E-1,3.7940952E-1,2.5545E1,8.768451E1,3.722079E1,3.7940952E-1,2.5E0,5E-1,5.5E0,1.5E0,2.75E1,1.9457574E2,6.830127E-1,3.7992358E2,-1.3199499E-1,-5.5935497E0,1.16125E2,1.90885E-1,-5E-1,2.05861E2,1.00315E3,1.31E2,4.5E0,6.830127E-1,4.2872916E2,3.8E2,1.700026E1,2.4998823E1,2.0781458E1,2.6937214E1,2.6541294E1,7.1103683E0,3.260981E1,2.1995054E1,1.2912811E0,6.956453E0,6.58321E0,3.236859E0,9.981985E0,1.9974615E1,1.201921E1,2.006181E1,7.6110206E0,2.4126669E1,2.9408115E1,3.6255226E1,2.6484472E1,3.9514427E1,1.6016602E1,6.053066E1,2.3034296E1,-6.673495E0,4.026141E1,1.1199729E1,4.7957066E1,2.9954985E1,5.230152E1,-1.2216412E1],"split_indices":[48,55,64,32,41,32,32,23,53,53,32,0,55,47,0,47,53,1,61,52,58,40,22,7,53,3,56,47,1,41,56,0,0,0,0,0,0,0,0,0,0,0,0,0,0,0,0,0,0,0,0,0,0,0,0,0,0,0,0,0,0,0,0],"split_type":[0,0,0,0,0,0,0,0,0,0,0,0,0,0,0,0,0,0,0,0,0,0,0,0,0,0,0,0,0,0,0,0,0,0,0,0,0,0,0,0,0,0,0,0,0,0,0,0,0,0,0,0,0,0,0,0,0,0,0,0,0,0,0],"sum_hessian":[2.9247E4,1.6344E4,1.2903E4,9.045E3,7.299E3,9.112E3,3.791E3,6.092E3,2.953E3,1.811E3,5.488E3,5.931E3,3.181E3,8.18E2,2.973E3,2.788E3,3.304E3,8.96E2,2.057E3,6.11E2,1.2E3,3.552E3,1.936E3,2.502E3,3.429E3,2.851E3,3.3E2,1.16E2,7.02E2,4.84E2,2.489E3,2.492E3,2.96E2,2.471E3,8.33E2,6.5E2,2.46E2,1.618E3,4.39E2,4.59E2,1.52E2,7.92E2,4.08E2,3.288E3,2.64E2,6.81E2,1.255E3,9.8E1,2.404E3,2.059E3,1.37E3,1.94E2,2.657E3,3.1E2,2E1,9.5E1,2.1E1,6.68E2,3.4E1,1.78E2,3.06E2,2.478E3,1.1E1],"tree_param":{"num_deleted":"0","num_feature":"65","num_nodes":"63","size_leaf_vector":"0"}},{"base_weights":[2.2919823E2,1.7552184E2,3.6048584E2,2.26497E2,1.18682045E2,2.8892932E2,4.166015E2,2.7308807E2,1.9912846E2,7.7780304E1,1.5381357E2,2.1889519E2,3.1795154E2,4.4116562E2,2.8036838E2,2.9132883E2,2.0733908E2,1.787497E2,2.3216702E2,6.1710197E1,1.53121E2,1.9456543E2,1.2192632E2,1.6865549E2,2.5400374E2,2.2751266E2,3.3803674E2,3.989744E2,4.766036E2,3.1092313E2,1.0615733E2,2.6481662E2,3.309817E2,1.6889638E2,2.6590125E2,1.5513017E2,2.1305429E2,2.4785643E2,1.8790022E2,8.915031E1,4.1544342E1,3.919385E1,2.1098302E2,1.4402182E2,2.240573E2,9.296133E1,1.5975018E2,1.96249E2,5.673136E1,2.602967E2,-4.687227E1,2.9152933E2,-7.3509197E0,3.469769E2,1.8114336E2,2.9025952E2,4.1176675E2,4.834411E2,6.807096E1,1.9074002E2,3.5040042E2,1.6874228E2,2.1802996E1],"categories":[],"categories_nodes":[],"categories_segments":[],"categories_sizes":[],"default_left":[1,1,1,0,1,1,1,1,0,1,1,1,1,0,0,1,1,1,1,0,1,0,0,1,1,1,0,0,1,0,1,0,0,0,0,0,0,0,0,0,0,0,0,0,0,0,0,0,0,0,0,0,0,0,0,0,0,0,0,0,0,0,0],"id":4,"left_children":[1,3,5,7,9,11,13,15,17,19,21,23,25,27,29,31,33,35,37,39,41,43,45,47,49,51,53,55,57,59,61,-1,-1,-1,-1,-1,-1,-1,-1,-1,-1,-1,-1,-1,-1,-1,-1,-1,-1,-1,-1,-1,-1,-1,-1,-1,-1,-1,-1,-1,-1,-1,-1],"loss_changes":[2.0547085E8,5.9961216E7,3.386227E7,1.38624E7,1.4057136E7,7.497568E6,1.5741888E7,4.780032E6,4.590016E6,5.470328E6,6.819256E6,1.886804E6,4.700448E6,5.812928E6,3.8368E6,3.231248E6,1.936228E6,3.41784E6,1.77376E6,2.061411E6,5.232412E6,3.411072E6,3.224744E6,1.387902E6,1.22776E6,7.234066E6,2.952864E6,2.438016E6,6.048224E6,2.865264E6,5.77045E5,0E0,0E0,0E0,0E0,0E0,0E0,0E0,0E0,0E0,0E0,0E0,0E0,0E0,0E0,0E0,0E0,0E0,0E0,0E0,0E0,0E0,0E0,0E0,0E0,0E0,0E0,0E0,0E0,0E0,0E0,0E0,0E0],"parents":[2147483647,0,0,1,1,2,2,3,3,4,4,5,5,6,6,7,7,8,8,9,9,10,10,11,11,12,12,13,13,14,14,15,15,16,16,17,17,18,18,19,19,20,20,21,21,22,22,23,23,24,24,25,25,26,26,27,27,28,28,29,29,30,30],"right_children":[2,4,6,8,10,12,14,16,18,20,22,24,26,28,30,32,34,36,38,40,42,44,46,48,50,52,54,56,58,60,62,-1,-1,-1,-1,-1,-1,-1,-1,-1,-1,-1,-1,-1,-1,-1,-1,-1,-1,-1,-1,-1,-1,-1,-1,-1,-1,-1,-1,-1,-1,-1,-1],"split_conditions":[1.115E1,-7.35205E0,3.7940952E-1,2.8515E1,-2.5E-1,2.5E0,2.5E-1,7.865661E-1,7.975E2,1.5E0,6.830127E-1,-5.058416E-2,5.5E0,1.3489E1,8.225E2,1.95E1,3.5E0,1.85E1,8.14E2,-5.455E2,-6.8808264E-1,9.35E1,3.97085E0,1.16415E0,4.62E2,7.867185E-1,4.35665E0,2.6665E1,3.7E2,9.45E1,3.029715E2,2.6481663E1,3.309817E1,1.6889639E1,2.6590124E1,1.5513018E1,2.130543E1,2.4785643E1,1.8790022E1,8.9150305E0,4.154434E0,3.9193852E0,2.1098303E1,1.4402183E1,2.240573E1,9.296133E0,1.59750185E1,1.9624899E1,5.673136E0,2.6029669E1,-4.687227E0,2.9152933E1,-7.35092E-1,3.469769E1,1.8114336E1,2.9025953E1,4.1176678E1,4.8344112E1,6.807096E0,1.9074003E1,3.5040043E1,1.6874228E1,2.1802995E0],"split_indices":[48,59,32,60,24,0,1,13,5,0,1,31,47,2,5,47,14,47,5,4,31,4,25,62,54,31,38,60,56,54,8,0,0,0,0,0,0,0,0,0,0,0,0,0,0,0,0,0,0,0,0,0,0,0,0,0,0,0,0,0,0,0,0],"split_type":[0,0,0,0,0,0,0,0,0,0,0,0,0,0,0,0,0,0,0,0,0,0,0,0,0,0,0,0,0,0,0,0,0,0,0,0,0,0,0,0,0,0,0,0,0,0,0,0,0,0,0,0,0,0,0,0,0,0,0,0,0,0,0],"sum_hessian":[2.9165E4,2.0703E4,8.462E3,1.0913E4,9.79E3,3.722E3,4.74E3,4.035E3,6.878E3,4.525E3,5.265E3,1.093E3,2.629E3,4.014E3,7.26E2,3.156E3,8.79E2,4.258E3,2.62E3,3.731E3,7.94E2,2.309E3,2.956E3,4.52E2,6.41E2,4.8E2,2.149E3,1.838E3,2.176E3,6.17E2,1.09E2,1.896E3,1.26E3,5.33E2,3.46E2,2.525E3,1.733E3,1.931E3,6.89E2,1.579E3,2.152E3,2.68E2,5.26E2,8.53E2,1.456E3,1.676E3,1.28E3,3.62E2,9E1,6.28E2,1.3E1,3.77E2,1.03E2,2.032E3,1.17E2,1.96E2,1.642E3,2.14E3,3.6E1,1.54E2,4.63E2,6.2E1,4.7E1],"tree_param":{"num_deleted":"0","num_feature":"65","num_nodes":"63","size_leaf_vector":"0"}},{"base_weights":[2.0706268E2,1.3465417E2,2.8501822E2,1.7926315E2,8.30314E1,2.4704463E2,3.7681134E2,1.6039386E2,2.2736145E2,3.6296143E1,9.9198326E1,2.700179E2,2.1471158E2,3.8512198E2,1.8823248E2,1.2310227E2,1.7731331E2,4.8359012E2,2.1781195E2,6.486024E-1,4.0892574E1,1.11375854E2,5.4803547E1,2.8216287E2,1.6671262E2,1.7069421E2,2.3643042E2,4.0956134E2,3.2023212E2,3.649978E2,8.9759026E1,1.07884964E2,1.99334E2,1.4988597E2,2.0067474E2,5.165216E2,3.020615E2,5.5987408E1,2.2750398E2,-1.03738785E1,2.221869E1,1.8962137E2,3.9939842E1,1.5495941E2,9.559902E1,1.5780649E2,4.5880035E1,1.9080289E2,2.9055487E2,2.4188474E2,7.483679E1,1.9874686E2,1.0157102E2,1.915904E2,2.6279092E2,4.151778E2,1.2903548E2,3.5533987E2,2.0550307E2,4.3168137E2,1.7430658E2,1.6537917E2,-6.782335E1],"categories":[],"categories_nodes":[],"categories_segments":[],"categories_sizes":[],"default_left":[1,1,0,1,1,1,1,1,0,1,1,1,0,1,0,1,0,0,0,0,1,1,1,0,1,0,0,1,0,0,1,0,0,0,0,0,0,0,0,0,0,0,0,0,0,0,0,0,0,0,0,0,0,0,0,0,0,0,0,0,0,0,0],"id":5,"left_children":[1,3,5,7,9,11,13,15,17,19,21,23,25,27,29,31,33,35,37,39,41,43,45,47,49,51,53,55,57,59,61,-1,-1,-1,-1,-1,-1,-1,-1,-1,-1,-1,-1,-1,-1,-1,-1,-1,-1,-1,-1,-1,-1,-1,-1,-1,-1,-1,-1,-1,-1,-1,-1],"loss_changes":[1.6616256E8,3.514256E7,4.932736E7,7.395728E6,5.345052E6,7.393792E6,6.426752E6,3.691328E6,5.53468E6,2.98347E5,2.837008E6,7.306368E6,3.948096E6,6.166336E6,3.0482225E6,2.112968E6,2.56236E6,3.34176E5,3.475408E6,4.9921477E4,2.2098625E5,2.822268E6,1.035074E6,3.964352E6,4.25702E6,2.659636E6,3.248624E6,4.485632E6,4.321384E6,7.25862E5,1.3816028E6,0E0,0E0,0E0,0E0,0E0,0E0,0E0,0E0,0E0,0E0,0E0,0E0,0E0,0E0,0E0,0E0,0E0,0E0,0E0,0E0,0E0,0E0,0E0,0E0,0E0,0E0,0E0,0E0,0E0,0E0,0E0,0E0],"parents":[2147483647,0,0,1,1,2,2,3,3,4,4,5,5,6,6,7,7,8,8,9,9,10,10,11,11,12,12,13,13,14,14,15,15,16,16,17,17,18,18,19,19,20,20,21,21,22,22,23,23,24,24,25,25,26,26,27,27,28,28,29,29,30,30],"right_children":[2,4,6,8,10,12,14,16,18,20,22,24,26,28,30,32,34,36,38,40,42,44,46,48,50,52,54,56,58,60,62,-1,-1,-1,-1,-1,-1,-1,-1,-1,-1,-1,-1,-1,-1,-1,-1,-1,-1,-1,-1,-1,-1,-1,-1,-1,-1,-1,-1,-1,-1,-1,-1],"split_conditions":[3.260833E2,5E-1,6.724166E2,2.5E0,7.7447914E1,1.2775E1,6.830127E-1,6.6549E0,1.5492361E2,8.95E1,7.865661E-1,5E-1,7.975E2,6.035534E-1,1.8776309E2,1.9435E0,8.1212494E1,8.333334E-1,3E-2,5.45E1,2.5E0,-6.854321E-1,-9.529146E-1,1.00315E3,-2.5033084E-1,1.6423271E2,1.93607E2,3.68E2,1.00755E3,2.8E2,3.029835E2,1.0788497E1,1.9933401E1,1.4988597E1,2.0067474E1,5.165216E1,3.020615E1,5.598741E0,2.2750399E1,-1.0373878E0,2.2218692E0,1.8962137E1,3.9939842E0,1.5495941E1,9.559902E0,1.5780649E1,4.5880036E0,1.908029E1,2.9055487E1,2.4188475E1,7.4836793E0,1.9874685E1,1.0157103E1,1.915904E1,2.6279093E1,4.151778E1,1.2903548E1,3.553399E1,2.0550306E1,4.3168137E1,1.7430658E1,1.6537916E1,-6.782335E0],"split_indices":[11,55,11,0,41,33,1,35,41,5,13,55,5,13,53,38,42,11,23,36,47,6,31,3,31,53,53,56,3,54,8,0,0,0,0,0,0,0,0,0,0,0,0,0,0,0,0,0,0,0,0,0,0,0,0,0,0,0,0,0,0,0,0],"split_type":[0,0,0,0,0,0,0,0,0,0,0,0,0,0,0,0,0,0,0,0,0,0,0,0,0,0,0,0,0,0,0,0,0,0,0,0,0,0,0,0,0,0,0,0,0,0,0,0,0,0,0,0,0,0,0,0,0,0,0,0,0,0,0],"sum_hessian":[2.9443E4,1.5266E4,1.4177E4,8.188E3,7.078E3,1.0031E4,4.146E3,5.884E3,2.304E3,1.82E3,5.258E3,5.86E3,4.171E3,3.97E3,1.76E2,1.839E3,4.045E3,8.1E1,2.223E3,2.08E2,1.612E3,4.125E3,1.133E3,5.242E3,6.18E2,1.381E3,2.79E3,2.88E3,1.09E3,6.2E1,1.14E2,1.535E3,3.04E2,1.864E3,2.181E3,6.7E1,1.4E1,1.26E2,2.097E3,1.38E2,7E1,9E0,1.603E3,1.094E3,3.031E3,8.9E1,1.044E3,4.43E2,4.799E3,3.39E2,2.79E2,9.81E2,4E2,1.036E3,1.754E3,2.823E3,5.7E1,8.33E2,2.57E2,4.5E1,1.7E1,7.7E1,3.7E1],"tree_param":{"num_deleted":"0","num_feature":"65","num_nodes":"63","size_leaf_vector":"0"}},{"base_weights":[1.8667908E2,1.394635E2,2.8791873E2,1.7478784E2,8.25004E1,2.4291177E2,3.461561E2,1.5759682E2,2.2425607E2,3.472793E1,9.955648E1,1.8473875E2,2.721026E2,2.5868097E2,3.7429755E2,1.2479009E2,1.7611882E2,1.1773841E2,2.3906831E2,2.6328917E1,7.160462E1,8.263443E1,1.4319656E2,1.9844565E2,1.1936675E2,2.5435269E2,3.3317645E2,2.865294E2,1.3702351E2,3.405132E2,4.067692E2,2.878324E2,1.2232012E2,1.5886949E2,2.1022304E2,-2.2769594E1,1.6198764E2,1.5956746E2,2.5653546E2,2.4517939E1,1.5963834E2,1.0494593E2,3.4324265E1,1.0231412E2,5.5875492E1,2.0988902E2,1.1883736E2,9.125984E1,2.0881485E2,5.334513E2,1.0521323E2,2.3864534E2,3.211789E2,3.46828E2,5.353282E1,3.3965482E2,2.1326672E2,8.394541E1,5.141513E2,2.0579688E2,3.5808865E2,4.0922525E2,-1.2453719E2],"categories":[],"categories_nodes":[],"categories_segments":[],"categories_sizes":[],"default_left":[1,1,1,1,1,1,1,0,1,1,1,1,1,1,1,0,0,0,1,1,0,1,0,0,0,1,1,0,0,0,1,0,0,0,0,0,0,0,0,0,0,0,0,0,0,0,0,0,0,0,0,0,0,0,0,0,0,0,0,0,0,0,0],"id":6,"left_children":[1,3,5,7,9,11,13,15,17,19,21,23,25,27,29,31,33,35,37,39,41,43,45,47,49,51,53,55,57,59,61,-1,-1,-1,-1,-1,-1,-1,-1,-1,-1,-1,-1,-1,-1,-1,-1,-1,-1,-1,-1,-1,-1,-1,-1,-1,-1,-1,-1,-1,-1,-1,-1],"loss_changes":[1.411015E8,4.0506944E7,2.4527936E7,1.05344E7,6.278736E6,8.94976E6,9.973888E6,5.584784E6,5.02544E6,6.26862E5,4.183472E6,1.5659E6,3.73872E6,3.345324E6,3.254624E6,1.307024E6,3.434464E6,2.4471155E6,3.86256E6,3.9563662E5,4.6375675E5,2.151268E6,2.551634E6,1.609192E6,1.7607085E6,2.796272E6,3.001128E6,3.087952E6,3.7200778E6,3.529936E6,2.102288E6,0E0,0E0,0E0,0E0,0E0,0E0,0E0,0E0,0E0,0E0,0E0,0E0,0E0,0E0,0E0,0E0,0E0,0E0,0E0,0E0,0E0,0E0,0E0,0E0,0E0,0E0,0E0,0E0,0E0,0E0,0E0,0E0],"parents":[2147483647,0,0,1,1,2,2,3,3,4,4,5,5,6,6,7,7,8,8,9,9,10,10,11,11,12,12,13,13,14,14,15,15,16,16,17,17,18,18,19,19,20,20,21,21,22,22,23,23,24,24,25,25,26,26,27,27,28,28,29,29,30,30],"right_children":[2,4,6,8,10,12,14,16,18,20,22,24,26,28,30,32,34,36,38,40,42,44,46,48,50,52,54,56,58,60,62,-1,-1,-1,-1,-1,-1,-1,-1,-1,-1,-1,-1,-1,-1,-1,-1,-1,-1,-1,-1,-1,-1,-1,-1,-1,-1,-1,-1,-1,-1,-1,-1],"split_conditions":[1.095E1,5E-1,6.035534E-1,3.7940952E-1,8.496875E1,2.5E0,1.5E0,2.645E2,-9.142429E-1,7.5486517E-1,6.035534E-1,1.1659501E0,1.75E1,5E-1,7.7024996E-1,3.05E1,7.835E2,1.15715E0,6.5465E1,1.270625E2,3.94265E0,2.493665E-1,1.365729E2,1.1559501E0,6.2739998E1,7.1844446E2,3.33E2,4.6971527E2,1.305E2,6.4E1,3.8E2,2.878324E1,1.2232013E1,1.588695E1,2.1022305E1,-2.2769594E0,1.6198765E1,1.5956746E1,2.5653547E1,2.451794E0,1.5963834E1,1.0494594E1,3.4324265E0,1.0231412E1,5.587549E0,2.0988903E1,1.1883736E1,9.125984E0,2.0881485E1,5.334513E1,1.0521323E1,2.3864534E1,3.211789E1,3.46828E1,5.3532825E0,3.396548E1,2.1326674E1,8.394542E0,5.141513E1,2.0579687E1,3.5808865E1,4.0922527E1,-1.2453719E1],"split_indices":[48,55,32,32,41,0,0,10,6,6,32,62,26,0,49,30,30,62,63,61,25,6,41,62,42,61,56,41,56,54,56,0,0,0,0,0,0,0,0,0,0,0,0,0,0,0,0,0,0,0,0,0,0,0,0,0,0,0,0,0,0,0,0],"split_type":[0,0,0,0,0,0,0,0,0,0,0,0,0,0,0,0,0,0,0,0,0,0,0,0,0,0,0,0,0,0,0,0,0,0,0,0,0,0,0,0,0,0,0,0,0,0,0,0,0,0,0,0,0,0,0,0,0,0,0,0,0,0,0],"sum_hessian":[2.9526E4,2.0137E4,9.389E3,1.2428E4,7.709E3,5.299E3,4.09E3,9.226E3,3.202E3,2.029E3,5.68E3,1.773E3,3.526E3,9.98E2,3.092E3,3.332E3,5.894E3,3.92E2,2.81E3,1.654E3,3.75E2,4.095E3,1.585E3,1.464E3,3.09E2,2.736E3,7.9E2,8.11E2,1.87E2,1.521E3,1.571E3,4.8E1,3.284E3,3.918E3,1.976E3,9.4E1,2.98E2,5.08E2,2.302E3,1.633E3,2.1E1,1.97E2,1.78E2,2.358E3,1.737E3,4.22E2,1.163E3,1.3E2,1.334E3,9E0,3E2,2.219E3,5.17E2,7.53E2,3.7E1,4.68E2,3.43E2,1.65E2,2.2E1,1.77E2,1.344E3,1.564E3,7E0],"tree_param":{"num_deleted":"0","num_feature":"65","num_nodes":"63","size_leaf_vector":"0"}},{"base_weights":[1.6709404E2,1.27068436E2,2.6491107E2,1.6007663E2,7.122977E1,2.1117955E2,3.073071E2,1.4097903E2,1.965557E2,5.5023705E1,1.1873953E2,1.5903842E2,2.3318887E2,3.2616895E2,2.027185E2,1.16531525E2,1.6220149E2,1.1444818E2,2.0735443E2,2.9681997E1,6.944929E1,1.6535312E2,8.335039E1,7.371756E1,1.7269472E2,1.5892506E2,2.491662E2,3.096286E2,3.7999152E2,2.3966153E2,1.1209752E2,1.0394006E2,1.5365382E2,1.3914664E2,1.9670175E2,1.6637514E2,1.7591978E1,1.436044E2,2.2304137E2,2.2149155E2,2.7818027E1,6.4659096E1,1.7421994E2,2.2596829E2,9.475452E1,1.0059029E2,2.3022137E1,5.062831E1,3.465695E2,2.015492E2,1.1825036E2,-5.1665443E1,2.1382841E2,5.643511E1,2.5661224E2,3.2174847E2,2.373824E2,3.8390405E2,1.3946726E1,1.17282135E2,2.870479E2,4.1856766E1,2.4907098E2],"categories":[],"categories_nodes":[],"categories_segments":[],"categories_sizes":[],"default_left":[1,1,1,1,1,1,1,0,1,1,1,0,1,0,0,1,1,1,1,1,1,0,1,1,1,1,0,1,1,0,1,0,0,0,0,0,0,0,0,0,0,0,0,0,0,0,0,0,0,0,0,0,0,0,0,0,0,0,0,0,0,0,0],"id":7,"left_children":[1,3,5,7,9,11,13,15,17,19,21,23,25,27,29,31,33,35,37,39,41,43,45,47,49,51,53,55,57,59,61,-1,-1,-1,-1,-1,-1,-1,-1,-1,-1,-1,-1,-1,-1,-1,-1,-1,-1,-1,-1,-1,-1,-1,-1,-1,-1,-1,-1,-1,-1,-1,-1],"loss_changes":[1.1470867E8,3.8323904E7,1.9318656E7,9.078368E6,5.944384E6,4.273264E6,9.312288E6,4.434288E6,3.956464E6,2.105444E6,3.22771E6,1.289928E6,3.09168E6,3.466464E6,2.41369E6,1.849984E6,3.625088E6,2.6325035E6,3.934144E6,7.42143E5,1.832112E6,3.603194E6,1.161503E6,9.652454E5,1.489004E6,5.445246E6,3.099664E6,2.624928E6,1.34376E6,2.964478E6,2.0388738E6,0E0,0E0,0E0,0E0,0E0,0E0,0E0,0E0,0E0,0E0,0E0,0E0,0E0,0E0,0E0,0E0,0E0,0E0,0E0,0E0,0E0,0E0,0E0,0E0,0E0,0E0,0E0,0E0,0E0,0E0,0E0,0E0],"parents":[2147483647,0,0,1,1,2,2,3,3,4,4,5,5,6,6,7,7,8,8,9,9,10,10,11,11,12,12,13,13,14,14,15,15,16,16,17,17,18,18,19,19,20,20,21,21,22,22,23,23,24,24,25,25,26,26,27,27,28,28,29,29,30,30],"right_children":[2,4,6,8,10,12,14,16,18,20,22,24,26,28,30,32,34,36,38,40,42,44,46,48,50,52,54,56,58,60,62,-1,-1,-1,-1,-1,-1,-1,-1,-1,-1,-1,-1,-1,-1,-1,-1,-1,-1,-1,-1,-1,-1,-1,-1,-1,-1,-1,-1,-1,-1,-1,-1],"split_conditions":[1.115E1,5E-1,3.7940952E-1,1.2940952E-1,1.685E2,2.5E0,2.5E-1,9.42675E0,-9.142429E-1,2.335E2,-3.468595E-1,2.985975E2,5.5E0,1.565E1,4.4893402E2,2.5E0,1.9246729E2,6.830127E-1,6.6009995E1,-9.682343E-1,1.0051E2,1.4096179E2,8.732244E-1,9.04175E-1,2.15E1,6.0896546E-1,7.23575E1,1.1644499E0,3.7E2,3.0718054E2,7.5486517E-1,1.0394007E1,1.5365382E1,1.3914664E1,1.9670176E1,1.6637514E1,1.7591978E0,1.436044E1,2.2304136E1,2.2149155E1,2.781803E0,6.4659095E0,1.7421995E1,2.259683E1,9.475451E0,1.0059029E1,2.3022137E0,5.0628314E0,3.4656948E1,2.015492E1,1.1825036E1,-5.1665444E0,2.1382841E1,5.643511E0,2.5661224E1,3.2174847E1,2.3738241E1,3.8390408E1,1.3946726E0,1.1728213E1,2.8704792E1,4.1856766E0,2.4907099E1],"split_indices":[48,55,32,32,36,0,1,2,6,30,31,46,47,48,41,0,53,1,63,31,40,53,31,22,47,6,42,62,56,61,6,0,0,0,0,0,0,0,0,0,0,0,0,0,0,0,0,0,0,0,0,0,0,0,0,0,0,0,0,0,0,0,0],"split_type":[0,0,0,0,0,0,0,0,0,0,0,0,0,0,0,0,0,0,0,0,0,0,0,0,0,0,0,0,0,0,0,0,0,0,0,0,0,0,0,0,0,0,0,0,0,0,0,0,0,0,0,0,0,0,0,0,0,0,0,0,0,0,0],"sum_hessian":[2.9306E4,2.0798E4,8.508E3,1.307E4,7.728E3,3.755E3,4.753E3,8.582E3,4.488E3,5.764E3,1.964E3,1.117E3,2.638E3,4.025E3,7.28E2,3.991E3,4.591E3,5.23E2,3.965E3,2.092E3,3.672E3,8.46E2,1.118E3,1.55E2,9.62E2,4.69E2,2.169E3,3.084E3,9.41E2,5.16E2,2.12E2,2.983E3,1.008E3,2.755E3,1.836E3,3.4E2,1.83E2,7.85E2,3.18E3,1.9E1,2.073E3,3.513E3,1.59E2,4.54E2,3.92E2,8.69E2,2.49E2,1.44E2,1.1E1,6.27E2,3.35E2,9.7E1,3.72E2,8.1E1,2.088E3,2.638E3,4.46E2,9.31E2,1E1,1.45E2,3.71E2,1.41E2,7.1E1],"tree_param":{"num_deleted":"0","num_feature":"65","num_nodes":"63","size_leaf_vector":"0"}},{"base_weights":[1.5011465E2,2.1282895E2,9.947038E1,2.5305E2,1.6380864E2,1.3130078E2,5.79523E1,2.194092E2,2.9929895E2,1.5804903E2,2.715432E2,1.1700997E2,1.6228127E2,2.5444168E1,6.951169E1,2.3547766E2,1.7583209E2,2.3821834E2,3.1153198E2,1.7276486E2,1.1023099E2,2.8823962E2,-4.283308E1,8.6267365E1,1.3204222E2,1.3840392E2,1.9832828E2,1.3457164E2,2.4003807E1,8.071741E1,3.0193098E1,2.2618188E2,3.803325E2,2.228349E2,1.0074126E2,2.5315344E2,-3.5453378E2,3.177324E2,1.5429146E2,1.4614163E2,2.1368825E2,1.2199313E2,-2.1330948E1,2.2183899E2,3.5638824E2,-2.1786583E2,1.1751082E2,9.272384E1,-5.1060604E1,1.2294397E2,2.237032E2,3.2543768E2,1.323885E2,1.4002931E2,2.2914331E2,8.645991E0,1.4562643E2,3.8856884E1,1.7752472E1,1.1809939E2,6.664813E1,4.5801525E1,-2.6026816E0],"categories":[],"categories_nodes":[],"categories_segments":[],"categories_sizes":[],"default_left":[1,0,1,0,1,1,1,1,1,1,0,1,0,1,1,1,1,1,1,1,0,0,0,1,1,1,1,0,0,1,0,0,0,0,0,0,0,0,0,0,0,0,0,0,0,0,0,0,0,0,0,0,0,0,0,0,0,0,0,0,0,0,0],"id":8,"left_children":[1,3,5,7,9,11,13,15,17,19,21,23,25,27,29,31,33,35,37,39,41,43,45,47,49,51,53,55,57,59,61,-1,-1,-1,-1,-1,-1,-1,-1,-1,-1,-1,-1,-1,-1,-1,-1,-1,-1,-1,-1,-1,-1,-1,-1,-1,-1,-1,-1,-1,-1,-1,-1],"loss_changes":[9.362042E7,2.5927104E7,2.1550624E7,1.1187808E7,3.642288E6,4.0688E6,2.659086E6,2.8932E6,2.19952E6,3.949728E6,1.587032E6,2.9102E6,2.478928E6,2.8897288E5,2.29878E6,4.033024E6,3.976456E6,4.622398E6,2.419584E6,4.665664E6,2.060711E6,1.210596E6,4.7464856E5,1.84809E6,3.5118E6,1.93144E6,2.04824E6,3.2150844E4,1.6978562E5,2.129542E6,5.939124E5,0E0,0E0,0E0,0E0,0E0,0E0,0E0,0E0,0E0,0E0,0E0,0E0,0E0,0E0,0E0,0E0,0E0,0E0,0E0,0E0,0E0,0E0,0E0,0E0,0E0,0E0,0E0,0E0,0E0,0E0,0E0,0E0],"parents":[2147483647,0,0,1,1,2,2,3,3,4,4,5,5,6,6,7,7,8,8,9,9,10,10,11,11,12,12,13,13,14,14,15,15,16,16,17,17,18,18,19,19,20,20,21,21,22,22,23,23,24,24,25,25,26,26,27,27,28,28,29,29,30,30],"right_children":[2,4,6,8,10,12,14,16,18,20,22,24,26,28,30,32,34,36,38,40,42,44,46,48,50,52,54,56,58,60,62,-1,-1,-1,-1,-1,-1,-1,-1,-1,-1,-1,-1,-1,-1,-1,-1,-1,-1,-1,-1,-1,-1,-1,-1,-1,-1,-1,-1,-1,-1,-1,-1],"split_conditions":[-8.834049E0,2.8275002E1,5E-1,1.30945E1,7.169166E2,3.445E2,7.984722E1,2.5E-1,5.5E0,2.335E2,7.242E-1,-5.2625006E-1,1.9350232E2,2.5E0,7.865661E-1,3.020845E2,2.493665E-1,2.6796585E2,2.5E-1,2.5E0,2.228983E2,7.87825E1,7.4925E2,1.0803001E0,7.992E-1,1.5E0,-2.5033084E-1,6.35E1,-4.925E2,-6.854321E-1,5.24325E-2,2.2618189E1,3.803325E1,2.2283491E1,1.0074126E1,2.5315344E1,-3.545338E1,3.177324E1,1.5429146E1,1.4614163E1,2.1368826E1,1.2199313E1,-2.1330948E0,2.2183899E1,3.5638824E1,-2.1786583E1,1.1751082E1,9.272384E0,-5.1060605E0,1.2294397E1,2.2370321E1,3.254377E1,1.3238851E1,1.4002932E1,2.2914331E1,8.6459917E-1,1.4562644E1,3.8856885E0,1.7752472E0,1.1809939E1,6.6648135E0,4.5801525E0,-2.6026818E-1],"split_indices":[59,60,55,2,61,10,41,1,47,54,17,6,53,47,13,8,6,39,1,0,53,42,61,22,22,47,31,10,4,6,52,0,0,0,0,0,0,0,0,0,0,0,0,0,0,0,0,0,0,0,0,0,0,0,0,0,0,0,0,0,0,0,0],"split_type":[0,0,0,0,0,0,0,0,0,0,0,0,0,0,0,0,0,0,0,0,0,0,0,0,0,0,0,0,0,0,0,0,0,0,0,0,0,0,0,0,0,0,0,0,0,0,0,0,0,0,0,0,0,0,0,0,0,0,0,0,0,0,0],"sum_hessian":[2.9482E4,1.317E4,1.6312E4,7.232E3,5.938E3,9.232E3,7.08E3,4.19E3,3.042E3,5.639E3,2.99E2,6.321E3,2.911E3,1.858E3,5.222E3,3.058E3,1.132E3,5.11E2,2.531E3,4.31E3,1.329E3,2.84E2,1.5E1,2.078E3,4.243E3,1.754E3,1.157E3,2.3E1,1.835E3,4.063E3,1.159E3,2.876E3,1.82E2,6.95E2,4.37E2,4.99E2,1.2E1,2.434E3,9.7E1,2.614E3,1.696E3,1.22E3,1.09E2,1.46E2,1.38E2,7E0,8E0,1.985E3,9.3E1,3.862E3,3.81E2,5.3E1,1.701E3,4.02E2,7.55E2,2E0,2.1E1,5.42E2,1.293E3,1.109E3,2.954E3,7.85E2,3.74E2],"tree_param":{"num_deleted":"0","num_feature":"65","num_nodes":"63","size_leaf_vector":"0"}},{"base_weights":[1.3568092E2,8.8786E1,1.9038564E2,1.15522545E2,5.7031673E1,1.6592612E2,2.5238756E2,3.2809802E2,1.1341861E2,3.8984047E1,8.156292E1,1.9423941E2,1.4244952E2,2.5804456E2,4.0215633E1,3.5368668E2,-5.9237717E1,-7.940945E1,1.1599764E2,3.686709E1,1.9263684E2,6.86794E1,1.2464935E2,2.1897795E2,1.2616918E2,8.937431E1,1.5184941E2,2.829793E2,2.1227667E2,7.397527E1,-6.977219E1,2.6854117E2,4.1674603E2,7.394639E1,-1.4431638E2,2.4084702E1,-2.0366881E2,8.309474E1,1.2693443E2,2.7615929E1,6.2891506E1,4.6356873E1,2.7908032E2,4.5009987E1,8.971651E1,1.6503546E2,5.947811E1,1.0348586E2,2.2646399E2,1.6561627E2,4.2964214E1,4.666108E1,1.7592264E2,2.0298143E2,1.4114682E2,2.8878354E2,1.5787875E1,1.6536696E2,2.7259293E2,5.9776455E1,3.1815955E2,8.098421E1,-1.1370725E2],"categories":[],"categories_nodes":[],"categories_segments":[],"categories_sizes":[],"default_left":[1,1,0,0,0,0,1,0,1,1,1,1,1,1,0,0,0,1,1,1,0,0,1,0,0,1,1,1,0,0,1,0,0,0,0,0,0,0,0,0,0,0,0,0,0,0,0,0,0,0,0,0,0,0,0,0,0,0,0,0,0,0,0],"id":9,"left_children":[1,3,5,7,9,11,13,15,17,19,21,23,25,27,29,31,33,35,37,39,41,43,45,47,49,51,53,55,57,59,61,-1,-1,-1,-1,-1,-1,-1,-1,-1,-1,-1,-1,-1,-1,-1,-1,-1,-1,-1,-1,-1,-1,-1,-1,-1,-1,-1,-1,-1,-1,-1,-1],"loss_changes":[7.478173E7,1.3323568E7,2.0366112E7,3.774656E6,3.175184E6,6.388688E6,4.556608E6,8.43599E5,4.206992E6,1.3388925E6,1.68007E6,7.33632E6,2.62112E6,4.169248E6,3.7647628E5,3.06886E5,7.865842E4,1.4452385E6,2.987024E6,9.8127E5,6.9517975E5,1.163124E6,1.829962E6,2.7484E6,3.826486E6,2.9381085E6,2.425744E6,3.711264E6,3.664288E6,2.4795034E5,1.6817228E5,0E0,0E0,0E0,0E0,0E0,0E0,0E0,0E0,0E0,0E0,0E0,0E0,0E0,0E0,0E0,0E0,0E0,0E0,0E0,0E0,0E0,0E0,0E0,0E0,0E0,0E0,0E0,0E0,0E0,0E0,0E0,0E0],"parents":[2147483647,0,0,1,1,2,2,3,3,4,4,5,5,6,6,7,7,8,8,9,9,10,10,11,11,12,12,13,13,14,14,15,15,16,16,17,17,18,18,19,19,20,20,21,21,22,22,23,23,24,24,25,25,26,26,27,27,28,28,29,29,30,30],"right_children":[2,4,6,8,10,12,14,16,18,20,22,24,26,28,30,32,34,36,38,40,42,44,46,48,50,52,54,56,58,60,62,-1,-1,-1,-1,-1,-1,-1,-1,-1,-1,-1,-1,-1,-1,-1,-1,-1,-1,-1,-1,-1,-1,-1,-1,-1,-1,-1,-1,-1,-1,-1,-1],"split_conditions":[1.015E1,5E-1,1.285E1,7.4060807E0,1.6835E1,2.8285E1,6.830127E-1,3.264E1,6.5E-1,1.63785E2,3.0339752E2,7.865661E-1,-9.177784E-1,1.16345E0,4.5E1,5.5245E-1,1.0095E3,7.867185E-1,9.028158E1,9.705233E1,1.4865277E2,8.2275E1,5.0389305E-2,1.00305E3,1.0806501E0,5E-1,-9.330127E-1,3.765E2,7.275E2,1.0989001E0,5E-1,2.6854116E1,4.1674603E1,7.394639E0,-1.4431638E1,2.4084702E0,-2.036688E1,8.309474E0,1.2693443E1,2.7615929E0,6.2891507E0,4.6356874E0,2.7908033E1,4.500999E0,8.971651E0,1.6503546E1,5.947811E0,1.0348586E1,2.2646399E1,1.6561628E1,4.2964215E0,4.666108E0,1.7592264E1,2.0298143E1,1.4114682E1,2.8878355E1,1.5787876E0,1.6536695E1,2.7259293E1,5.9776454E0,3.1815954E1,8.098421E0,-1.1370726E1],"split_indices":[48,55,48,39,9,60,1,60,18,40,8,13,31,62,56,49,3,31,53,53,61,42,6,3,22,7,1,56,36,22,0,0,0,0,0,0,0,0,0,0,0,0,0,0,0,0,0,0,0,0,0,0,0,0,0,0,0,0,0,0,0,0,0],"split_type":[0,0,0,0,0,0,0,0,0,0,0,0,0,0,0,0,0,0,0,0,0,0,0,0,0,0,0,0,0,0,0,0,0,0,0,0,0,0,0,0,0,0,0,0,0,0,0,0,0,0,0,0,0,0,0,0,0,0,0,0,0,0,0],"sum_hessian":[2.9156E4,1.57E4,1.3456E4,8.522E3,7.178E3,9.652E3,3.804E3,8.2E1,8.44E3,4.137E3,3.041E3,4.372E3,5.28E3,3.705E3,9.9E1,7.7E1,5E0,1.11E2,8.329E3,4.082E3,5.5E1,2.343E3,6.98E2,3.205E3,1.167E3,7.96E2,4.484E3,2.395E3,1.31E3,7.6E1,2.3E1,3.5E1,4.2E1,2E0,3E0,6.1E1,5E1,2.08E3,6.249E3,3.013E3,1.069E3,2.1E1,3.4E1,1.104E3,1.239E3,4.3E2,2.68E2,1.96E2,3.009E3,7.91E2,3.76E2,5.34E2,2.62E2,7.73E2,3.711E3,2.344E3,5.1E1,7.39E2,5.71E2,7.3E1,3E0,5E0,1.8E1],"tree_param":{"num_deleted":"0","num_feature":"65","num_nodes":"63","size_leaf_vector":"0"}},{"base_weights":[1.22007324E2,9.6476906E1,2.0331158E2,1.2060137E2,5.1632805E1,1.6718726E2,2.3443129E2,1.056506E2,1.5111455E2,8.128011E1,3.7709503E1,1.7386214E2,1.8001675E1,1.6224252E2,2.5151585E2,8.962231E1,1.3197865E2,8.274655E1,1.6332318E2,5.686332E1,1.11481285E2,2.5036976E1,6.2077766E1,1.5683449E2,2.193457E2,5.691635E1,-8.423675E1,1.8197409E2,-6.609376E-1,1.4041216E2,2.6099905E2,8.045127E1,1.3771559E2,8.154194E1,1.6088184E2,3.852862E1,1.6151036E2,1.6607962E2,-1.3148817E2,1.1523622E2,3.7218967E1,1.4612846E2,7.3885355E0,4.8282417E1,1.710056E1,1.2247083E2,4.471143E1,1.8291551E2,1.1701553E2,1.4123752E2,2.4063837E2,3.6591526E1,2.628738E2,-9.9966774E1,4.2720787E1,5.9800007E1,2.0274602E2,1.8679794E2,-4.751533E1,-7.9168396E1,2.4798026E2,2.619076E2,-1.3854277E2],"categories":[],"categories_nodes":[],"categories_segments":[],"categories_sizes":[],"default_left":[1,1,1,1,1,1,0,1,0,1,1,1,0,0,1,1,1,0,1,0,1,0,1,0,0,1,0,0,0,1,1,0,0,0,0,0,0,0,0,0,0,0,0,0,0,0,0,0,0,0,0,0,0,0,0,0,0,0,0,0,0,0,0],"id":10,"left_children":[1,3,5,7,9,11,13,15,17,19,21,23,25,27,29,31,33,35,37,39,41,43,45,47,49,51,53,55,57,59,61,-1,-1,-1,-1,-1,-1,-1,-1,-1,-1,-1,-1,-1,-1,-1,-1,-1,-1,-1,-1,-1,-1,-1,-1,-1,-1,-1,-1,-1,-1,-1,-1],"loss_changes":[6.079101E7,2.4115552E7,7.830048E6,6.597504E6,3.217098E6,3.226224E6,4.594E6,4.09544E6,3.963736E6,1.8313E6,1.638214E6,2.369584E6,5.6179494E5,2.320874E6,3.163184E6,2.658688E6,5.352972E6,2.5153045E6,3.30648E6,1.578154E6,4.012977E6,6.43951E5,1.899157E6,2.327724E6,1.368036E6,4.173581E5,8.21555E4,1.622214E6,7.0275425E5,5.712019E6,1.051616E6,0E0,0E0,0E0,0E0,0E0,0E0,0E0,0E0,0E0,0E0,0E0,0E0,0E0,0E0,0E0,0E0,0E0,0E0,0E0,0E0,0E0,0E0,0E0,0E0,0E0,0E0,0E0,0E0,0E0,0E0,0E0,0E0],"parents":[2147483647,0,0,1,1,2,2,3,3,4,4,5,5,6,6,7,7,8,8,9,9,10,10,11,11,12,12,13,13,14,14,15,15,16,16,17,17,18,18,19,19,20,20,21,21,22,22,23,23,24,24,25,25,26,26,27,27,28,28,29,29,30,30],"right_children":[2,4,6,8,10,12,14,16,18,20,22,24,26,28,30,32,34,36,38,40,42,44,46,48,50,52,54,56,58,60,62,-1,-1,-1,-1,-1,-1,-1,-1,-1,-1,-1,-1,-1,-1,-1,-1,-1,-1,-1,-1,-1,-1,-1,-1,-1,-1,-1,-1,-1,-1,-1,-1],"split_conditions":[4.545E2,5E-1,6.035534E-1,1.2940952E-1,-6.884E0,3.024895E2,1.15845E0,1.9352057E2,1.00375E3,1.75E1,9.330127E-1,6.095834E2,8.185E2,8.225E2,5E-1,2.65E1,-4.066E1,5.69E2,3.2269388E2,3.425E2,2.493665E-1,8.2525E1,-6.854321E-1,8.6E1,6.97E2,2.2696499E1,8.345E2,8.1425E1,-4.5053E-2,1.15E1,3.8E2,8.045127E0,1.377156E1,8.154194E0,1.6088184E1,3.8528621E0,1.6151037E1,1.6607962E1,-1.3148818E1,1.15236225E1,3.721897E0,1.4612846E1,7.388536E-1,4.828242E0,1.710056E0,1.2247084E1,4.4711432E0,1.8291552E1,1.1701553E1,1.4123752E1,2.4063837E1,3.6591527E0,2.6287382E1,-9.996677E0,4.272079E0,5.980001E0,2.0274603E1,1.8679794E1,-4.751533E0,-7.9168396E0,2.4798025E1,2.619076E1,-1.3854278E1],"split_indices":[36,55,32,32,59,8,62,53,3,47,1,41,5,5,54,47,40,30,39,30,6,42,6,56,10,40,5,42,40,47,56,0,0,0,0,0,0,0,0,0,0,0,0,0,0,0,0,0,0,0,0,0,0,0,0,0,0,0,0,0,0,0,0],"split_type":[0,0,0,0,0,0,0,0,0,0,0,0,0,0,0,0,0,0,0,0,0,0,0,0,0,0,0,0,0,0,0,0,0,0,0,0,0,0,0,0,0,0,0,0,0,0,0,0,0,0,0,0,0,0,0,0,0,0,0,0,0,0,0],"sum_hessian":[2.9295E4,2.2296E4,6.999E3,1.4496E4,7.8E3,3.242E3,3.757E3,9.732E3,4.764E3,2.491E3,5.309E3,3.103E3,1.39E2,7.21E2,3.036E3,6.052E3,3.68E3,7.23E2,4.041E3,1.379E3,1.112E3,3.494E3,1.815E3,2.261E3,8.42E2,1.01E2,3.8E1,6.43E2,7.8E1,2.4E2,2.796E3,5.085E3,9.67E2,1.342E3,2.338E3,4.64E2,2.59E2,4.004E3,3.7E1,3.46E2,1.033E3,8.34E2,2.78E2,8.88E2,2.606E3,4.04E2,1.411E3,1.364E3,8.97E2,1.82E2,6.6E2,9.3E1,8E0,3.4E1,4E0,9.4E1,5.49E2,1.5E1,6.3E1,7.9E1,1.61E2,2.79E3,6E0],"tree_param":{"num_deleted":"0","num_feature":"65","num_nodes":"63","size_leaf_vector":"0"}},{"base_weights":[1.110767E2,8.463036E1,1.7921736E2,1.1029293E2,5.252664E1,1.3913925E2,2.0415889E2,9.298931E1,1.3712856E2,2.5335375E1,6.969466E1,8.734049E1,1.5777588E2,1.5287958E2,2.1873367E2,1.3099554E2,7.5047806E1,5.5057938E1,1.596393E2,2.9239063E1,-2.4010914E1,6.690729E1,2.4770634E2,1.2501615E1,1.117894E2,1.399511E2,2.1178645E2,1.576827E2,-1.6718562E2,1.4070856E2,2.2577977E2,1.762479E2,9.8364235E1,4.4793667E1,9.36034E1,4.5660625E1,2.656341E2,2.2840298E2,1.3676929E2,4.2957676E1,1.2419155E1,-6.0625366E1,-6.4813347E0,5.6189163E1,1.0229718E2,2.9465503E2,-1.07721344E2,-2.1526459E1,3.30039E2,1.2919987E2,7.630917E-1,1.537595E2,1.1846881E1,3.3069824E1,2.3196712E2,1.9453557E2,1.1200611E2,-2.0262814E2,-8.760655E1,1.950907E2,-8.14947E1,2.2720836E2,-1.5535423E2],"categories":[],"categories_nodes":[],"categories_segments":[],"categories_sizes":[],"default_left":[1,1,1,1,1,0,0,1,1,0,1,0,1,0,1,0,1,1,1,0,0,1,0,1,1,1,1,1,0,1,1,0,0,0,0,0,0,0,0,0,0,0,0,0,0,0,0,0,0,0,0,0,0,0,0,0,0,0,0,0,0,0,0],"id":11,"left_children":[1,3,5,7,9,11,13,15,17,19,21,23,25,27,29,31,33,35,37,39,41,43,45,47,49,51,53,55,57,59,61,-1,-1,-1,-1,-1,-1,-1,-1,-1,-1,-1,-1,-1,-1,-1,-1,-1,-1,-1,-1,-1,-1,-1,-1,-1,-1,-1,-1,-1,-1,-1,-1],"loss_changes":[5.2628736E7,1.733408E7,8.135408E6,5.41832E6,4.363938E6,3.013572E6,3.727392E6,4.841124E6,8.458168E6,6.982245E5,2.82756E6,1.5209375E6,2.189448E6,1.743538E6,2.121152E6,3.349412E6,2.710096E6,1.942975E6,5.623928E6,7.7384975E5,1.7033545E5,2.135474E6,1.500185E6,2.232973E6,1.211904E6,3.069012E6,2.048102E6,1.831538E6,3.0196656E4,3.96733E6,1.99E6,0E0,0E0,0E0,0E0,0E0,0E0,0E0,0E0,0E0,0E0,0E0,0E0,0E0,0E0,0E0,0E0,0E0,0E0,0E0,0E0,0E0,0E0,0E0,0E0,0E0,0E0,0E0,0E0,0E0,0E0,0E0,0E0],"parents":[2147483647,0,0,1,1,2,2,3,3,4,4,5,5,6,6,7,7,8,8,9,9,10,10,11,11,12,12,13,13,14,14,15,15,16,16,17,17,18,18,19,19,20,20,21,21,22,22,23,23,24,24,25,25,26,26,27,27,28,28,29,29,30,30],"right_children":[2,4,6,8,10,12,14,16,18,20,22,24,26,28,30,32,34,36,38,40,42,44,46,48,50,52,54,56,58,60,62,-1,-1,-1,-1,-1,-1,-1,-1,-1,-1,-1,-1,-1,-1,-1,-1,-1,-1,-1,-1,-1,-1,-1,-1,-1,-1,-1,-1,-1,-1,-1,-1],"split_conditions":[4.135E2,-7.14615E0,3.7940952E-1,1.5E0,-5E-1,-5.6501503E0,1.15855E0,-5.282851E-1,-8.1971E-1,3.55E1,7.585E2,9.700515E1,6.628125E2,3.00505E2,3.1E1,3.25E1,2.95E1,1.6507E2,5.89E2,-4.925E2,-5.649E0,4.9397498E-1,1.00805E3,3.86E2,6.830127E-1,3.315E2,3.00596E2,2.493665E-1,1.3899E1,7.867185E-1,3.8E2,1.762479E1,9.836424E0,4.479367E0,9.36034E0,4.5660625E0,2.656341E1,2.28403E1,1.36769285E1,4.295768E0,1.2419156E0,-6.0625367E0,-6.4813346E-1,5.6189165E0,1.0229718E1,2.9465504E1,-1.0772135E1,-2.1526458E0,3.3003902E1,1.2919988E1,7.630917E-2,1.5375951E1,1.1846881E0,3.3069825E0,2.3196712E1,1.9453558E1,1.1200611E1,-2.0262815E1,-8.760655E0,1.950907E1,-8.14947E0,2.2720837E1,-1.5535423E1],"split_indices":[36,59,32,0,7,58,62,31,31,56,10,39,61,46,54,56,56,40,30,4,58,22,3,56,1,54,8,6,2,31,56,0,0,0,0,0,0,0,0,0,0,0,0,0,0,0,0,0,0,0,0,0,0,0,0,0,0,0,0,0,0,0,0],"split_type":[0,0,0,0,0,0,0,0,0,0,0,0,0,0,0,0,0,0,0,0,0,0,0,0,0,0,0,0,0,0,0,0,0,0,0,0,0,0,0,0,0,0,0,0,0,0,0,0,0,0,0,0,0,0,0,0,0,0,0,0,0,0,0],"sum_hessian":[2.9212E4,2.1046E4,8.166E3,1.1695E4,9.351E3,3.135E3,5.031E3,7.113E3,4.582E3,3.62E3,5.731E3,8.31E2,2.304E3,1.116E3,3.915E3,2.279E3,4.834E3,9.87E2,3.595E3,3.355E3,2.65E2,5.644E3,8.7E1,2.05E2,6.26E2,1.735E3,5.69E2,1.1E3,1.6E1,3.26E2,3.589E3,9.53E2,1.326E3,1.839E3,2.995E3,9.46E2,4.1E1,8.95E2,2.7E3,1.847E3,1.508E3,8.5E1,1.8E2,4.334E3,1.31E3,7.7E1,1E1,1.86E2,1.9E1,5.41E2,8.5E1,1.566E3,1.69E2,5.8E1,5.11E2,6.07E2,4.93E2,1E1,6E0,2.62E2,6.4E1,3.576E3,1.3E1],"tree_param":{"num_deleted":"0","num_feature":"65","num_nodes":"63","size_leaf_vector":"0"}},{"base_weights":[9.869549E1,6.3885574E1,1.3944734E2,8.475482E1,4.0638363E1,1.15771385E2,1.7936714E2,1.1683531E2,7.470617E1,2.7028877E1,7.3136955E1,8.607985E1,1.3782053E2,1.3492618E2,2.0156056E2,1.3032573E2,1.83743E1,6.0908318E1,9.514119E1,1.25676346E2,2.4448362E1,6.9745E1,3.2512854E2,2.8383556E1,9.470688E1,1.9621857E2,1.27656815E2,3.8569344E1,1.5079118E2,1.552892E2,2.1638647E2,1.4160469E2,3.0364056E1,-1.873672E2,5.8005707E1,9.433119E1,5.4166245E1,1.0476249E2,2.8656555E1,4.2953394E2,9.500995E1,1.7678429E1,5.6141758E1,6.2721966E1,1.917E2,-2.4680883E1,3.820853E2,1.7357132E2,7.9746823E0,6.428324E1,1.1533454E2,-5.743775E1,2.0969226E2,1.1870214E2,2.0266736E2,2.290643E2,1.7125399E1,1.7590599E2,9.987686E1,8.841995E1,1.9723999E2,2.4579462E2,1.9545856E2],"categories":[],"categories_nodes":[],"categories_segments":[],"categories_sizes":[],"default_left":[1,1,1,0,1,1,1,1,0,1,0,0,0,0,1,0,0,1,0,1,1,0,0,0,0,1,1,1,0,0,0,0,0,0,0,0,0,0,0,0,0,0,0,0,0,0,0,0,0,0,0,0,0,0,0,0,0,0,0,0,0,0,0],"id":12,"left_children":[1,3,5,7,9,11,13,15,17,19,21,23,25,27,29,31,33,35,37,39,41,43,45,47,49,51,53,55,57,59,61,-1,-1,-1,-1,-1,-1,-1,-1,-1,-1,-1,-1,-1,-1,-1,-1,-1,-1,-1,-1,-1,-1,-1,-1,-1,-1,-1,-1,-1,-1,-1,-1],"loss_changes":[4.1505536E7,7.65468E6,1.2720672E7,2.672388E6,3.30148E6,5.529944E6,4.92104E6,2.630258E6,1.7807E6,1.3374478E6,1.86118E6,1.79418E6,2.857184E6,2.55323E6,2.260448E6,1.96087E6,1.9677864E6,8.478E5,1.629432E6,1.2078312E6,1.100355E6,1.851708E6,5.872265E5,1.3942446E6,1.963152E6,2.465944E6,2.756088E6,9.6829844E5,1.819928E6,2.268812E6,1.509048E6,0E0,0E0,0E0,0E0,0E0,0E0,0E0,0E0,0E0,0E0,0E0,0E0,0E0,0E0,0E0,0E0,0E0,0E0,0E0,0E0,0E0,0E0,0E0,0E0,0E0,0E0,0E0,0E0,0E0,0E0,0E0,0E0],"parents":[2147483647,0,0,1,1,2,2,3,3,4,4,5,5,6,6,7,7,8,8,9,9,10,10,11,11,12,12,13,13,14,14,15,15,16,16,17,17,18,18,19,19,20,20,21,21,22,22,23,23,24,24,25,25,26,26,27,27,28,28,29,29,30,30],"right_children":[2,4,6,8,10,12,14,16,18,20,22,24,26,28,30,32,34,36,38,40,42,44,46,48,50,52,54,56,58,60,62,-1,-1,-1,-1,-1,-1,-1,-1,-1,-1,-1,-1,-1,-1,-1,-1,-1,-1,-1,-1,-1,-1,-1,-1,-1,-1,-1,-1,-1,-1,-1,-1],"split_conditions":[1.015E1,-6.7469E0,6.035534E-1,1.2690001E1,1.2425914E2,2.5E0,1.5E0,4.815208E2,1.1589501E0,1.5E0,7.0063196E2,2.985825E2,3.6848608E2,2.987975E2,-6.8808264E-1,1.835E2,4.9E1,5.5E0,2.215E2,5.5E0,7.865661E-1,1.3305E1,7.6955E1,1.077705E1,7.94E2,-9.529146E-1,4.325E2,1.5E0,4.3005554E2,7.79E2,5.084132E2,1.4160469E1,3.0364056E0,-1.8736721E1,5.800571E0,9.43312E0,5.4166245E0,1.0476249E1,2.8656557E0,4.2953396E1,9.500995E0,1.7678429E0,5.614176E0,6.272197E0,1.917E1,-2.4680884E0,3.820853E1,1.7357132E1,7.9746825E-1,6.428324E0,1.1533454E1,-5.7437754E0,2.0969227E1,1.1870214E1,2.0266737E1,2.2906431E1,1.7125399E0,1.75906E1,9.987686E0,8.841995E0,1.9723999E1,2.4579462E1,1.9545856E1],"split_indices":[48,59,32,40,53,0,0,41,62,57,61,46,61,46,31,54,54,47,54,26,32,33,42,40,5,31,54,47,41,30,41,0,0,0,0,0,0,0,0,0,0,0,0,0,0,0,0,0,0,0,0,0,0,0,0,0,0,0,0,0,0,0,0],"split_type":[0,0,0,0,0,0,0,0,0,0,0,0,0,0,0,0,0,0,0,0,0,0,0,0,0,0,0,0,0,0,0,0,0,0,0,0,0,0,0,0,0,0,0,0,0,0,0,0,0,0,0,0,0,0,0,0,0,0,0,0,0,0,0],"sum_hessian":[2.9264E4,1.5784E4,1.348E4,8.316E3,7.468E3,8.464E3,5.016E3,1.981E3,6.335E3,5.265E3,2.203E3,3.609E3,4.855E3,1.673E3,3.343E3,1.742E3,2.39E2,3.784E3,2.551E3,1.33E2,5.132E3,2.175E3,2.8E1,4.7E2,3.139E3,7.17E2,4.138E3,2.37E2,1.436E3,8.14E2,2.529E3,1.565E3,1.77E2,3.8E1,2.01E2,6.33E2,3.151E3,2.228E3,3.23E2,1.1E1,1.22E2,4.23E3,9.02E2,2.058E3,1.17E2,4E0,2.4E1,5.7E1,4.13E2,1.27E3,1.869E3,3.6E1,6.81E2,3.699E3,4.39E2,2.3E1,2.14E2,9.6E2,4.76E2,3.15E2,4.99E2,1.047E3,1.482E3],"tree_param":{"num_deleted":"0","num_feature":"65","num_nodes":"63","size_leaf_vector":"0"}},{"base_weights":[8.985378E1,5.638688E1,1.2623408E2,3.3112976E1,7.402447E1,1.0929356E2,1.733275E2,1.2374569E2,2.908918E1,3.0257108E2,7.242859E1,9.0064064E1,1.2977219E2,1.2954897E2,1.842139E2,4.7891266E1,1.7109677E2,2.8122465E1,2.9232617E2,1.6795903E2,3.293624E2,7.0697464E1,2.1111674E2,7.018183E1,1.1304286E2,-3.8311302E1,1.3334457E2,5.602332E1,1.7155623E2,1.8687758E2,-6.3128004E0,4.453405E0,1.7339174E2,3.728153E1,2.3038187E2,2.7121824E1,1.9211946E2,1.3085999E1,3.9011176E2,2.9839182E1,1.9259908E2,7.2929794E1,-2.4639688E1,2.3761217E2,-2.7007562E2,4.14656E1,9.3378815E1,-7.783871E1,1.2434774E2,8.0707565E1,-8.263904E1,7.8279335E1,1.4254062E2,9.656835E1,-7.725692E1,1.908567E2,-2.0961142E1,1.888187E2,-7.872614E1,5.0617825E1,-1.3720557E2],"categories":[],"categories_nodes":[],"categories_segments":[],"categories_sizes":[],"default_left":[1,1,0,1,0,1,1,1,1,0,1,0,0,1,1,0,1,1,1,0,0,1,1,0,0,1,0,1,0,1,0,0,0,0,0,0,0,0,0,0,0,0,0,0,0,0,0,0,0,0,0,0,0,0,0,0,0,0,0,0,0],"id":13,"left_children":[1,3,5,7,9,11,13,15,17,19,21,23,25,27,29,31,33,35,37,39,-1,41,43,45,47,49,51,53,55,57,59,-1,-1,-1,-1,-1,-1,-1,-1,-1,-1,-1,-1,-1,-1,-1,-1,-1,-1,-1,-1,-1,-1,-1,-1,-1,-1,-1,-1,-1,-1],"loss_changes":[3.573243E7,6.274432E6,1.1201152E7,2.4011505E6,3.150536E6,4.062504E6,1.748576E6,9.975065E5,1.5987905E6,1.610675E5,2.059172E6,2.431296E6,3.012208E6,2.288315E6,1.511512E6,5.934383E5,1.35593E6,1.027483E6,6.2292525E5,3.5092375E4,0E0,1.81804E6,1.415609E6,1.904592E6,5.350464E6,5.606325E5,2.472136E6,1.4773082E6,1.761517E6,1.52804E6,3.1992094E5,0E0,0E0,0E0,0E0,0E0,0E0,0E0,0E0,0E0,0E0,0E0,0E0,0E0,0E0,0E0,0E0,0E0,0E0,0E0,0E0,0E0,0E0,0E0,0E0,0E0,0E0,0E0,0E0,0E0,0E0],"parents":[2147483647,0,0,1,1,2,2,3,3,4,4,5,5,6,6,7,7,8,8,9,9,10,10,11,11,12,12,13,13,14,14,15,15,16,16,17,17,18,18,19,19,21,21,22,22,23,23,24,24,25,25,26,26,27,27,28,28,29,29,30,30],"right_children":[2,4,6,8,10,12,14,16,18,20,22,24,26,28,30,32,34,36,38,40,-1,42,44,46,48,50,52,54,56,58,60,-1,-1,-1,-1,-1,-1,-1,-1,-1,-1,-1,-1,-1,-1,-1,-1,-1,-1,-1,-1,-1,-1,-1,-1,-1,-1,-1,-1,-1,-1],"split_conditions":[3.260833E2,8.0839E0,6.9175E2,1.5E0,2.2711805E1,1.2940952E-1,3.7940952E-1,-1.0064926E-1,6.910903E2,6.848E-1,1.355E1,1.930874E2,1.2255E1,2.5E-1,3.7E2,1.9452097E2,5.5E0,1.699E2,4.55E1,1.00865E3,3.293624E1,2.015E2,2.2695999E2,1.00585E3,7.885E2,-9.7827274E-1,1.00375E3,5.0152503E-2,7.858334E2,3.00035E2,6.2832983E2,4.4534048E-1,1.7339174E1,3.728153E0,2.3038187E1,2.7121825E0,1.9211946E1,1.3085998E0,3.9011177E1,2.9839182E0,1.9259909E1,7.2929797E0,-2.463969E0,2.3761217E1,-2.7007563E1,4.14656E0,9.337882E0,-7.7838707E0,1.2434774E1,8.070757E0,-8.263904E0,7.827934E0,1.4254062E1,9.656836E0,-7.7256923E0,1.908567E1,-2.0961142E0,1.888187E1,-7.8726144E0,5.0617824E0,-1.3720557E1],"split_indices":[11,2,11,57,41,32,32,31,61,49,48,53,33,24,56,53,47,40,56,3,0,56,40,3,5,31,3,52,11,46,41,0,0,0,0,0,0,0,0,0,0,0,0,0,0,0,0,0,0,0,0,0,0,0,0,0,0,0,0,0,0],"split_type":[0,0,0,0,0,0,0,0,0,0,0,0,0,0,0,0,0,0,0,0,0,0,0,0,0,0,0,0,0,0,0,0,0,0,0,0,0,0,0,0,0,0,0,0,0,0,0,0,0,0,0,0,0,0,0,0,0,0,0,0,0],"sum_hessian":[2.9353E4,1.529E4,1.4063E4,6.593E3,8.697E3,1.0345E4,3.718E3,2.79E2,6.314E3,5.9E1,8.638E3,5.338E3,5.007E3,7.43E2,2.975E3,1.08E2,1.71E2,6.292E3,2.2E1,1.1E1,4.8E1,8.533E3,1.05E2,2.864E3,2.474E3,1.04E2,4.903E3,2.71E2,4.72E2,2.934E3,4.1E1,8.1E1,2.7E1,5.3E1,1.18E2,6.255E3,3.7E1,6E0,1.6E1,2E0,9E0,8.338E3,1.95E2,1E2,5E0,1.281E3,1.583E3,1.38E2,2.336E3,2.8E1,7.6E1,7.03E2,4.2E3,2.08E2,6.3E1,4.29E2,4.3E1,2.913E3,2.1E1,2.9E1,1.2E1],"tree_param":{"num_deleted":"0","num_feature":"65","num_nodes":"61","size_leaf_vector":"0"}},{"base_weights":[8.112989E1,6.403903E1,1.3415524E2,2.3213148E1,7.5208084E1,1.5148605E2,9.359188E1,9.94082E1,1.8429834E1,6.561432E1,1.01922714E2,1.6944778E2,1.2240333E2,3.6348034E1,1.1166506E2,1.5133049E2,-8.903123E0,2.1851492E1,-4.159602E1,5.3486076E1,9.1813095E1,7.381495E1,1.2239657E2,1.8281721E2,1.2943114E2,6.925232E1,1.5288083E2,1.8669739E1,2.642279E2,1.17048744E2,-9.931522E1,2.3741425E2,9.3124435E1,5.1621655E1,-4.5273193E1,3.778905E1,9.51091E0,-4.814363E1,1.8509427E2,4.7894157E1,9.980899E1,7.062832E1,1.1995381E2,1.8354047E2,5.753969E1,1.2789548E2,-1.5196637E1,1.005401E2,1.9446921E2,2.7807112E1,1.6508374E2,9.4555084E1,-1.9223831E2,1.6958748E2,2.5445398E1,2.076484E2,-1.8860742E0,1.15577576E2,3.603269E2,1.1012491E2,2.6999374E2,-2.2108772E1,-2.4663419E2],"categories":[],"categories_nodes":[],"categories_segments":[],"categories_sizes":[],"default_left":[1,1,0,1,1,1,1,0,1,1,1,0,1,0,1,1,1,0,0,1,1,1,0,1,0,0,1,1,1,1,1,0,0,0,0,0,0,0,0,0,0,0,0,0,0,0,0,0,0,0,0,0,0,0,0,0,0,0,0,0,0,0,0],"id":14,"left_children":[1,3,5,7,9,11,13,15,17,19,21,23,25,27,29,31,33,35,37,39,41,43,45,47,49,51,53,55,57,59,61,-1,-1,-1,-1,-1,-1,-1,-1,-1,-1,-1,-1,-1,-1,-1,-1,-1,-1,-1,-1,-1,-1,-1,-1,-1,-1,-1,-1,-1,-1,-1,-1],"loss_changes":[2.6540864E7,1.0101536E7,5.005216E6,1.7333848E6,4.452064E6,2.591656E6,2.209938E6,1.581627E6,9.212521E5,4.063172E6,2.635268E6,1.62896E6,3.088298E6,2.0697588E6,1.85852E6,9.299045E5,2.0485578E5,8.335584E5,3.6810675E5,2.262802E6,2.40596E6,3.452128E6,2.012264E6,2.197896E6,2.810606E6,4.6430665E6,2.582444E6,1.8611198E6,4.869045E5,1.649788E6,4.6088012E5,0E0,0E0,0E0,0E0,0E0,0E0,0E0,0E0,0E0,0E0,0E0,0E0,0E0,0E0,0E0,0E0,0E0,0E0,0E0,0E0,0E0,0E0,0E0,0E0,0E0,0E0,0E0,0E0,0E0,0E0,0E0,0E0],"parents":[2147483647,0,0,1,1,2,2,3,3,4,4,5,5,6,6,7,7,8,8,9,9,10,10,11,11,12,12,13,13,14,14,15,15,16,16,17,17,18,18,19,19,20,20,21,21,22,22,23,23,24,24,25,25,26,26,27,27,28,28,29,29,30,30],"right_children":[2,4,6,8,10,12,14,16,18,20,22,24,26,28,30,32,34,36,38,40,42,44,46,48,50,52,54,56,58,60,62,-1,-1,-1,-1,-1,-1,-1,-1,-1,-1,-1,-1,-1,-1,-1,-1,-1,-1,-1,-1,-1,-1,-1,-1,-1,-1,-1,-1,-1,-1,-1,-1],"split_conditions":[9.8414075E2,-5E-1,2.8185001E1,-9.529146E-1,3.7940952E-1,2.493665E-1,-8.1971E-1,6.12E2,2.6791666E2,2.5E0,1.12706436E2,2.86875E1,7.5486517E-1,8.4775E1,1.6912856E2,8.2275E1,8.5E0,8.4575E1,4.210486E2,6.5234995E-1,1.9502017E2,1.5E0,2.515E2,3.00857E2,3.95E1,2.4129434E2,8.255E2,-9.9359244E-1,3.026505E2,5.335E2,9.159756E-1,2.3741425E1,9.312444E0,5.1621656E0,-4.5273194E0,3.7789052E0,9.51091E-1,-4.814363E0,1.8509428E1,4.789416E0,9.980899E0,7.062832E0,1.1995381E1,1.8354048E1,5.7539687E0,1.2789548E1,-1.5196637E0,1.005401E1,1.944692E1,2.7807112E0,1.6508375E1,9.455508E0,-1.9223831E1,1.6958748E1,2.54454E0,2.0764841E1,-1.8860742E-1,1.1557757E1,3.6032692E1,1.1012491E1,2.6999374E1,-2.2108772E0,-2.466342E1],"split_indices":[64,7,60,31,32,6,31,5,61,0,53,40,6,42,16,42,26,42,61,22,53,57,56,8,56,39,5,31,8,54,13,0,0,0,0,0,0,0,0,0,0,0,0,0,0,0,0,0,0,0,0,0,0,0,0,0,0,0,0,0,0,0,0],"split_type":[0,0,0,0,0,0,0,0,0,0,0,0,0,0,0,0,0,0,0,0,0,0,0,0,0,0,0,0,0,0,0,0,0,0,0,0,0,0,0,0,0,0,0,0,0,0,0,0,0,0,0,0,0,0,0,0,0,0,0,0,0,0,0],"sum_hessian":[2.9295E4,2.2156E4,7.139E3,4.76E3,1.7396E4,5E3,2.139E3,2.8E2,4.48E3,1.2802E4,4.594E3,3.088E3,1.912E3,5.14E2,1.625E3,1.89E2,9.1E1,4.239E3,2.41E2,8.753E3,4.049E3,1.938E3,2.656E3,2.312E3,7.76E2,6.98E2,1.214E3,4.78E2,3.6E1,1.585E3,4E1,7.5E1,1.14E2,3.4E1,5.7E1,1.849E3,2.39E3,2.35E2,6E0,7.812E3,9.41E2,2.312E3,1.737E3,2.49E2,1.689E3,2.554E3,1.02E2,2.88E2,2.024E3,2.02E2,5.74E2,6.37E2,6.1E1,1.073E3,1.41E2,4.6E1,4.32E2,1.5E1,2.1E1,1.518E3,6.7E1,2.7E1,1.3E1],"tree_param":{"num_deleted":"0","num_feature":"65","num_nodes":"63","size_leaf_vector":"0"}},{"base_weights":[7.19585E1,5.513712E1,1.2014197E2,7.026883E1,2.7833366E1,1.0639049E2,1.5815048E2,3.0862888E1,7.5459236E1,2.7119547E1,3.3203934E2,9.884884E1,1.5518651E2,1.6302087E2,3.2259014E1,5.2547623E1,-2.6886065E1,9.561489E1,6.489585E1,3.2513718E1,-8.533185E0,1.2652219E2,3.6470798E2,1.0550917E2,1.5885187E1,1.6102318E2,-1.3843237E2,1.6682814E2,-1.2278602E1,-1.7392163E2,7.756489E1,3.6643414E1,1.3428001E2,-3.7220837E1,2.1977136E2,2.6733946E1,1.0944212E2,3.2368557E1,7.550527E1,2.6725676E1,8.782312E1,3.926653E1,-4.104502E1,1.19442345E2,6.418515E1,-2.0596121E2,3.1684082E1,2.1123935E2,1.3383176E2,-2.0156561E2,2.8147236E1,1.7128668E2,9.308325E1,3.2883987E1,-9.576353E1,4.108896E1,1.4856012E2],"categories":[],"categories_nodes":[],"categories_segments":[],"categories_sizes":[],"default_left":[1,1,1,0,1,1,1,0,0,0,0,1,0,1,1,1,0,0,0,0,1,0,0,1,1,0,0,1,0,0,0,0,0,0,0,0,0,0,0,0,0,0,0,0,0,0,0,0,0,0,0,0,0,0,0,0,0],"id":15,"left_children":[1,3,5,7,9,11,13,15,17,19,21,23,25,27,29,31,33,35,37,39,41,-1,-1,43,45,47,49,51,53,-1,55,-1,-1,-1,-1,-1,-1,-1,-1,-1,-1,-1,-1,-1,-1,-1,-1,-1,-1,-1,-1,-1,-1,-1,-1,-1,-1],"loss_changes":[2.3681424E7,8.948996E6,3.935632E6,2.848648E6,1.668897E6,2.02928E6,1.225312E6,2.0351005E6,2.616016E6,1.48304E6,7.470775E4,2.658924E6,1.293898E6,1.291496E6,7.23421E5,1.5302485E6,1.140002E6,4.028724E6,2.787308E6,2.141584E6,1.5774249E6,0E0,0E0,2.55856E6,1.2647948E6,9.65778E5,1.6342419E5,6.05804E5,1.6150569E5,0E0,1.5704172E5,0E0,0E0,0E0,0E0,0E0,0E0,0E0,0E0,0E0,0E0,0E0,0E0,0E0,0E0,0E0,0E0,0E0,0E0,0E0,0E0,0E0,0E0,0E0,0E0,0E0,0E0],"parents":[2147483647,0,0,1,1,2,2,3,3,4,4,5,5,6,6,7,7,8,8,9,9,10,10,11,11,12,12,13,13,14,14,15,15,16,16,17,17,18,18,19,19,20,20,23,23,24,24,25,25,26,26,27,27,28,28,30,30],"right_children":[2,4,6,8,10,12,14,16,18,20,22,24,26,28,30,32,34,36,38,40,42,-1,-1,44,46,48,50,52,54,-1,56,-1,-1,-1,-1,-1,-1,-1,-1,-1,-1,-1,-1,-1,-1,-1,-1,-1,-1,-1,-1,-1,-1,-1,-1,-1,-1],"split_conditions":[1.135E1,5E-1,1.580648E3,2.984575E2,1.92E2,6.244896E2,3.54E2,1.00755E3,2.8415E1,6.225E2,4.1033334E2,2.28E2,6.0722E0,6.830127E-1,7.5E0,7.5486517E-1,-5.5718E0,1.00375E3,8.628441E1,5.465E2,-3.4552336E-1,1.2652219E1,3.64708E1,7.865661E-1,-5E-1,2.7634998E1,6.625834E2,7.865661E-1,2.857E1,-1.7392164E1,6.2553125E2,3.6643414E0,1.3428001E1,-3.7220838E0,2.1977137E1,2.6733947E0,1.0944213E1,3.2368557E0,7.550527E0,2.6725676E0,8.782312E0,3.926653E0,-4.104502E0,1.1944235E1,6.418515E0,-2.059612E1,3.1684082E0,2.1123936E1,1.3383176E1,-2.015656E1,2.8147237E0,1.7128668E1,9.308326E0,3.2883987E0,-9.576353E0,4.108896E0,1.4856012E1],"split_indices":[48,55,64,46,56,41,56,3,60,30,11,56,38,1,47,6,58,3,39,30,6,0,0,13,19,60,11,13,60,0,41,0,0,0,0,0,0,0,0,0,0,0,0,0,0,0,0,0,0,0,0,0,0,0,0,0,0],"split_type":[0,0,0,0,0,0,0,0,0,0,0,0,0,0,0,0,0,0,0,0,0,0,0,0,0,0,0,0,0,0,0,0,0,0,0,0,0,0,0,0,0,0,0,0,0,0,0,0,0,0,0,0,0,0,0,0,0],"sum_hessian":[2.9225E4,2.1664E4,7.561E3,1.3938E4,7.726E3,5.555E3,2.006E3,1.623E3,1.2315E4,7.709E3,1.7E1,4.814E3,7.41E2,1.931E3,7.5E1,1.18E3,4.43E2,4.232E3,8.083E3,6.696E3,1.013E3,3E0,1.4E1,4.456E3,3.58E2,7.27E2,1.4E1,1.89E3,4.1E1,1.3E1,6.2E1,9.89E2,1.91E2,4.26E2,1.7E1,7.08E2,3.524E3,1.989E3,6.094E3,6.063E3,6.33E2,4.1E2,6.03E2,3.331E3,1.125E3,2.3E1,3.35E2,2.53E2,4.74E2,1E1,4E0,1.781E3,1.09E2,2.7E1,1.4E1,4.2E1,2E1],"tree_param":{"num_deleted":"0","num_feature":"65","num_nodes":"57","size_leaf_vector":"0"}},{"base_weights":[6.481931E1,8.7128204E1,3.6336838E1,1.06369194E2,6.4065125E1,2.2791132E1,5.5650826E1,9.538532E1,1.4087914E2,6.2584183E1,2.9030234E2,1.0166102E2,1.7942095E1,5.42825E1,3.294383E2,1.0385699E2,5.1926662E1,1.4524158E2,3.344524E1,5.6664516E1,1.0218309E2,4.602185E1,3.1146368E2,6.417069E1,2.575531E2,5.5102177E0,3.3143555E1,9.0890884E1,4.6097637E1,3.471059E2,-5.6126083E1,5.061009E1,1.1346492E2,2.7496078E1,1.8309978E2,1.4923566E2,2.414561E1,1.0438986E2,-5.704915E1,6.1376812E1,1.2881462E1,8.43512E1,1.9692474E2,-2.8167317E0,7.951981E1,2.558964E2,3.8466492E2,1.7967995E2,1.889673E1,3.1430283E2,6.023886E1,4.1481693E1,-8.106687E0,4.5309223E1,-2.5833254E0,6.191847E1,1.9179962E2,1.1378802E1,6.2000664E1,3.6438324E2,-3.377507E1],"categories":[],"categories_nodes":[],"categories_segments":[],"categories_sizes":[],"default_left":[1,0,1,0,1,1,0,0,1,0,0,1,0,0,0,0,1,1,0,0,1,0,0,0,0,1,0,0,0,0,0,0,0,0,0,0,0,0,0,0,0,0,0,0,0,0,0,0,0,0,0,0,0,0,0,0,0,0,0,0,0],"id":16,"left_children":[1,3,5,7,9,11,13,15,17,19,21,23,25,27,29,31,33,35,37,39,41,43,45,47,49,51,53,55,57,59,-1,-1,-1,-1,-1,-1,-1,-1,-1,-1,-1,-1,-1,-1,-1,-1,-1,-1,-1,-1,-1,-1,-1,-1,-1,-1,-1,-1,-1,-1,-1],"loss_changes":[1.8484152E7,7.23308E6,3.342518E6,3.35748E6,2.468872E6,2.8718538E6,1.955669E6,2.479364E6,1.000448E6,1.723234E6,2.3379275E5,2.5258065E6,1.3378145E6,1.566793E6,1.9659375E5,2.883224E6,3.5296785E6,9.93232E5,5.51663E5,1.32357E6,1.601856E6,8.403952E3,8.054E4,1.8374102E6,9.21659E5,1.9086758E6,1.3844495E6,2.785981E6,2.366295E6,1.76822E5,0E0,0E0,0E0,0E0,0E0,0E0,0E0,0E0,0E0,0E0,0E0,0E0,0E0,0E0,0E0,0E0,0E0,0E0,0E0,0E0,0E0,0E0,0E0,0E0,0E0,0E0,0E0,0E0,0E0,0E0,0E0],"parents":[2147483647,0,0,1,1,2,2,3,3,4,4,5,5,6,6,7,7,8,8,9,9,10,10,11,11,12,12,13,13,14,14,15,15,16,16,17,17,18,18,19,19,20,20,21,21,22,22,23,23,24,24,25,25,26,26,27,27,28,28,29,29],"right_children":[2,4,6,8,10,12,14,16,18,20,22,24,26,28,30,32,34,36,38,40,42,44,46,48,50,52,54,56,58,60,-1,-1,-1,-1,-1,-1,-1,-1,-1,-1,-1,-1,-1,-1,-1,-1,-1,-1,-1,-1,-1,-1,-1,-1,-1,-1,-1,-1,-1,-1,-1],"split_conditions":[-8.06365E0,2.8564999E1,1.2189841E2,1.1271E1,3.3805884E2,1.5E0,-5.48125E0,1.85E2,2.5E-1,6.092084E2,2.3811806E2,3.7940952E-1,-5.61535E0,6.355E2,6.1916E0,9.85E1,6.4061804E2,3.54E2,1.1598E0,8.155E2,2.0565909E2,1.0046E3,8.8229E-2,2.1949306E2,1.37E2,8.5E0,-3.6797E0,8.1356E-1,7.695E2,1.00675E3,-5.6126084E0,5.061009E0,1.1346492E1,2.7496078E0,1.8309978E1,1.4923566E1,2.414561E0,1.0438987E1,-5.704915E0,6.1376815E0,1.2881463E0,8.43512E0,1.9692474E1,-2.8167316E-1,7.9519815E0,2.558964E1,3.846649E1,1.7967995E1,1.8896731E0,3.1430283E1,6.023886E0,4.1481695E0,-8.1066865E-1,4.5309224E0,-2.5833255E-1,6.191847E0,1.9179962E1,1.1378802E0,6.2000666E0,3.6438324E1,-3.377507E0],"split_indices":[59,60,53,35,39,57,58,56,1,41,61,32,58,5,15,4,41,56,62,5,53,3,52,41,56,47,59,22,5,3,0,0,0,0,0,0,0,0,0,0,0,0,0,0,0,0,0,0,0,0,0,0,0,0,0,0,0,0,0,0,0],"split_type":[0,0,0,0,0,0,0,0,0,0,0,0,0,0,0,0,0,0,0,0,0,0,0,0,0,0,0,0,0,0,0,0,0,0,0,0,0,0,0,0,0,0,0,0,0,0,0,0,0,0,0,0,0,0,0,0,0,0,0,0,0],"sum_hessian":[2.9094E4,1.6314E4,1.278E4,8.892E3,7.422E3,7.513E3,5.267E3,6.748E3,2.144E3,7.375E3,4.7E1,4.34E2,7.079E3,5.242E3,2.5E1,5.646E3,1.102E3,2.06E3,8.4E1,6.418E3,9.57E2,4E0,4.3E1,3.51E2,8.3E1,3.895E3,3.184E3,9.56E2,4.286E3,2.4E1,1E0,8.64E2,4.782E3,9.3E2,1.72E2,1.994E3,6.6E1,4.7E1,3.7E1,5.794E3,6.24E2,8.07E2,1.5E2,2E0,2E0,2.7E1,1.6E1,9.8E1,2.53E2,6.4E1,1.9E1,1.069E3,2.826E3,2.375E3,8.09E2,7.44E2,2.12E2,1.347E3,2.939E3,2.3E1,1E0],"tree_param":{"num_deleted":"0","num_feature":"65","num_nodes":"61","size_leaf_vector":"0"}},{"base_weights":[5.777993E1,4.2742107E1,9.4958084E1,5.9118546E1,2.505287E1,6.7360725E1,1.0968247E2,5.109638E1,7.947351E1,8.889476E0,3.4826824E1,4.1429966E1,8.619932E1,5.882547E1,1.1757296E2,3.5070545E1,6.550132E1,5.4159203E1,9.9101776E1,1.3037204E1,-3.9622902E1,2.9527193E1,6.835662E1,1.03751144E2,2.0856329E1,1.4232445E2,6.901267E1,8.224286E1,-4.6296574E1,1.2946976E2,8.280034E1,1.3805293E2,3.1394114E1,-2.7490776E1,6.9772934E1,7.468927E1,-7.592185E0,1.046908E2,-3.6795288E1,7.4401655E0,5.070169E1,-5.446791E1,1.0027804E0,4.0821903E1,-5.2028837E0,4.835971E1,1.7464859E2,1.3642143E2,-1.356197E1,5.3817596E0,1.1018857E2,1.608271E2,-7.490373E1,4.2799793E1,1.1007612E2,1.1191048E1,1.1997772E2,-2.3304974E2,5.821708E1,1.3123854E2,-1.2560205E2,2.2211042E1,1.0754214E2],"categories":[],"categories_nodes":[],"categories_segments":[],"categories_sizes":[],"default_left":[1,1,1,1,1,1,1,0,0,1,1,0,1,1,1,0,0,0,1,1,0,1,1,0,1,0,1,1,1,1,1,0,0,0,0,0,0,0,0,0,0,0,0,0,0,0,0,0,0,0,0,0,0,0,0,0,0,0,0,0,0,0,0],"id":17,"left_children":[1,3,5,7,9,11,13,15,17,19,21,23,25,27,29,31,33,35,37,39,41,43,45,47,49,51,53,55,57,59,61,-1,-1,-1,-1,-1,-1,-1,-1,-1,-1,-1,-1,-1,-1,-1,-1,-1,-1,-1,-1,-1,-1,-1,-1,-1,-1,-1,-1,-1,-1,-1,-1],"loss_changes":[1.6426688E7,6.060788E6,3.431592E6,1.77026E6,1.5892885E6,1.436036E6,2.206976E6,1.79765E6,1.520042E6,7.637295E5,1.1121325E6,1.5902955E6,1.63579E6,1.8328385E6,1.96462E6,1.393865E6,1.63253E6,1.7031685E6,1.316326E6,7.364022E5,1.803781E5,2.124726E6,1.8088658E6,1.1823075E6,1.2919302E6,1.6157455E6,1.4032085E6,1.6287848E6,2.6680502E6,1.620824E6,1.8264995E6,0E0,0E0,0E0,0E0,0E0,0E0,0E0,0E0,0E0,0E0,0E0,0E0,0E0,0E0,0E0,0E0,0E0,0E0,0E0,0E0,0E0,0E0,0E0,0E0,0E0,0E0,0E0,0E0,0E0,0E0,0E0,0E0],"parents":[2147483647,0,0,1,1,2,2,3,3,4,4,5,5,6,6,7,7,8,8,9,9,10,10,11,11,12,12,13,13,14,14,15,15,16,16,17,17,18,18,19,19,20,20,21,21,22,22,23,23,24,24,25,25,26,26,27,27,28,28,29,29,30,30],"right_children":[2,4,6,8,10,12,14,16,18,20,22,24,26,28,30,32,34,36,38,40,42,44,46,48,50,52,54,56,58,60,62,-1,-1,-1,-1,-1,-1,-1,-1,-1,-1,-1,-1,-1,-1,-1,-1,-1,-1,-1,-1,-1,-1,-1,-1,-1,-1,-1,-1,-1,-1,-1,-1],"split_conditions":[1.115E1,-7.4065504E0,1.2940952E-1,1.65E1,-5E-1,5.058416E-2,8.1E1,1.125E2,9.55E1,6.055E2,7.995E2,7.6265E1,3.468595E-1,7.5778425E-1,6.035534E-1,3.8E2,2.984425E2,6.015E2,6.0664E-1,1.0171472E2,1.7455333E2,7.865661E-1,1.4795E2,4.2941E0,1.3198999E2,1.505E2,8.732244E-1,7.935E2,8.732244E-1,3.002025E2,-4.3982893E-1,1.3805293E1,3.1394114E0,-2.7490776E0,6.9772935E0,7.468927E0,-7.592185E-1,1.0469081E1,-3.679529E0,7.440166E-1,5.070169E0,-5.446791E0,1.0027804E-1,4.0821905E0,-5.202884E-1,4.8359714E0,1.7464859E1,1.3642143E1,-1.356197E0,5.38176E-1,1.1018857E1,1.608271E1,-7.490373E0,4.279979E0,1.1007612E1,1.1191047E0,1.1997772E1,-2.3304976E1,5.821708E0,1.3123855E1,-1.2560205E1,2.2211044E0,1.0754214E1],"split_indices":[48,59,32,26,7,31,54,4,4,30,30,42,31,31,13,5,46,30,38,53,53,13,63,38,40,4,31,5,31,46,31,0,0,0,0,0,0,0,0,0,0,0,0,0,0,0,0,0,0,0,0,0,0,0,0,0,0,0,0,0,0,0,0],"split_type":[0,0,0,0,0,0,0,0,0,0,0,0,0,0,0,0,0,0,0,0,0,0,0,0,0,0,0,0,0,0,0,0,0,0,0,0,0,0,0,0,0,0,0,0,0,0,0,0,0,0,0,0,0,0,0,0,0,0,0,0,0,0,0],"sum_hessian":[2.9388E4,2.0926E4,8.462E3,1.0865E4,1.0061E4,2.946E3,5.516E3,7.796E3,3.069E3,3.792E3,6.269E3,1.241E3,1.705E3,7.42E2,4.774E3,3.692E3,4.104E3,1.342E3,1.727E3,3.494E3,2.98E2,5.415E3,8.54E2,3.07E2,9.34E2,3.98E2,1.307E3,6.07E2,1.35E2,3.555E3,1.219E3,1.26E2,3.566E3,1.8E2,3.924E3,1.007E3,3.35E2,1.659E3,6.8E1,3.043E3,4.51E2,2.18E2,8E1,4.086E3,1.329E3,7.2E2,1.34E2,2.4E2,6.7E1,7.97E2,1.37E2,3.67E2,3.1E1,7.99E2,5.08E2,2.11E2,3.96E2,4.8E1,8.7E1,3.531E3,2.4E1,3.54E2,8.65E2],"tree_param":{"num_deleted":"0","num_feature":"65","num_nodes":"63","size_leaf_vector":"0"}},{"base_weights":[5.290417E1,7.906378E1,3.4026875E1,6.3558075E1,1.16541954E2,1.3542273E2,3.088785E1,2.9098375E0,7.261122E1,5.7229866E1,1.2464853E2,4.701887E1,1.8937645E2,1.8158056E1,5.3012142E1,-6.2954456E1,6.614365E1,9.5761314E1,5.3681103E1,1.4860379E2,-1.5879208E1,1.3737901E2,7.665955E1,2.9763142E1,1.9651834E2,2.907091E2,1.497823E2,1.625984E1,2.4226472E2,2.467391E1,7.655962E1,-5.3469536E1,-3.011446E2,7.0785766E0,1.4615396E2,6.0686592E1,1.21986565E2,-1.6656229E1,6.681896E1,1.8878134E2,-8.511689E1,8.790311E1,-1.6667491E2,9.90315E1,1.5289113E2,-1.8673349E2,9.745307E1,2.0460196E0,1.5442625E2,3.2186557E2,1.3038852E2,-3.047837E1,1.73908E2,1.486207E1,1.7801434E2,1.8015303E2,3.3117236E2,1.441854E1,9.847554E1,1.048173E2,4.391167E1],"categories":[],"categories_nodes":[],"categories_segments":[],"categories_sizes":[],"default_left":[1,1,1,1,1,0,1,1,0,1,1,0,0,1,1,0,0,1,1,1,0,1,1,1,0,0,0,0,0,1,0,0,0,0,0,0,0,0,0,0,0,0,0,0,0,0,0,0,0,0,0,0,0,0,0,0,0,0,0,0,0],"id":18,"left_children":[1,3,5,7,9,11,13,15,17,19,21,23,25,27,29,31,33,35,37,39,41,43,45,47,-1,49,51,53,55,57,59,-1,-1,-1,-1,-1,-1,-1,-1,-1,-1,-1,-1,-1,-1,-1,-1,-1,-1,-1,-1,-1,-1,-1,-1,-1,-1,-1,-1,-1,-1],"loss_changes":[1.4471752E7,7.13172E6,5.415244E6,4.772196E6,1.720924E6,2.428422E6,4.650847E6,4.710445E6,3.309224E6,2.9015935E6,1.920596E6,4.9719678E5,1.228317E6,4.4568345E6,4.023228E6,1.2355028E6,2.7257608E6,3.120986E6,3.848064E6,1.8284005E6,3.8019338E6,1.470204E6,3.6603145E6,6.078173E5,0E0,3.97594E5,1.0055505E6,2.3485228E6,4.262925E5,2.0716279E6,3.034294E6,0E0,0E0,0E0,0E0,0E0,0E0,0E0,0E0,0E0,0E0,0E0,0E0,0E0,0E0,0E0,0E0,0E0,0E0,0E0,0E0,0E0,0E0,0E0,0E0,0E0,0E0,0E0,0E0,0E0,0E0],"parents":[2147483647,0,0,1,1,2,2,3,3,4,4,5,5,6,6,7,7,8,8,9,9,10,10,11,11,12,12,13,13,14,14,15,15,16,16,17,17,18,18,19,19,20,20,21,21,22,22,23,23,25,25,26,26,27,27,28,28,29,29,30,30],"right_children":[2,4,6,8,10,12,14,16,18,20,22,24,26,28,30,32,34,36,38,40,42,44,46,48,-1,50,52,54,56,58,60,-1,-1,-1,-1,-1,-1,-1,-1,-1,-1,-1,-1,-1,-1,-1,-1,-1,-1,-1,-1,-1,-1,-1,-1,-1,-1,-1,-1,-1,-1],"split_conditions":[-2.5E-1,6.035534E-1,-9.9359244E-1,-9.177784E-1,8.25E1,1.1552501E0,6.830127E-1,3.5E0,4.892083E2,2.493665E-1,1.85E2,3.006675E2,1.3710077E2,1.83E2,8.12325E1,1.2383E0,4.9713196E2,3.06845E-1,-4.3982893E-1,7.05E1,3.975382E2,-6.8808264E-1,3.7194002E-1,1.4901999E-2,1.9651834E1,1.175E2,9.7E1,-5.55795E0,3.96E2,9.492439E-1,9.55E1,-5.346954E0,-3.011446E1,7.0785767E-1,1.46153965E1,6.0686593E0,1.2198657E1,-1.665623E0,6.681896E0,1.8878134E1,-8.511689E0,8.790311E0,-1.6667492E1,9.903151E0,1.5289113E1,-1.867335E1,9.745307E0,2.0460196E-1,1.5442626E1,3.2186558E1,1.3038852E1,-3.047837E0,1.73908E1,1.486207E0,1.7801435E1,1.8015303E1,3.3117237E1,1.441854E0,9.847554E0,1.048173E1,4.391167E0],"split_indices":[1,32,31,31,54,62,24,14,41,6,56,46,53,56,42,49,61,51,31,54,41,31,51,52,0,4,4,58,36,6,56,0,0,0,0,0,0,0,0,0,0,0,0,0,0,0,0,0,0,0,0,0,0,0,0,0,0,0,0,0,0],"split_type":[0,0,0,0,0,0,0,0,0,0,0,0,0,0,0,0,0,0,0,0,0,0,0,0,0,0,0,0,0,0,0,0,0,0,0,0,0,0,0,0,0,0,0,0,0,0,0,0,0,0,0,0,0,0,0,0,0,0,0,0,0],"sum_hessian":[2.931E4,1.2284E4,1.7026E4,8.691E3,3.593E3,5.1E2,1.6516E4,1.129E3,7.562E3,4.33E2,3.16E3,1.94E2,3.16E2,1.0485E4,6.031E3,5.53E2,5.76E2,3.4E3,4.162E3,1.92E2,2.41E2,2.496E3,6.64E2,1.75E2,1.9E1,8.7E1,2.29E2,1.0398E4,8.7E1,2.738E3,3.293E3,5.33E2,2E1,3.32E2,2.44E2,1.456E3,1.944E3,6.55E2,3.507E3,1.64E2,2.8E1,1.43E2,9.8E1,7.21E2,1.775E3,4.8E1,6.16E2,1.44E2,3.1E1,7.2E1,1.5E1,2.7E1,2.02E2,1.031E4,8.8E1,5.3E1,3.4E1,2.405E3,3.33E2,1.764E3,1.529E3],"tree_param":{"num_deleted":"0","num_feature":"65","num_nodes":"61","size_leaf_vector":"0"}},{"base_weights":[4.739357E1,3.0211473E1,7.127067E1,1.2561939E2,2.7373419E1,5.0181377E1,9.615349E1,5.001381E1,1.7086945E2,5.866438E1,2.0492273E1,1.473187E1,6.5255844E1,6.103011E1,1.08489746E2,6.6457444E-1,1.1986318E2,2.590936E2,1.3930264E2,7.351458E1,-2.230604E1,1.6233854E1,6.541077E1,6.553452E0,1.6418243E2,1.921833E2,5.8873375E1,2.5425207E1,1.072543E2,1.381555E2,8.654454E1,-3.397657E1,8.2523506E1,1.8605917E2,1.5634972E1,2.9077234E2,1.024342E2,1.160057E2,2.9597098E2,1.8174243E2,6.557883E1,-1.09790726E2,3.4035015E1,2.1404062E1,-1.5259975E1,2.879496E0,1.03834816E2,7.801453E1,-7.1376095E0,1.8065273E2,-1.321962E2,1.12374756E2,2.6615677E2,-1.5667494E1,6.626867E1,-1.0162122E1,7.23732E1,1.6466098E2,5.0050007E1,1.20020325E2,2.1196677E2,-1.8779727E2,9.354196E1],"categories":[],"categories_nodes":[],"categories_segments":[],"categories_sizes":[],"default_left":[1,1,1,0,1,1,1,0,0,0,1,1,1,0,0,0,0,0,0,0,0,0,0,0,0,0,1,0,0,0,0,0,0,0,0,0,0,0,0,0,0,0,0,0,0,0,0,0,0,0,0,0,0,0,0,0,0,0,0,0,0,0,0],"id":19,"left_children":[1,3,5,7,9,11,13,15,17,19,21,23,25,27,29,31,33,35,37,39,41,43,45,47,49,51,53,55,57,59,61,-1,-1,-1,-1,-1,-1,-1,-1,-1,-1,-1,-1,-1,-1,-1,-1,-1,-1,-1,-1,-1,-1,-1,-1,-1,-1,-1,-1,-1,-1,-1,-1],"loss_changes":[1.2043452E7,4.62028E6,6.442392E6,1.678085E6,3.569626E6,3.553752E6,2.434972E6,6.410649E5,8.21674E5,3.595695E6,2.5996055E6,2.4263508E6,3.769472E6,2.411673E6,2.702152E6,3.147294E5,5.283516E5,3.67237E5,8.01491E5,2.157586E6,2.2907832E6,2.0226708E6,2.8276845E6,1.8438209E6,5.2667025E5,1.286619E6,2.451351E6,1.387461E6,2.086893E6,2.345184E6,4.62289E6,0E0,0E0,0E0,0E0,0E0,0E0,0E0,0E0,0E0,0E0,0E0,0E0,0E0,0E0,0E0,0E0,0E0,0E0,0E0,0E0,0E0,0E0,0E0,0E0,0E0,0E0,0E0,0E0,0E0,0E0,0E0,0E0],"parents":[2147483647,0,0,1,1,2,2,3,3,4,4,5,5,6,6,7,7,8,8,9,9,10,10,11,11,12,12,13,13,14,14,15,15,16,16,17,17,18,18,19,19,20,20,21,21,22,22,23,23,24,24,25,25,26,26,27,27,28,28,29,29,30,30],"right_children":[2,4,6,8,10,12,14,16,18,20,22,24,26,28,30,32,34,36,38,40,42,44,46,48,50,52,54,56,58,60,62,-1,-1,-1,-1,-1,-1,-1,-1,-1,-1,-1,-1,-1,-1,-1,-1,-1,-1,-1,-1,-1,-1,-1,-1,-1,-1,-1,-1,-1,-1,-1,-1],"split_conditions":[1.5E0,-9.9359244E-1,1.2940952E-1,1.1552501E0,1.5E0,-6.113204E-1,-6.8808264E-1,2.5552083E2,1.3702962E2,4.7843054E2,1.445E2,1.7434E2,-5.282851E-1,6.85E1,5.0546875E2,1.1545501E0,3.0915277E2,1.175E2,4.992639E2,2.1949306E2,1.72156E2,8.65E1,6.945E2,8.071751E0,3.898E0,9.435167E1,3.0009448E2,2.3985E-1,1.425E2,-5.5257E0,7.865E2,-3.3976572E0,8.252351E0,1.8605917E1,1.5634972E0,2.9077234E1,1.024342E1,1.160057E1,2.9597097E1,1.8174244E1,6.557883E0,-1.0979073E1,3.4035015E0,2.1404064E0,-1.5259975E0,2.8794962E-1,1.0383482E1,7.8014526E0,-7.13761E-1,1.8065273E1,-1.321962E1,1.1237475E1,2.6615677E1,-1.5667495E0,6.626867E0,-1.0162122E0,7.23732E0,1.6466099E1,5.0050006E0,1.2002032E1,2.1196676E1,-1.8779728E1,9.354197E0],"split_indices":[0,31,32,62,57,31,31,61,53,41,56,40,31,56,41,62,41,4,61,41,53,56,5,40,38,39,8,17,56,58,5,0,0,0,0,0,0,0,0,0,0,0,0,0,0,0,0,0,0,0,0,0,0,0,0,0,0,0,0,0,0,0,0],"split_type":[0,0,0,0,0,0,0,0,0,0,0,0,0,0,0,0,0,0,0,0,0,0,0,0,0,0,0,0,0,0,0,0,0,0,0,0,0,0,0,0,0,0,0,0,0,0,0,0,0,0,0,0,0,0,0,0,0,0,0,0,0,0,0],"sum_hessian":[2.936E4,1.7075E4,1.2285E4,4.92E2,1.6583E4,6.651E3,5.634E3,1.85E2,3.07E2,2.988E3,1.3595E4,1.985E3,4.666E3,1.466E3,4.168E3,1.09E2,7.6E1,7.9E1,2.28E2,2.525E3,4.63E2,1.2419E4,1.176E3,1.883E3,1.02E2,2.22E2,4.444E3,8.29E2,6.37E2,1.77E3,2.398E3,7.7E1,3.2E1,4.6E1,3E1,6.5E1,1.4E1,2E2,2.8E1,1.71E2,2.354E3,1.81E2,2.82E2,1.0668E4,1.751E3,4.48E2,7.28E2,3.02E2,1.581E3,9.7E1,5E0,1.08E2,1.14E2,4.01E2,4.043E3,4.72E2,3.57E2,3.17E2,3.2E2,1.423E3,3.47E2,5.9E1,2.339E3],"tree_param":{"num_deleted":"0","num_feature":"65","num_nodes":"63","size_leaf_vector":"0"}},{"base_weights":[4.2480083E1,2.3994675E1,5.9939995E1,1.6170837E2,2.2796146E1,4.011602E1,7.452778E1,2.3809338E2,8.518149E1,6.6598625E0,3.1074034E1,4.673538E1,-1.4092826E0,8.542192E1,4.870702E1,8.1377014E1,2.4202654E2,1.1685114E2,-5.915214E1,5.6727223E0,2.4230266E2,2.9475117E1,1.353389E2,6.24975E1,1.9038006E1,3.0411959E1,-5.5510815E1,-2.0364326E1,8.914721E1,6.429352E1,-3.7872013E1,1.9667961E1,1.340738E2,1.1395527E1,-1.6019798E2,-6.766536E-1,3.071636E1,-1.4860547E2,2.9399277E2,3.2094092E2,2.8933218E1,1.9632967E2,7.9049286E1,3.9479908E1,7.544462E1,-1.9139181E1,4.678386E1,-2.2277464E1,6.905461E1,3.0659517E1,-9.993474E1,2.701255E0,-1.9827406E2,8.423505E1,1.5754259E2,1.1127392E2,3.5560963E1,-8.0912285E1,6.8928246E1],"categories":[],"categories_nodes":[],"categories_segments":[],"categories_sizes":[],"default_left":[1,0,1,0,1,1,1,1,0,1,1,1,0,0,0,0,0,0,0,1,0,0,1,1,0,0,1,0,1,1,1,0,0,0,0,0,0,0,0,0,0,0,0,0,0,0,0,0,0,0,0,0,0,0,0,0,0,0,0],"id":20,"left_children":[1,3,5,7,9,11,13,15,17,19,21,23,25,27,29,-1,-1,31,33,35,37,39,41,43,45,47,49,51,53,55,57,-1,-1,-1,-1,-1,-1,-1,-1,-1,-1,-1,-1,-1,-1,-1,-1,-1,-1,-1,-1,-1,-1,-1,-1,-1,-1,-1,-1],"loss_changes":[9.482672E6,2.3524575E6,4.366932E6,6.98716E5,1.8902705E6,1.761439E6,2.444232E6,1.79045E4,2.9488478E5,1.115165E6,1.555424E6,2.411729E6,1.52012E6,2.413612E6,3.4907985E6,0E0,0E0,8.439819E4,8.7368125E4,7.602546E5,4.478105E5,1.446022E6,4.68554E5,1.046617E6,2.1257682E6,1.1335872E6,1.2548279E6,8.5818625E5,1.972976E6,2.953601E6,1.8212785E6,0E0,0E0,0E0,0E0,0E0,0E0,0E0,0E0,0E0,0E0,0E0,0E0,0E0,0E0,0E0,0E0,0E0,0E0,0E0,0E0,0E0,0E0,0E0,0E0,0E0,0E0,0E0,0E0],"parents":[2147483647,0,0,1,1,2,2,3,3,4,4,5,5,6,6,7,7,8,8,9,9,10,10,11,11,12,12,13,13,14,14,17,17,18,18,19,19,20,20,21,21,22,22,23,23,24,24,25,25,26,26,27,27,28,28,29,29,30,30],"right_children":[2,4,6,8,10,12,14,16,18,20,22,24,26,28,30,-1,-1,32,34,36,38,40,42,44,46,48,50,52,54,56,58,-1,-1,-1,-1,-1,-1,-1,-1,-1,-1,-1,-1,-1,-1,-1,-1,-1,-1,-1,-1,-1,-1,-1,-1,-1,-1,-1,-1],"split_conditions":[3.695E2,2.25E1,1.2940952E-1,9.266319E1,5.8205E0,6.830127E-1,2.5E-1,-9.159756E-1,1.73265E2,6.9175E2,9.897649E-1,2.215E2,1.6982088E2,1.00275E3,4.528507E2,8.137702E0,2.4202654E1,5.845E2,9.773251E0,7.5486517E-1,1.00605E3,-2.66785E-1,2.1653E-1,2.990325E2,7.985E2,2.748611E2,-3.4552336E-1,7.41825E-1,3.020335E2,-5.282851E-1,7.5486517E-1,1.9667962E0,1.3407381E1,1.1395527E0,-1.6019798E1,-6.766536E-2,3.071636E0,-1.4860547E1,2.9399277E1,3.2094093E1,2.8933218E0,1.9632967E1,7.9049287E0,3.947991E0,7.5444617E0,-1.9139181E0,4.678386E0,-2.2277465E0,6.9054613E0,3.0659518E0,-9.993474E0,2.701255E-1,-1.9827406E1,8.423505E0,1.5754259E1,1.1127392E1,3.5560963E0,-8.0912285E0,6.8928246E0],"split_indices":[10,30,32,41,35,1,1,32,40,61,6,54,53,3,41,0,0,5,2,6,3,52,22,46,30,41,6,38,8,31,6,0,0,0,0,0,0,0,0,0,0,0,0,0,0,0,0,0,0,0,0,0,0,0,0,0,0,0,0],"split_type":[0,0,0,0,0,0,0,0,0,0,0,0,0,0,0,0,0,0,0,0,0,0,0,0,0,0,0,0,0,0,0,0,0,0,0,0,0,0,0,0,0,0,0,0,0,0,0,0,0,0,0,0,0,0,0,0,0,0,0],"sum_hessian":[2.9384E4,1.4274E4,1.511E4,1.22E2,1.4152E4,6.407E3,8.703E3,6E1,6.2E1,4.799E3,9.353E3,5.526E3,8.81E2,6.119E3,2.584E3,2E0,5.8E1,5.1E1,1.1E1,4.78E3,1.9E1,9.213E3,1.4E2,3.521E3,2.005E3,5.55E2,3.26E2,2.08E2,5.911E3,2.19E3,3.94E2,8E0,4.3E1,7E0,4E0,3.814E3,9.66E2,2E0,1.7E1,1.6E1,9.197E3,6.6E1,7.4E1,1.269E3,2.252E3,8.44E2,1.161E3,2.35E2,3.2E2,1.11E2,2.15E2,1.85E2,2.3E1,5.517E3,3.94E2,8.3E2,1.36E3,2.81E2,1.13E2],"tree_param":{"num_deleted":"0","num_feature":"65","num_nodes":"59","size_leaf_vector":"0"}},{"base_weights":[3.7816746E1,2.6649738E1,6.24047E1,1.7485643E1,4.881214E1,-1.0596165E2,6.420379E1,1.0136853E1,3.4196785E1,3.0452904E1,6.889131E1,-1.38041E2,2.681763E2,4.7977062E1,8.3273094E1,1.766673E1,-2.444928E1,4.379496E1,-6.732549E0,5.511445E1,1.4462047E1,8.988982E1,2.4277523E1,-1.5756151E2,8.173937E1,-1.012186E2,3.354068E2,6.318445E1,1.8715292E1,7.618664E1,1.4418463E2,8.816594E0,4.3833496E1,-2.836267E1,7.538585E1,1.8205635E2,3.784891E1,-1.1953768E1,3.2111554E2,1.5324219E2,3.7140816E1,1.5606418E0,4.685813E1,4.4590332E1,1.15802444E2,-6.5125114E1,5.188055E1,1.5866566E2,-1.7140335E2,1.2896489E2,-1.244196E2,3.620492E1,8.677632E1,-5.282134E0,7.438647E1,9.60583E1,3.6043724E1,1.9699731E2,9.737795E1],"categories":[],"categories_nodes":[],"categories_segments":[],"categories_sizes":[],"default_left":[1,1,0,1,1,0,1,1,0,0,1,0,0,0,1,1,1,1,1,0,0,0,0,0,1,0,0,0,1,1,0,0,0,0,0,0,0,0,0,0,0,0,0,0,0,0,0,0,0,0,0,0,0,0,0,0,0,0,0],"id":21,"left_children":[1,3,5,7,9,11,13,15,17,19,21,23,25,27,29,31,33,35,37,39,41,43,45,47,49,-1,-1,51,53,55,57,-1,-1,-1,-1,-1,-1,-1,-1,-1,-1,-1,-1,-1,-1,-1,-1,-1,-1,-1,-1,-1,-1,-1,-1,-1,-1,-1,-1],"loss_changes":[8.033472E6,4.086703E6,2.775056E6,1.748421E6,2.168076E6,1.2012236E6,2.794204E6,2.5765992E6,1.7087855E6,1.2126462E6,2.631225E6,3.9899912E5,2.3262625E5,2.173953E6,1.782944E6,1.8809648E6,6.932755E5,2.8893985E6,1.4194692E6,2.1284005E6,7.806667E5,2.238023E6,2.2268512E6,3.905005E5,9.393346E4,0E0,0E0,2.043834E6,2.2354622E6,2.967992E6,1.048714E6,0E0,0E0,0E0,0E0,0E0,0E0,0E0,0E0,0E0,0E0,0E0,0E0,0E0,0E0,0E0,0E0,0E0,0E0,0E0,0E0,0E0,0E0,0E0,0E0,0E0,0E0,0E0,0E0],"parents":[2147483647,0,0,1,1,2,2,3,3,4,4,5,5,6,6,7,7,8,8,9,9,10,10,11,11,12,12,13,13,14,14,15,15,16,16,17,17,18,18,19,19,20,20,21,21,22,22,23,23,24,24,27,27,28,28,29,29,30,30],"right_children":[2,4,6,8,10,12,14,16,18,20,22,24,26,28,30,32,34,36,38,40,42,44,46,48,50,-1,-1,52,54,56,58,-1,-1,-1,-1,-1,-1,-1,-1,-1,-1,-1,-1,-1,-1,-1,-1,-1,-1,-1,-1,-1,-1,-1,-1,-1,-1,-1,-1],"split_conditions":[2.5E0,6.035534E-1,-1.2205E2,6.830127E-1,2.8109027E2,5.33395E0,1.2940952E-1,9.159756E-1,-5.57315E0,3.96805E-1,4.4484723E2,1.75E2,9.2715E0,1.92E2,2.75E1,7.955E2,2.1573766E2,2.5E0,3.2573E0,1.15555E0,1.00595E3,1.065E2,1.67556E2,1.00565E3,-9.330127E-1,-1.012186E1,3.354068E1,6.5E1,6.8738196E2,2.493665E-1,7.995E2,8.8165945E-1,4.38335E0,-2.8362672E0,7.538585E0,1.8205635E1,3.7848911E0,-1.1953768E0,3.2111553E1,1.5324219E1,3.7140815E0,1.5606418E-1,4.6858134E0,4.4590335E0,1.1580245E1,-6.5125117E0,5.188055E0,1.5866567E1,-1.7140335E1,1.2896489E1,-1.244196E1,3.6204922E0,8.677632E0,-5.2821344E-1,7.438647E0,9.60583E0,3.6043725E0,1.9699732E1,9.737796E0],"split_indices":[0,32,40,24,61,51,32,13,58,51,41,4,2,54,47,5,16,47,51,62,3,4,53,3,1,0,0,54,61,6,5,0,0,0,0,0,0,0,0,0,0,0,0,0,0,0,0,0,0,0,0,0,0,0,0,0,0,0,0],"split_type":[0,0,0,0,0,0,0,0,0,0,0,0,0,0,0,0,0,0,0,0,0,0,0,0,0,0,0,0,0,0,0,0,0,0,0,0,0,0,0,0,0,0,0,0,0,0,0,0,0,0,0,0,0,0,0,0,0,0,0],"sum_hessian":[2.9263E4,2.0125E4,9.138E3,1.4239E4,5.886E3,9.6E1,9.042E3,9.891E3,4.348E3,3.076E3,2.81E3,8.9E1,7E0,4.887E3,4.155E3,8.123E3,1.768E3,3.522E3,8.26E2,1.209E3,1.867E3,1.91E3,9E2,8.2E1,7E0,1E0,6E0,3.215E3,1.672E3,3.724E3,4.31E2,6.071E3,2.052E3,1.702E3,6.6E1,1.44E2,3.378E3,8.14E2,1.2E1,1.86E2,1.023E3,1.336E3,5.31E2,6.96E2,1.214E3,2.12E2,6.88E2,3E0,7.9E1,6E0,1E0,1.501E3,1.714E3,1.169E3,5.03E2,2.49E3,1.234E3,2.01E2,2.3E2],"tree_param":{"num_deleted":"0","num_feature":"65","num_nodes":"59","size_leaf_vector":"0"}},{"base_weights":[3.413303E1,2.5482706E1,5.840464E1,8.14899E0,3.1354355E1,9.071485E1,5.194557E1,1.2253956E2,5.5670714E0,-2.0826578E0,3.456528E1,7.2296974E1,1.2820854E2,6.3823917E1,2.380051E1,1.384629E2,-2.0573502E2,-1.4372394E2,7.6540055E0,-8.0769554E1,3.8159688E0,3.6429237E1,-2.6353077E1,-6.834179E1,7.849424E1,1.9987299E2,1.12395195E2,2.3363638E1,7.2930466E1,1.364382E1,1.7950664E2,3.969815E1,1.6115573E2,-8.78743E0,-2.1238976E2,8.655536E1,4.810328E0,-8.896361E1,1.0538422E0,1.9190802E1,-2.92124E1,8.397163E0,4.078413E1,-8.5476616E1,8.195005E0,1.809925E1,-2.2931749E2,5.1143117E0,8.484327E1,9.609612E1,2.669221E2,1.1675443E2,-1.1664124E2,1.15368744E2,-1.281137E0,8.2444016E1,2.5166792E1,3.0032013E1,-4.6895473E1,1.2083289E1,2.098252E2],"categories":[],"categories_nodes":[],"categories_segments":[],"categories_sizes":[],"default_left":[1,1,0,0,0,1,1,0,0,1,1,0,0,1,1,0,0,1,1,1,0,1,0,0,0,0,0,0,0,1,0,0,0,0,0,0,0,0,0,0,0,0,0,0,0,0,0,0,0,0,0,0,0,0,0,0,0,0,0,0,0],"id":22,"left_children":[1,3,5,7,9,11,13,15,17,19,21,23,25,27,29,31,-1,33,35,37,39,41,43,45,47,49,51,53,55,57,59,-1,-1,-1,-1,-1,-1,-1,-1,-1,-1,-1,-1,-1,-1,-1,-1,-1,-1,-1,-1,-1,-1,-1,-1,-1,-1,-1,-1,-1,-1],"loss_changes":[6.168736E6,2.205059E6,1.606614E6,1.6190012E6,1.737754E6,8.78093E5,2.15048E6,6.6098125E5,1.6723104E6,6.589294E5,1.677738E6,7.58406E5,4.55769E5,1.665916E6,3.0213005E6,2.5358775E5,0E0,6.837826E5,1.1867252E6,6.646981E4,6.7137194E5,1.748894E6,8.974041E5,5.19002E5,3.85324E5,4.9621075E5,3.6107E5,1.8889298E6,1.676486E6,1.7832732E6,5.913605E5,0E0,0E0,0E0,0E0,0E0,0E0,0E0,0E0,0E0,0E0,0E0,0E0,0E0,0E0,0E0,0E0,0E0,0E0,0E0,0E0,0E0,0E0,0E0,0E0,0E0,0E0,0E0,0E0,0E0,0E0],"parents":[2147483647,0,0,1,1,2,2,3,3,4,4,5,5,6,6,7,7,8,8,9,9,10,10,11,11,12,12,13,13,14,14,15,15,17,17,18,18,19,19,20,20,21,21,22,22,23,23,24,24,25,25,26,26,27,27,28,28,29,29,30,30],"right_children":[2,4,6,8,10,12,14,16,18,20,22,24,26,28,30,32,-1,34,36,38,40,42,44,46,48,50,52,54,56,58,60,-1,-1,-1,-1,-1,-1,-1,-1,-1,-1,-1,-1,-1,-1,-1,-1,-1,-1,-1,-1,-1,-1,-1,-1,-1,-1,-1,-1,-1,-1],"split_conditions":[1.135E1,1.625E2,1.2589016E1,4.45E1,-4.40195E0,1.0007501E0,1.1633501E0,3.075833E2,1E-1,3.013485E2,2.385E2,7.75E2,3.176E1,5.5E0,3.115E2,1.1568999E0,-2.0573502E1,6.215001E-1,-9.529146E-1,6.0896546E-1,6.06E2,-9.142429E-1,2.987825E2,6.335E2,1.15815E0,2.05E-1,7.791597E2,4.28375E2,8.025E2,9.159756E-1,6.765E2,3.969815E0,1.6115574E1,-8.78743E-1,-2.1238976E1,8.655536E0,4.8103282E-1,-8.896361E0,1.0538422E-1,1.9190801E0,-2.92124E0,8.397164E-1,4.078413E0,-8.547662E0,8.1950057E-1,1.8099251E0,-2.293175E1,5.1143116E-1,8.484327E0,9.609612E0,2.669221E1,1.1675444E1,-1.16641245E1,1.1536875E1,-1.281137E-1,8.244402E0,2.5166793E0,3.0032012E0,-4.6895475E0,1.208329E0,2.098252E1],"split_indices":[48,10,16,30,15,51,62,41,29,8,56,5,23,47,56,62,0,31,31,6,30,6,46,30,62,28,61,41,5,13,10,0,0,0,0,0,0,0,0,0,0,0,0,0,0,0,0,0,0,0,0,0,0,0,0,0,0,0,0,0,0],"split_type":[0,0,0,0,0,0,0,0,0,0,0,0,0,0,0,0,0,0,0,0,0,0,0,0,0,0,0,0,0,0,0,0,0,0,0,0,0,0,0,0,0,0,0,0,0,0,0,0,0,0,0,0,0,0,0,0,0,0,0,0,0],"sum_hessian":[2.9387E4,2.1667E4,7.72E3,5.483E3,1.6184E4,1.284E3,6.436E3,1.2E2,5.363E3,1.418E3,1.4766E4,8.63E2,4.21E2,4.525E3,1.911E3,1.15E2,5E0,7.3E1,5.29E3,9.8E1,1.32E3,1.4328E4,4.38E2,3.6E1,8.27E2,7.4E1,3.47E2,8.32E2,3.693E3,1.795E3,1.16E2,2.2E1,9.3E1,2.5E1,4.8E1,1.83E2,5.107E3,8.9E1,9E0,9.01E2,4.19E2,1.927E3,1.2401E4,1.61E2,2.77E2,2.4E1,1.2E1,6.6E1,7.61E2,3E1,4.4E1,3.41E2,6E0,1.75E2,6.57E2,3.079E3,6.14E2,1.413E3,3.82E2,1.8E1,9.8E1],"tree_param":{"num_deleted":"0","num_feature":"65","num_nodes":"61","size_leaf_vector":"0"}},{"base_weights":[3.1162457E1,2.191774E1,5.1228745E1,9.944592E0,3.596169E1,7.9783897E0,5.7851826E1,4.8826275E0,3.8259106E1,2.8991865E1,7.030969E1,-7.131328E1,4.6942604E1,9.321598E1,5.079359E1,-7.099938E1,6.3432946E0,2.1067613E2,3.1941643E1,8.8449844E1,2.4194412E1,8.308687E1,-1.0008399E1,-5.854734E1,-2.7206497E2,-4.566193E1,8.0221306E1,3.953216E1,1.1269699E2,-2.0464781E2,5.3056015E1,-1.0241064E2,-3.367028E1,5.0514746E0,9.692418E1,2.6729318E2,-5.5532482E1,3.923085E1,-8.990006E1,1.0410031E1,1.3412396E2,8.190777E0,3.55402E1,4.7431923E1,1.1783446E2,2.0164157E2,-4.4091682E1,-2.9978539E1,-1.3909727E2,-2.795774E2,-4.963971E1,-7.2662285E1,-1.5107092E1,1.7898865E1,1.0659709E2,2.8400482E1,1.8015468E2,2.6739738E1,1.2444637E2,-2.1375027E2,1.616474E2,4.665857E1,1.305044E2],"categories":[],"categories_nodes":[],"categories_segments":[],"categories_sizes":[],"default_left":[1,1,1,1,1,1,0,1,1,1,1,0,0,0,0,0,1,1,0,1,0,0,1,1,0,0,0,1,0,1,1,0,0,0,0,0,0,0,0,0,0,0,0,0,0,0,0,0,0,0,0,0,0,0,0,0,0,0,0,0,0,0,0],"id":23,"left_children":[1,3,5,7,9,11,13,15,17,19,21,23,25,27,29,31,33,35,37,39,41,43,45,47,49,51,53,55,57,59,61,-1,-1,-1,-1,-1,-1,-1,-1,-1,-1,-1,-1,-1,-1,-1,-1,-1,-1,-1,-1,-1,-1,-1,-1,-1,-1,-1,-1,-1,-1,-1,-1],"loss_changes":[5.446294E6,3.380302E6,2.652356E6,1.5554851E6,2.212886E6,3.806568E6,1.999872E6,1.0211607E6,1.7861565E6,2.1922655E6,1.6017635E6,1.0245615E6,2.549196E6,1.391709E6,3.88117E6,2.0057619E5,1.0568506E6,8.890165E5,1.4147648E6,2.044569E6,1.2925142E6,1.662002E6,1.5598419E6,8.771955E5,2.622475E4,1.7957547E5,9.9752425E5,5.537187E5,9.85407E5,2.3126925E5,3.283348E6,0E0,0E0,0E0,0E0,0E0,0E0,0E0,0E0,0E0,0E0,0E0,0E0,0E0,0E0,0E0,0E0,0E0,0E0,0E0,0E0,0E0,0E0,0E0,0E0,0E0,0E0,0E0,0E0,0E0,0E0,0E0,0E0],"parents":[2147483647,0,0,1,1,2,2,3,3,4,4,5,5,6,6,7,7,8,8,9,9,10,10,11,11,12,12,13,13,14,14,15,15,16,16,17,17,18,18,19,19,20,20,21,21,22,22,23,23,24,24,25,25,26,26,27,27,28,28,29,29,30,30],"right_children":[2,4,6,8,10,12,14,16,18,20,22,24,26,28,30,32,34,36,38,40,42,44,46,48,50,52,54,56,58,60,62,-1,-1,-1,-1,-1,-1,-1,-1,-1,-1,-1,-1,-1,-1,-1,-1,-1,-1,-1,-1,-1,-1,-1,-1,-1,-1,-1,-1,-1,-1,-1,-1],"split_conditions":[2.5E0,1.2940952E-1,-9.177784E-1,5.2513003E-1,1.6332077E2,5E-1,6.625E2,2.9949548E2,1.5E0,-9.529146E-1,8.235E2,1.5248001E0,1.00425E3,9.236E0,3.35E0,4.0654497E0,2.7636578E2,5E-1,8.325E2,-5.24105E-2,1.00495E3,1.18E2,1.5E0,2.493665E-1,4.2725003E-1,3.2518E-1,8.2984085E1,3.01774E2,1.1580501E0,6.0896546E-1,2.5843884E2,-1.0241064E1,-3.367028E0,5.0514746E-1,9.692418E0,2.6729319E1,-5.5532484E0,3.923085E0,-8.990006E0,1.0410031E0,1.3412396E1,8.190777E-1,3.55402E0,4.743192E0,1.1783446E1,2.0164158E1,-4.4091682E0,-2.997854E0,-1.3909728E1,-2.7957739E1,-4.963971E0,-7.2662287E0,-1.5107092E0,1.7898865E0,1.0659709E1,2.8400483E0,1.8015469E1,2.6739738E0,1.2444637E1,-2.1375029E1,1.616474E1,4.665857E0,1.305044E1],"split_indices":[0,32,31,22,39,7,30,8,47,31,5,20,3,2,29,15,53,0,30,52,3,54,47,6,27,22,39,8,62,6,53,0,0,0,0,0,0,0,0,0,0,0,0,0,0,0,0,0,0,0,0,0,0,0,0,0,0,0,0,0,0,0,0],"split_type":[0,0,0,0,0,0,0,0,0,0,0,0,0,0,0,0,0,0,0,0,0,0,0,0,0,0,0,0,0,0,0,0,0,0,0,0,0,0,0,0,0,0,0,0,0,0,0,0,0,0,0,0,0,0,0,0,0,0,0,0,0,0,0],"sum_hessian":[2.9364E4,2.0104E4,9.26E3,1.0853E4,9.251E3,1.23E3,8.03E3,9.208E3,1.645E3,7.692E3,1.559E3,4.05E2,8.25E2,1.334E3,6.696E3,1.73E2,9.035E3,5.7E1,1.588E3,5.73E2,7.119E3,1.345E3,2.14E2,3.82E2,2.3E1,2.18E2,6.07E2,3.56E2,9.78E2,5.8E1,6.638E3,9.3E1,8E1,8.909E3,1.26E2,4.7E1,1E1,1.499E3,8.9E1,2.12E2,3.61E2,2.954E3,4.165E3,6.65E2,6.8E2,2.9E1,1.85E2,2.83E2,9.9E1,2.2E1,1E0,1.15E2,1.03E2,1.81E2,4.26E2,3.31E2,2.5E1,1.18E2,8.6E2,5.7E1,1E0,6.133E3,5.05E2],"tree_param":{"num_deleted":"0","num_feature":"65","num_nodes":"63","size_leaf_vector":"0"}},{"base_weights":[2.8660194E1,1.3907436E1,4.012764E1,9.843091E0,4.9520348E1,3.301621E1,5.8679077E1,1.7130436E1,-2.0550983E1,1.3364012E2,2.9456413E1,2.499175E1,5.0332687E1,-4.456007E1,6.3925083E1,1.2562823E1,8.436703E1,-1.5069482E2,-1.5554561E1,-1.8470903E1,1.5990329E2,1.257876E1,1.4788828E2,1.9607506E1,6.205144E1,5.352721E1,-9.033111E1,-7.048255E1,1.2949507E2,-4.07698E0,6.952507E1,6.60766E1,8.973946E0,5.7556747E1,2.304545E2,-1.9617752E2,-1.00427315E2,-1.1529306E1,-1.3100868E2,4.5805305E1,-6.2381706E1,7.224516E1,1.8885542E2,-2.9734465E1,5.68215E1,3.7375153E2,7.7793686E1,1.03195274E2,1.654224E1,3.3810532E2,5.6812473E1,3.9721592E1,8.774274E1,-2.0494878E2,-6.244395E1,-1.181247E0,-1.07323875E2,2.2306264E2,7.623653E1,5.1146393E1,-1.251044E2,4.162169E1,7.7661385E1],"categories":[],"categories_nodes":[],"categories_segments":[],"categories_sizes":[],"default_left":[0,1,1,0,0,1,0,0,0,0,1,1,1,0,0,1,1,0,1,0,1,0,0,1,0,1,1,1,0,1,0,0,0,0,0,0,0,0,0,0,0,0,0,0,0,0,0,0,0,0,0,0,0,0,0,0,0,0,0,0,0,0,0],"id":24,"left_children":[1,3,5,7,9,11,13,15,17,19,21,23,25,27,29,31,33,35,37,39,41,43,45,47,49,51,53,55,57,59,61,-1,-1,-1,-1,-1,-1,-1,-1,-1,-1,-1,-1,-1,-1,-1,-1,-1,-1,-1,-1,-1,-1,-1,-1,-1,-1,-1,-1,-1,-1,-1,-1],"loss_changes":[4.946666E6,1.8509228E6,2.168664E6,2.543525E6,2.2070468E6,1.651753E6,2.471428E6,2.8433998E6,1.4418695E6,1.0096725E6,2.114924E6,1.621231E6,1.697103E6,1.0062661E6,1.652242E6,1.6652864E6,2.2936398E6,1.6777525E5,9.930164E5,1.1010936E5,5.320025E5,1.7389546E6,2.0607215E6,1.8177022E6,1.4718625E6,1.736239E6,2.556965E5,4.926315E5,1.2750934E5,2.2186512E6,9.06706E5,0E0,0E0,0E0,0E0,0E0,0E0,0E0,0E0,0E0,0E0,0E0,0E0,0E0,0E0,0E0,0E0,0E0,0E0,0E0,0E0,0E0,0E0,0E0,0E0,0E0,0E0,0E0,0E0,0E0,0E0,0E0,0E0],"parents":[2147483647,0,0,1,1,2,2,3,3,4,4,5,5,6,6,7,7,8,8,9,9,10,10,11,11,12,12,13,13,14,14,15,15,16,16,17,17,18,18,19,19,20,20,21,21,22,22,23,23,24,24,25,25,26,26,27,27,28,28,29,29,30,30],"right_children":[2,4,6,8,10,12,14,16,18,20,22,24,26,28,30,32,34,36,38,40,42,44,46,48,50,52,54,56,58,60,62,-1,-1,-1,-1,-1,-1,-1,-1,-1,-1,-1,-1,-1,-1,-1,-1,-1,-1,-1,-1,-1,-1,-1,-1,-1,-1,-1,-1,-1,-1,-1,-1],"split_conditions":[2.175E2,7.995E2,7.865661E-1,6.3E2,3.5E0,1.65E1,6.2498528E1,1.334126E2,2.15E0,2.0870833E2,9.7E1,6.088507E2,3.295E2,7.955E2,9E0,1.5E0,2.75E1,8.135E1,5.842466E2,4.695658E1,-8.2791504E1,-5.6155E0,1.035E2,1.5E0,7.08775E1,7.665E2,6.5E0,2.63465E-1,3.1825E1,5.282851E-1,-2.1087E0,6.60766E0,8.973946E-1,5.755675E0,2.304545E1,-1.9617752E1,-1.0042731E1,-1.1529306E0,-1.3100868E1,4.5805306E0,-6.2381706E0,7.2245164E0,1.8885542E1,-2.9734466E0,5.68215E0,3.7375153E1,7.779369E0,1.0319528E1,1.654224E0,3.381053E1,5.681247E0,3.9721591E0,8.774274E0,-2.0494879E1,-6.2443953E0,-1.181247E-1,-1.0732388E1,2.2306265E1,7.623653E0,5.1146393E0,-1.251044E1,4.162169E0,7.7661386E0],"split_indices":[36,30,32,30,56,26,39,39,29,61,56,41,56,5,54,57,47,42,41,16,40,58,56,47,42,30,47,22,23,31,15,0,0,0,0,0,0,0,0,0,0,0,0,0,0,0,0,0,0,0,0,0,0,0,0,0,0,0,0,0,0,0,0],"split_type":[0,0,0,0,0,0,0,0,0,0,0,0,0,0,0,0,0,0,0,0,0,0,0,0,0,0,0,0,0,0,0,0,0,0,0,0,0,0,0,0,0,0,0,0,0,0,0,0,0,0,0,0,0,0,0,0,0,0,0,0,0,0,0],"sum_hessian":[2.9242E4,1.279E4,1.6452E4,1.1481E4,1.309E3,1.1895E4,4.557E3,9.261E3,2.22E3,2.51E2,1.058E3,8.13E3,3.765E3,2.2E2,4.337E3,8.673E3,5.88E2,8.1E1,2.139E3,3.7E1,2.14E2,9.27E2,1.31E2,7.1E3,1.03E3,3.682E3,8.3E1,1.92E2,2.8E1,3.3E2,4.007E3,5.44E2,8.129E3,4.98E2,9E1,4.1E1,4E1,2.068E3,7.1E1,1.5E1,2.2E1,5.4E1,1.6E2,4.74E2,4.53E2,3E1,1.01E2,2.5E2,6.85E3,1.8E1,1.012E3,2.625E3,1.057E3,1.5E1,6.8E1,6.7E1,1.25E2,9E0,1.9E1,2.27E2,1.03E2,9.06E2,3.101E3],"tree_param":{"num_deleted":"0","num_feature":"65","num_nodes":"63","size_leaf_vector":"0"}},{"base_weights":[2.5125494E1,1.6662262E1,4.371436E1,8.089705E0,3.0973782E1,2.24916E1,5.2638638E1,5.624829E0,5.9807884E1,5.135127E1,2.2150682E1,5.7359257E1,4.686709E0,2.4890879E1,6.3598E1,-6.419076E-1,1.9726852E1,1.03741234E2,4.1786453E1,2.1040382E1,9.585887E1,-1.2460494E1,3.18647E1,-1.27433365E2,7.1823746E1,-1.5828627E1,4.7179764E1,6.607211E0,1.6139526E2,5.5839256E1,1.382211E2,-2.6734186E1,9.4398E0,8.540759E1,1.3184139E1,5.0776142E1,1.7932657E2,7.061809E1,4.1353636E0,-2.6010141E0,4.7924934E1,1.9211357E1,1.3807933E2,-2.4748155E-1,-1.0959463E2,4.381707E1,-9.84041E0,-1.8704773E2,-1.1238326E2,1.9717366E2,5.355581E1,6.0662186E1,-4.7636776E1,-4.185346E1,8.158702E1,4.7654293E1,-1.04056564E2,-2.459815E1,1.9506949E2,8.180665E0,6.98211E1,1.2540169E2,3.624035E2],"categories":[],"categories_nodes":[],"categories_segments":[],"categories_sizes":[],"default_left":[1,1,1,1,1,1,1,1,1,0,1,0,0,0,1,1,1,0,0,1,1,1,0,1,0,0,1,1,0,1,1,0,0,0,0,0,0,0,0,0,0,0,0,0,0,0,0,0,0,0,0,0,0,0,0,0,0,0,0,0,0,0,0],"id":25,"left_children":[1,3,5,7,9,11,13,15,17,19,21,23,25,27,29,31,33,35,37,39,41,43,45,47,49,51,53,55,57,59,61,-1,-1,-1,-1,-1,-1,-1,-1,-1,-1,-1,-1,-1,-1,-1,-1,-1,-1,-1,-1,-1,-1,-1,-1,-1,-1,-1,-1,-1,-1,-1,-1],"loss_changes":[4.610376E6,2.470897E6,1.735404E6,1.6056432E6,1.3553975E6,1.6858641E6,1.961064E6,1.0627944E6,4.49333E5,3.072503E6,1.7712342E6,2.4629038E6,1.5690418E6,4.5637535E6,2.670648E6,2.190709E6,1.588876E6,6.554564E5,4.426093E5,8.6261806E5,2.984261E6,1.3701498E6,2.050658E6,3.90915E4,1.9404215E6,2.9565895E6,1.7985604E6,7.336433E6,1.357646E6,2.792789E6,1.2046945E6,0E0,0E0,0E0,0E0,0E0,0E0,0E0,0E0,0E0,0E0,0E0,0E0,0E0,0E0,0E0,0E0,0E0,0E0,0E0,0E0,0E0,0E0,0E0,0E0,0E0,0E0,0E0,0E0,0E0,0E0,0E0,0E0],"parents":[2147483647,0,0,1,1,2,2,3,3,4,4,5,5,6,6,7,7,8,8,9,9,10,10,11,11,12,12,13,13,14,14,15,15,16,16,17,17,18,18,19,19,20,20,21,21,22,22,23,23,24,24,25,25,26,26,27,27,28,28,29,29,30,30],"right_children":[2,4,6,8,10,12,14,16,18,20,22,24,26,28,30,32,34,36,38,40,42,44,46,48,50,52,54,56,58,60,62,-1,-1,-1,-1,-1,-1,-1,-1,-1,-1,-1,-1,-1,-1,-1,-1,-1,-1,-1,-1,-1,-1,-1,-1,-1,-1,-1,-1,-1,-1,-1,-1],"split_conditions":[2.5E0,3.7940952E-1,-6.113204E-1,1.3176999E2,-5.282851E-1,2.15E1,6.5E0,6.830127E-1,-8.732244E-1,8.3975E1,-5.058416E-2,1.4533421E2,5.2205554E2,-5.50855E0,2.4506763E2,8.5E0,-9.529146E-1,1.9131192E2,2.688333E2,1.5E0,-1.02095E-1,4.9938892E2,-5.57885E0,3.5E0,7.985E2,5.495E2,3.5E0,7.867185E-1,6.05E1,3.0093048E2,1.3745001E2,-2.6734188E0,9.4398004E-1,8.540759E0,1.318414E0,5.0776143E0,1.7932657E1,7.061809E0,4.1353637E-1,-2.601014E-1,4.7924933E0,1.9211358E0,1.3807933E1,-2.4748156E-2,-1.0959463E1,4.381707E0,-9.8404104E-1,-1.8704773E1,-1.1238326E1,1.9717367E1,5.355581E0,6.066219E0,-4.7636776E0,-4.185346E0,8.158702E0,4.7654295E0,-1.0405657E1,-2.459815E0,1.9506948E1,8.1806654E-1,6.98211E0,1.2540169E1,3.6240353E1],"split_indices":[0,32,31,40,31,47,47,24,31,42,31,53,61,58,53,26,31,53,11,14,52,61,58,26,5,5,14,31,54,8,63,0,0,0,0,0,0,0,0,0,0,0,0,0,0,0,0,0,0,0,0,0,0,0,0,0,0,0,0,0,0,0,0],"split_type":[0,0,0,0,0,0,0,0,0,0,0,0,0,0,0,0,0,0,0,0,0,0,0,0,0,0,0,0,0,0,0,0,0,0,0,0,0,0,0,0,0,0,0,0,0,0,0,0,0,0,0,0,0,0,0,0,0,0,0,0,0,0,0],"sum_hessian":[2.9309E4,2.0141E4,9.168E3,1.2597E4,7.544E3,2.715E3,6.453E3,1.2025E4,5.72E2,2.278E3,5.266E3,9.17E2,1.798E3,1.828E3,4.625E3,8.326E3,3.699E3,1.65E2,4.07E2,1.356E3,9.22E2,1.154E3,4.112E3,6.6E1,8.51E2,1.213E3,5.85E2,1.613E3,2.15E2,4.191E3,4.34E2,2.32E3,6.006E3,3.34E2,3.365E3,9.8E1,6.7E1,2.3E2,1.77E2,7.22E2,6.34E2,3.28E2,5.94E2,1.026E3,1.28E2,3.196E3,9.16E2,1.1E1,5.5E1,1.07E2,7.44E2,3.56E2,8.57E2,1.63E2,4.22E2,1.177E3,4.36E2,3.3E1,1.82E2,9.51E2,3.24E3,4.12E2,2.2E1],"tree_param":{"num_deleted":"0","num_feature":"65","num_nodes":"63","size_leaf_vector":"0"}},{"base_weights":[2.2915325E1,3.7093044E1,1.2766404E1,6.973194E0,4.783488E1,8.900607E1,1.0498016E1,-5.131441E1,2.5068586E1,-6.868099E1,5.0325317E1,7.011144E1,2.2513852E2,-5.3859873E0,1.7835459E1,-1.1746945E2,-3.079329E1,4.611613E1,-1.4384926E1,-1.4888544E2,4.8393143E1,6.3599987E1,3.0783852E1,1.1727239E2,1.46654215E1,2.5814804E2,1.264587E2,-1.1015184E1,4.8817245E1,-2.3674967E0,2.7280962E1,-1.3293605E2,1.3364491E2,7.0068504E1,-4.307696E1,3.0415048E2,4.284141E1,1.6278085E2,-3.379745E1,-7.454712E1,-2.2872643E2,1.6208824E2,-1.2010881E2,5.3119457E1,9.333369E1,-4.5450863E1,3.729644E1,2.0674402E2,7.430894E1,-6.3740754E0,1.2663694E2,2.7795563E2,8.637408E1,2.7344421E1,1.457443E2,-2.65281E1,-2.2804897E0,2.9171738E1,2.2743706E2,4.375314E0,-3.9167305E1,1.5746469E2,2.443688E1],"categories":[],"categories_nodes":[],"categories_segments":[],"categories_sizes":[],"default_left":[1,1,1,0,0,0,1,0,1,1,0,0,0,1,1,0,1,0,0,0,0,0,0,0,1,1,0,1,1,0,1,0,0,0,0,0,0,0,0,0,0,0,0,0,0,0,0,0,0,0,0,0,0,0,0,0,0,0,0,0,0,0,0],"id":26,"left_children":[1,3,5,7,9,11,13,15,17,19,21,23,25,27,29,31,33,35,37,39,41,43,45,47,49,51,53,55,57,59,61,-1,-1,-1,-1,-1,-1,-1,-1,-1,-1,-1,-1,-1,-1,-1,-1,-1,-1,-1,-1,-1,-1,-1,-1,-1,-1,-1,-1,-1,-1,-1,-1],"loss_changes":[4.238483E6,3.976004E6,2.9686378E6,3.4101965E6,2.632156E6,1.260013E6,1.9436498E6,1.0362856E6,2.0492588E6,1.7912798E6,2.29898E6,1.1409855E6,1.627975E5,1.6085239E6,2.1768292E6,7.2074925E5,7.2904494E5,1.346559E6,2.9598048E6,6.536315E5,1.5137801E6,1.640732E6,1.784077E6,8.9182375E5,4.7668375E5,1.2569875E5,2.8509812E4,6.4695475E5,1.7338678E6,9.0213906E5,2.874131E6,0E0,0E0,0E0,0E0,0E0,0E0,0E0,0E0,0E0,0E0,0E0,0E0,0E0,0E0,0E0,0E0,0E0,